sequential/dense/kernel:0
(784, 128)
[[ 2.93619409e-02 -7.97003657e-02  3.09117287e-02  7.78131858e-02
   1.74413845e-02  3.17357183e-02  3.40091065e-02  7.55256787e-02
  -2.89535522e-02  6.01855591e-02  5.49095497e-02  3.80908400e-02
   4.72231954e-03  7.01316819e-02 -4.63634394e-02 -9.26189125e-04
   6.72511756e-04 -1.04617327e-02  9.91638750e-03  4.10700813e-02
  -3.17239203e-02 -3.06930542e-02  8.64777714e-03 -6.80503771e-02
  -4.69934791e-02 -1.34241655e-02 -4.85473908e-02  1.89323872e-02
  -2.11753808e-02 -5.14232069e-02  3.84198651e-02  1.61633566e-02
   2.71374732e-02  2.94968635e-02 -2.33759731e-03  3.18046957e-02
   7.03500286e-02 -6.43031150e-02  7.89336860e-03  4.21861559e-02
   5.02702221e-02  3.95019948e-02 -7.27278069e-02  5.45055196e-02
   2.91743800e-02 -2.77287029e-02 -3.01416591e-02 -2.12142505e-02
   3.76860499e-02  5.52432984e-03 -4.07666266e-02  7.99309686e-02
   8.71401280e-03  5.75000420e-02 -3.39851268e-02 -5.87336458e-02
  -1.51180476e-02 -5.15155494e-02 -6.93533495e-02 -9.60647315e-03
   6.79358169e-02  1.47864670e-02 -6.32588640e-02  7.24314675e-02
  -2.24407762e-03  1.09199136e-02 -2.99424566e-02 -1.05060115e-02
  -5.55366762e-02 -3.00004892e-02 -4.85347025e-02 -1.07810795e-02
  -6.91259503e-02 -5.48792519e-02 -4.98083830e-02 -9.69703496e-03
  -2.48436444e-02  3.54413241e-02 -6.62743822e-02  4.54933122e-02
   5.53412959e-02  4.71576378e-02 -8.08591172e-02  4.17340025e-02
  -1.76075622e-02 -3.06251943e-02  1.70681775e-02  7.08512962e-04
   3.44899744e-02  7.17166811e-03  5.62724248e-02  6.80963770e-02
  -4.06731814e-02  1.71892121e-02  7.22437873e-02  1.72373131e-02
  -4.34967875e-02  2.14581937e-03 -4.03102040e-02 -5.11942208e-02
   4.07035276e-02  1.87369138e-02  4.44411710e-02  5.76165691e-02
  -7.81096742e-02  3.84067148e-02 -3.07652615e-02 -1.96482167e-02
   4.32985500e-02  3.74881849e-02 -6.20131902e-02 -7.30134919e-02
   1.03407353e-03  6.27202168e-02  2.47576684e-02 -3.29422206e-03
  -3.69036458e-02  2.13095918e-02 -2.64063329e-02 -4.69278283e-02
  -1.64598748e-02 -6.80911541e-03  1.39721557e-02  6.77422062e-02
  -1.33904219e-02  6.36978671e-02  5.67700341e-02 -4.33332250e-02]
 [-1.58708841e-02  7.38399103e-02  4.16917726e-02 -4.61246669e-02
   6.70062080e-02 -4.67000976e-02 -2.91578807e-02  9.16552544e-03
   6.09769449e-02 -8.00434873e-02 -3.75824980e-02  5.19282296e-02
   6.25926778e-02  4.62827086e-03 -8.08297396e-02 -4.22648974e-02
  -7.56577700e-02 -7.63452500e-02  4.06048447e-03  8.08817223e-02
   5.66331074e-02 -4.40457053e-02  4.38765883e-02  3.96630093e-02
   6.73255548e-02 -1.88829601e-02 -5.09785265e-02 -4.87974547e-02
  -4.33377698e-02  6.41122535e-02 -7.87536800e-03  7.35846534e-02
   6.02062419e-02 -4.87687364e-02  2.76634172e-02 -3.57046910e-02
   2.31151283e-02 -1.14356726e-03 -8.00297558e-02  2.17490718e-02
  -5.55611588e-02  4.08548266e-02 -6.35858625e-03 -2.66706496e-02
  -4.14923541e-02 -6.85673803e-02  7.52767697e-02 -5.90746403e-02
   7.55598471e-02 -7.89453834e-02 -4.28518541e-02 -7.27873668e-02
  -2.19469778e-02 -6.43094033e-02  1.64313465e-02 -6.17134459e-02
   3.40731591e-02  2.48418078e-02 -7.19062984e-02 -6.82323128e-02
  -1.66242048e-02 -2.38932669e-03 -8.94056261e-03 -2.41300389e-02
   5.91424331e-02  4.15095240e-02  6.86345249e-03  4.68377694e-02
   3.10639068e-02 -1.11745819e-02  2.63115764e-02  6.60559162e-02
  -2.94966511e-02  5.39825335e-02 -4.72346097e-02 -7.72933066e-02
  -5.44852912e-02  5.91183379e-02 -3.21988873e-02 -3.79154645e-02
  -3.47077623e-02 -6.29373267e-02 -1.18023008e-02  2.19098479e-02
   3.05414572e-02  2.13386863e-03 -7.45189413e-02 -1.92117505e-02
  -1.47405043e-02  6.41006306e-02 -6.29302859e-02  7.88132921e-02
   7.29460791e-02 -2.15014815e-03  1.45826414e-02  2.48170495e-02
   1.70919076e-02 -5.93771487e-02  7.58141652e-02  1.45851225e-02
   6.76852539e-02  5.38627803e-03 -4.31387760e-02  6.22076169e-02
  -4.03675810e-02 -7.71986097e-02 -8.99528712e-03  4.69490364e-02
  -1.62130743e-02 -4.14067805e-02 -1.14865080e-02  8.57549161e-03
  -4.15611789e-02 -6.85017332e-02 -3.17513607e-02  3.57900113e-02
   1.06931105e-02  1.95873603e-02 -3.44759226e-03 -5.58051467e-03
  -3.32307220e-02  7.83405527e-02  3.00880522e-02 -1.21281669e-02
  -4.00600024e-02 -1.93570778e-02  7.58297816e-02 -3.79233807e-03]
 [-6.26142025e-02  5.70310280e-02  3.40027064e-02 -3.83012630e-02
   5.08003756e-02  1.97827518e-02 -6.29871339e-03  3.74813005e-02
  -7.51289502e-02  3.03485245e-03  7.57216439e-02  6.29801229e-02
   7.63745829e-02  2.19294429e-03 -2.64464393e-02 -4.98732999e-02
   4.10661176e-02  4.30235788e-02 -1.61202103e-02  7.57442787e-02
  -1.33298337e-04  7.48507679e-04 -7.16703683e-02 -6.23295829e-02
  -1.75743550e-02 -4.07744199e-03 -2.02859715e-02  9.88666713e-03
  -6.45291954e-02  4.89493385e-02  7.83998594e-02 -1.90316327e-02
   3.18711251e-02 -4.30282950e-03  7.62443766e-02 -3.20380516e-02
   7.10351095e-02  7.74245188e-02  2.49398872e-02  7.32264593e-02
  -4.89545390e-02  4.10782024e-02  5.00926897e-02  1.38525441e-02
  -5.96473813e-02 -4.76652719e-02 -3.38085108e-02 -2.54299417e-02
   1.20294839e-02  2.28897780e-02 -2.03752778e-02 -7.43375868e-02
  -6.08344227e-02  7.73060396e-02  3.75267044e-02 -2.20488906e-02
   2.77557969e-02  6.58620149e-03  8.05801079e-02 -5.02811447e-02
  -1.65825561e-02 -7.15867877e-02 -1.47202760e-02 -6.96584731e-02
  -3.76213267e-02  9.52788442e-03 -4.20417935e-02 -2.87278555e-02
   3.96743789e-02 -5.30994907e-02 -6.83717802e-02 -5.40363938e-02
   1.76406130e-02 -9.29605961e-03 -2.45709158e-02 -1.24002770e-02
   7.19670579e-02 -1.29649192e-02  5.96608445e-02 -4.65433225e-02
   6.55182227e-02  3.34900469e-02  2.74207816e-02  6.96517602e-02
   7.63746873e-02  1.28546730e-02 -4.03209925e-02 -6.36143982e-02
  -1.55413598e-02 -1.97745524e-02  5.97304106e-03 -1.16711110e-02
  -1.61071792e-02 -5.78772686e-02  2.92206705e-02  2.37101465e-02
   5.01381382e-02  5.37550077e-02 -5.24928421e-03  4.04788926e-02
   7.17516616e-02  2.44143680e-02  1.51936784e-02 -3.72965597e-02
  -6.73879385e-02 -2.97770165e-02 -2.01150626e-02 -2.63573863e-02
   4.10137102e-02  7.56675974e-02  8.02740380e-02  3.78865898e-02
  -7.23070055e-02  3.25141996e-02  2.62764916e-02  6.63195923e-02
  -2.92755552e-02  2.86059454e-02 -7.54129291e-02 -1.11617148e-03
  -5.80886379e-02  4.05621976e-02  8.03825781e-02  7.19008371e-02
   4.00243998e-02  5.03868237e-02 -1.00717545e-02  1.44206062e-02]
 [-2.59206444e-03  5.97050413e-02  1.60776898e-02  7.45473728e-02
  -3.89011949e-02  5.95548004e-03  3.29703912e-02 -3.11378911e-02
  -4.41964269e-02  6.83623776e-02  3.32590938e-02 -6.44857436e-02
  -4.61255983e-02 -2.13515311e-02  3.79306227e-02 -7.72361234e-02
   3.34281623e-02  9.48885828e-03  5.13814315e-02 -1.35285109e-02
  -2.31473632e-02  5.46836480e-02  2.60068774e-02 -4.13013883e-02
   2.30337679e-02  1.03164017e-02 -4.57866155e-02 -7.10654259e-02
   2.03108042e-02 -1.37363449e-02 -4.57565822e-02 -6.55778199e-02
   6.19319081e-03  7.83535317e-02  4.33840230e-02 -7.44609460e-02
  -6.53408319e-02  1.98504329e-02 -4.45285812e-02  5.07684126e-02
   6.09922782e-02 -2.28849836e-02 -5.96953407e-02 -1.51172355e-02
  -4.49608304e-02 -4.25723381e-02  2.07679644e-02 -4.81367037e-02
   2.59243250e-02 -5.29346131e-02 -2.53465176e-02 -2.60898806e-02
   4.45425883e-02  1.68061852e-02  3.91372591e-02  7.18171895e-03
   1.83936805e-02 -4.51490916e-02  6.43562004e-02  2.57691145e-02
  -4.16774005e-02  1.75516903e-02  1.69608667e-02 -6.76425844e-02
   6.85299113e-02  1.56444311e-02 -8.01099688e-02 -1.82217434e-02
  -5.14402837e-02  4.96127531e-02  7.55732581e-02  6.60033897e-02
   1.97850689e-02 -7.87622258e-02  5.04669920e-02  6.05971292e-02
   2.07398459e-02 -2.81792283e-02 -8.02042261e-02  2.54975483e-02
  -6.71535209e-02  2.87652165e-02 -3.12135369e-03 -3.32978070e-02
  -5.31248599e-02 -4.52120155e-02  2.40564346e-03  1.84747130e-02
   2.15071887e-02 -7.23692775e-02  5.53102121e-02  4.39867750e-02
   3.57527658e-02 -2.84784511e-02  2.46935412e-02 -7.42921233e-02
  -6.28237724e-02  5.14155701e-02  7.61267319e-02 -2.51967013e-02
  -3.58297899e-02  1.84631869e-02  6.33219406e-02 -6.02764338e-02
  -6.47731349e-02  4.32677418e-02  6.98403344e-02 -2.16647349e-02
   6.89152852e-02  1.38176233e-03  5.22834286e-02 -4.01125662e-02
  -7.55623356e-02 -2.53212415e-02  5.71127459e-02  2.93342844e-02
  -8.05091858e-03  7.87996724e-02  3.04169804e-02 -7.47650191e-02
   2.75812298e-03  5.70187494e-02 -3.16997841e-02  7.18084648e-02
   6.72975108e-02  8.07874873e-02 -4.97177616e-02 -8.95708799e-04]
 [ 5.58554754e-02 -5.55874407e-02 -6.73149228e-02  6.04884326e-03
  -6.47346526e-02 -6.77008927e-03  3.08965296e-02 -4.11860533e-02
   1.40773952e-02 -6.76968694e-02 -1.61152408e-02 -5.29574119e-02
   2.33837962e-02 -5.22488356e-02  7.71187022e-02  5.43147996e-02
   3.84368077e-02 -7.56046325e-02 -3.04815099e-02  7.96336904e-02
   4.71670926e-03  1.42787024e-02  4.57944348e-02  2.62260437e-03
  -6.44912794e-02  4.21163067e-02 -1.30856261e-02 -1.94882862e-02
  -9.22454149e-03  6.72632828e-02  4.86535951e-02  2.16278359e-02
   7.78502151e-02 -3.36366333e-02 -6.62482381e-02  4.87204269e-02
  -6.70038909e-03 -5.32315522e-02  2.50051171e-02 -3.76839265e-02
  -4.26947102e-02 -4.36429456e-02  4.03055996e-02  2.31636316e-02
  -3.64028402e-02  5.36544397e-02  4.69968244e-02  6.46788403e-02
  -1.45613179e-02  1.77665800e-02 -4.43823636e-02 -4.51815017e-02
   5.04750833e-02  5.87890074e-02 -6.15208969e-02 -5.57606518e-02
  -2.97357477e-02  6.53398558e-02 -1.18715093e-02 -6.58750087e-02
  -4.73422259e-02 -3.98897491e-02  3.87023985e-02  5.39392605e-02
   6.63810745e-02  4.13401052e-02 -4.78517525e-02  7.89311007e-02
  -1.84395164e-02  7.55591691e-03 -6.48219883e-03  7.53889307e-02
  -7.79896826e-02  6.67136982e-02 -2.89710946e-02  5.84193543e-02
   3.06594074e-02  6.56697378e-02 -4.52411398e-02  2.62203962e-02
  -4.20822501e-02  2.95219868e-02 -3.89546268e-02  7.58554712e-02
  -6.12280741e-02 -1.48871243e-02  1.88814551e-02 -6.16890192e-02
   6.04082271e-02 -5.61146215e-02 -4.94307056e-02  1.50663704e-02
  -6.34596944e-02  4.06754836e-02 -4.15057354e-02 -4.60049249e-02
   6.78206906e-02 -6.49903044e-02 -2.43472680e-02  7.07031861e-02
   1.06089339e-02 -3.14942375e-02 -1.49285123e-02  3.79881337e-02
  -4.51633036e-02  7.19926879e-02  3.06899771e-02  6.61975145e-03
   1.83843225e-02 -2.93901153e-02  2.95799226e-02 -7.28380904e-02
  -8.09986070e-02 -3.44020240e-02  8.21784884e-03  4.88540903e-02
   5.24099395e-02 -1.57239884e-02  1.99420452e-02 -5.76637350e-02
  -4.52190638e-04 -6.69287741e-02 -1.46519542e-02 -3.13022472e-02
   6.70441240e-03 -2.87908800e-02 -7.33632818e-02  5.72387055e-02]
 [-3.92917134e-02 -4.18492034e-02 -4.25565764e-02 -4.31573801e-02
   9.08792019e-03 -5.88732511e-02 -1.95692778e-02 -3.78105342e-02
  -1.64371133e-02 -1.42150819e-02  6.20896891e-02 -5.88184074e-02
   3.74604911e-02 -7.03479350e-03 -4.98796850e-02 -2.89530307e-02
   4.88921180e-02  2.21464932e-02 -4.07617502e-02 -6.35112897e-02
   4.08248305e-02  2.86577567e-02 -2.98389569e-02  2.57050321e-02
   4.55640331e-02  8.01814124e-02  1.31170154e-02  6.30670860e-02
   2.99835876e-02  5.57305440e-02  4.15650010e-03  5.70481047e-02
   5.56118861e-02  2.71641612e-02 -5.24894260e-02 -7.98737705e-02
   3.63720953e-02  6.46322966e-03  5.94343245e-03 -7.63200298e-02
  -7.26399124e-02  5.32368347e-02 -6.82962686e-03  5.16214445e-02
   2.14197412e-02  1.48042440e-02  8.03018585e-02  4.52187136e-02
  -1.00284740e-02 -2.49669440e-02  6.46770373e-02  1.11230984e-02
   4.69612256e-02 -3.23377550e-02  7.32663944e-02  6.50465116e-02
  -6.63247630e-02  4.94762883e-02 -3.24332491e-02 -3.62878181e-02
  -1.15982071e-02 -6.51343167e-03 -2.82234736e-02 -5.29078282e-02
   3.46971825e-02 -4.64762785e-02 -7.56198689e-02 -6.39848262e-02
  -7.89974928e-02  1.33509934e-03 -2.88571157e-02 -5.04708290e-03
   3.84543464e-02 -1.77619383e-02  3.72844934e-02  3.51160541e-02
   5.13603911e-02 -4.53948975e-03  1.27958655e-02  3.88814732e-02
   4.80181649e-02 -7.76241273e-02 -2.27549151e-02  3.69443521e-02
  -6.74957931e-02 -1.39442682e-02  4.95617166e-02 -7.54202381e-02
   1.05864778e-02  1.89897269e-02 -3.70792747e-02 -6.17597811e-02
   3.60003561e-02  6.85728118e-02  4.09806967e-02  4.92709503e-02
  -6.83334470e-02 -4.14716043e-02 -2.90258229e-02  7.80306384e-02
  -6.38882890e-02  1.29050836e-02  7.51885697e-02  6.72878698e-02
  -2.02873088e-02  1.82067156e-02  6.34962842e-02 -7.59864822e-02
   5.30016050e-02  6.82587102e-02 -2.13313103e-03  1.21541619e-02
  -7.82454312e-02 -3.51225287e-02 -2.51230039e-02  1.10840201e-02
  -6.26874417e-02  2.84256563e-02  5.74067160e-02  7.80669823e-02
   6.08412698e-02  2.06097960e-03 -7.70624653e-02  6.96979836e-02
  -4.47268039e-03 -3.70502099e-02  1.31714493e-02 -6.12373352e-02]
 [-2.77584679e-02 -1.30740032e-02  2.95308381e-02 -3.88421565e-02
   6.98338076e-02 -2.22821869e-02 -7.86584765e-02 -2.54833736e-02
   5.98452911e-02  4.72835228e-02 -2.38330811e-02 -1.89568140e-02
  -4.84402366e-02  7.27428868e-02  7.41378143e-02  2.42206231e-02
   4.42878380e-02 -6.79313689e-02  1.45444348e-02  7.37286732e-02
   2.70604864e-02 -8.00982490e-02 -3.86744328e-02 -2.81373411e-02
  -3.64345312e-03 -6.37980178e-02 -5.92964143e-03 -6.79577813e-02
  -3.12253982e-02 -4.04541567e-02  6.39593825e-02 -3.74309421e-02
  -6.00730367e-02  6.01920411e-02 -7.02505931e-02  2.89138705e-02
  -3.09455134e-02 -1.36147216e-02 -6.32688850e-02 -4.96116914e-02
  -8.07533786e-02 -4.28200513e-03 -5.88419214e-02  4.95240167e-02
   6.01076707e-02  2.05148384e-02  8.07413533e-02 -6.77544624e-02
  -3.17143463e-02 -7.79095441e-02 -5.96861355e-02 -3.14913392e-02
  -7.57460892e-02 -1.58078820e-02  3.67702544e-03  7.03378245e-02
  -1.22525319e-02 -2.67028809e-03 -4.57501039e-02  7.24249259e-02
  -9.85733420e-03 -4.75061573e-02  6.04172423e-02 -3.13994251e-02
  -3.91763970e-02 -2.63418779e-02  4.09647822e-02 -6.55815676e-02
   1.98774934e-02  1.21884644e-02  4.36728075e-02  6.37298450e-02
   8.07000473e-02 -7.70008191e-02 -2.07693540e-02  3.47800106e-02
  -1.64303035e-02 -5.39739430e-03 -6.28539398e-02 -4.45895568e-02
  -4.64470200e-02  2.10591555e-02  7.88567290e-02 -4.49321903e-02
  -6.28351644e-02 -7.47895613e-02  4.35559005e-02 -3.32535021e-02
   5.59731573e-03  4.23963591e-02  6.61957785e-02  3.36979702e-02
  -1.23047084e-02 -7.41800964e-02  3.41321155e-02 -5.56988269e-02
   3.41582820e-02  6.96895346e-02  2.48834416e-02 -2.03925259e-02
   8.05033371e-02 -2.62763016e-02 -6.33782595e-02 -7.20959827e-02
  -7.64872506e-02  1.77867264e-02  4.23997045e-02  3.28333974e-02
   2.36429051e-02 -4.87598591e-02  6.57714903e-03  2.90829092e-02
  -1.11562833e-02  4.14419547e-02  5.68338260e-02 -2.48443000e-02
  -6.02168143e-02 -7.07442611e-02 -9.76890326e-04  1.12099946e-03
   1.68364868e-02  1.01610422e-02 -6.96357116e-02 -7.05703273e-02
  -2.64370032e-02  6.37311861e-02 -4.81541827e-02 -2.25993544e-02]
 [ 7.13061765e-02  5.55149838e-02 -5.54571971e-02 -6.34279773e-02
   4.20802534e-02  2.57006288e-03  4.42748442e-02  3.09223086e-02
   6.90161362e-02 -4.05614078e-02  6.24237731e-02  4.56037000e-02
   4.15690690e-02  2.40382999e-02 -4.40641157e-02  3.18977684e-02
   6.83501586e-02 -2.48042122e-02  4.68691513e-02 -7.89234489e-02
  -1.97221078e-02  7.52176270e-02  1.38889402e-02 -7.44621828e-02
   8.09653476e-02 -3.25625055e-02  3.90963927e-02  1.46383196e-02
  -5.24539500e-03  7.43583366e-02 -1.94509439e-02  6.60913512e-02
   4.04772162e-03  7.41078705e-03 -7.01838136e-02  1.23309866e-02
  -9.14326310e-03 -7.00910091e-02 -2.22976021e-02 -4.32988033e-02
   1.50481984e-02  1.90774053e-02 -2.34733708e-02  7.33853504e-02
   4.99311611e-02  2.30682492e-02  7.76202455e-02  3.49220484e-02
  -8.00086930e-02 -3.05556171e-02  6.45195916e-02  4.85974178e-02
   8.10424611e-02 -6.88760802e-02 -7.16073439e-02  7.00124428e-02
   4.05286252e-02 -4.39958312e-02 -1.29935890e-03 -2.32341923e-02
   2.88958475e-02 -7.62041956e-02 -5.67444339e-02  2.47107670e-02
  -1.93102583e-02 -4.59847599e-03 -4.28210683e-02  3.58571932e-02
   8.56462121e-03 -1.78996101e-02  7.14187548e-02 -7.26770237e-02
  -1.72196329e-03 -7.73108676e-02 -5.99348061e-02  5.97526208e-02
   6.25141338e-02 -5.45540601e-02 -7.85651281e-02 -4.99100834e-02
  -7.57763758e-02  8.01967755e-02  2.16969326e-02  3.06822658e-02
  -1.52098984e-02  1.46893337e-02  2.64648870e-02  5.55437729e-02
   4.96616960e-03  7.58709013e-03 -3.40432599e-02  6.92763850e-02
   2.99428999e-02 -3.27783599e-02 -6.32637590e-02  9.04519856e-03
  -6.78087398e-02 -5.53245917e-02 -1.86065361e-02 -6.81812316e-03
  -2.50322111e-02 -1.56018287e-02  7.74345025e-02  2.47703865e-02
  -1.74062103e-02 -4.29995023e-02  7.13049397e-02 -7.74233565e-02
   5.46155348e-02 -5.79549149e-02 -6.69059753e-02  6.58105686e-02
  -2.03001499e-03  3.35200429e-02  1.56245381e-03  2.31884196e-02
  -5.96300364e-02  6.10309467e-02 -7.31353462e-02 -5.30886427e-02
   4.39713523e-02  7.71782026e-02 -6.39548153e-02 -6.56569526e-02
  -3.76405492e-02  1.05922222e-02 -3.28096300e-02  3.38559896e-02]
 [ 4.95349988e-02 -8.02489966e-02 -3.74930389e-02 -3.12849134e-03
   1.45060569e-03 -6.16963506e-02  8.07699487e-02 -5.86324297e-02
   7.32799396e-02  5.54323420e-02  1.63979679e-02 -6.88427687e-03
   4.99650016e-02  6.17342517e-02 -6.83793947e-02  7.06853345e-02
   1.73184499e-02 -5.17699048e-02  1.26806051e-02  2.09587887e-02
  -3.42659391e-02 -7.66344368e-02  6.19964674e-02  7.32704327e-02
   4.10902500e-03  6.69869035e-03 -2.79562585e-02 -5.98332025e-02
  -1.17633939e-02  5.21407947e-02  1.71360373e-03  4.57477048e-02
   7.10038319e-02  3.73715907e-02 -2.41019614e-02  1.65175572e-02
  -4.27571945e-02 -3.69495749e-02 -6.48874193e-02 -4.31726575e-02
  -4.01578732e-02 -4.09282371e-02  1.54899210e-02 -5.67627624e-02
  -6.32693693e-02 -4.15224247e-02 -6.52109310e-02  7.85556212e-02
  -3.97294536e-02 -2.97033973e-02 -5.71731813e-02  1.28764287e-02
  -7.56636262e-03  5.81167564e-02 -7.22807050e-02  7.35418722e-02
   3.68495360e-02  7.30004385e-02 -1.72460154e-02 -7.33754784e-03
   5.65337464e-02  1.01168156e-02  5.76350316e-02 -6.70505241e-02
  -1.73807442e-02  1.77996904e-02 -3.82183418e-02 -7.19955415e-02
   5.07119671e-02  3.81845981e-03  7.88102224e-02  5.91474995e-02
   2.35051811e-02 -5.80279715e-02  1.01602674e-02  3.46769914e-02
  -3.33905146e-02  5.20857424e-03 -6.91862404e-03 -5.18502966e-02
   4.67882082e-02 -5.07803261e-02 -3.35313752e-02  3.39013711e-02
  -2.53933929e-02  3.79971713e-02 -4.79682274e-02  5.39931282e-02
   6.88382909e-02  1.11440569e-03  3.33078653e-02 -1.35271624e-02
   3.26950476e-02 -2.93350033e-02  2.16485858e-02 -4.36934382e-02
   8.96944851e-03 -1.10717341e-02  5.13349548e-02 -5.40677607e-02
   2.96953321e-03  1.81688517e-02 -6.07549399e-03 -8.34295154e-03
   6.65687546e-02 -5.97421750e-02  5.35157844e-02  7.78240338e-02
  -5.52458316e-03 -1.73602626e-02  4.14065495e-02 -2.52555311e-02
  -6.12135306e-02 -1.04007944e-02  2.64576823e-03  5.19852340e-03
  -3.92403677e-02  3.12216058e-02  1.53081566e-02  6.13781586e-02
  -6.09094203e-02  5.31020015e-03  4.11938652e-02  6.41180351e-02
  -5.96134029e-02  6.88377991e-02  4.72101793e-02 -1.21177435e-02]
 [-4.44161482e-02  6.35837764e-03 -4.32367660e-02  5.22159562e-02
  -2.00191811e-02 -6.88980520e-02  4.42560092e-02 -5.45724109e-02
   6.99629709e-02 -2.07720213e-02  6.74290732e-02 -5.06630540e-03
  -7.49505684e-02 -2.17957720e-02  1.87508389e-02  2.70336121e-02
  -5.08419201e-02  6.10252544e-02 -6.26660138e-02  7.22639933e-02
   7.43552074e-02 -4.07198817e-03 -3.87807377e-02 -6.27835914e-02
  -7.50620365e-02 -7.60038123e-02  1.30485594e-02 -1.78806782e-02
   7.54810646e-02  5.25720641e-02  4.01199535e-02  5.42756170e-03
  -5.35158813e-03  4.16775942e-02  2.29514688e-02 -2.05104128e-02
   2.50943825e-02 -3.64305153e-02  4.35431823e-02  2.46226862e-02
   3.21875960e-02  6.46504760e-03  7.66762421e-02  1.91534460e-02
  -5.47668189e-02 -1.58643723e-03  4.48112935e-03 -7.86720961e-03
  -5.85227236e-02  3.19323465e-02 -4.66838740e-02  3.82118225e-02
   1.26147568e-02 -7.89992139e-02 -6.74689710e-02 -4.85164486e-02
   5.91161773e-02  5.99280223e-02 -3.77147719e-02  5.19062951e-02
  -4.59085628e-02 -7.47983977e-02  5.26273623e-02 -3.75676453e-02
  -3.11880745e-02  3.70539799e-02  2.45237499e-02  2.46471465e-02
  -5.53134382e-02 -4.80840430e-02  5.15300035e-03  4.01361585e-02
   9.60846990e-03 -2.33701244e-02 -1.48374662e-02  6.65331110e-02
   3.24593782e-02  6.63670078e-02  3.77800018e-02 -7.40973055e-02
   5.20841703e-02 -9.39331204e-03 -6.59145415e-04 -6.31333590e-02
   7.60162100e-02 -2.01766342e-02 -5.44476025e-02 -6.13268912e-02
   6.21486977e-02  1.06787458e-02  6.68384060e-02  7.10950121e-02
   2.78879330e-02  2.78073326e-02  6.48181364e-02  7.17127249e-02
  -2.21584029e-02 -3.49059030e-02  5.47369644e-02  6.08332977e-02
   7.57588521e-02  1.54687092e-02  1.21288821e-02 -7.80004933e-02
  -1.07478052e-02  4.14310470e-02 -3.49516571e-02  7.49216452e-02
  -4.36290801e-02 -2.38235295e-02 -1.30454823e-02 -5.44216484e-03
  -7.45134056e-02  2.43429914e-02  3.59005481e-02  4.03306261e-02
   7.19232038e-02  6.45456463e-03 -6.62463605e-02 -7.50893801e-02
  -9.04880464e-04  6.66797385e-02  2.21929029e-02 -1.39602199e-02
  -5.38740680e-02  5.52732721e-02  6.38729706e-02  6.93098083e-02]
 [-6.07428178e-02 -5.92020005e-02 -6.95170090e-02 -9.43140686e-03
   6.16694763e-02  7.84809515e-02  4.10414785e-02 -3.64674516e-02
  -5.18251136e-02 -7.03479201e-02  4.15519699e-02 -5.58020175e-03
   2.12261081e-02 -7.49783590e-02  1.52431279e-02 -9.53281671e-03
  -4.06763330e-02  1.92670152e-02 -3.20181996e-03  6.45290837e-02
   2.66566053e-02 -1.84027106e-03  5.09895459e-02 -4.44145650e-02
  -4.76000831e-02  1.63400322e-02 -4.90164421e-02  7.14088902e-02
   7.62061849e-02 -9.34329629e-03 -3.88280377e-02 -5.31457886e-02
   7.59257302e-02 -6.48205280e-02 -3.21971849e-02 -2.52743661e-02
  -5.31409904e-02  2.62067243e-02  4.82695922e-02 -3.48802656e-03
  -5.01687825e-03  4.93524000e-02 -3.70933935e-02 -2.46305168e-02
  -2.04485133e-02 -2.44356692e-04 -5.60485423e-02 -5.37172928e-02
   3.95042002e-02  1.59026161e-02 -4.31415811e-02  5.07686213e-02
   2.13160366e-03  1.00682899e-02  2.78106034e-02 -4.85600568e-02
  -4.64285165e-03 -7.38821477e-02 -1.91175342e-02  3.10059264e-02
   3.99812013e-02  2.61674076e-02  3.95489484e-02  8.04557726e-02
  -6.65436685e-03  8.18934292e-03  2.09933668e-02  5.56308106e-02
   3.68068740e-02  2.50078067e-02  7.92505220e-02 -3.05649750e-02
  -4.15216684e-02 -7.67173618e-03 -4.70953435e-03 -1.61471516e-02
   4.21720967e-02 -1.91915035e-02 -2.77385116e-04 -1.28341690e-02
  -1.34531558e-02 -7.54946545e-02 -3.85343283e-02  5.14826700e-02
   2.65128911e-04 -1.78910047e-02 -4.21919152e-02  7.04713538e-02
  -6.48067594e-02 -1.17951259e-02 -5.89835159e-02 -2.92062461e-02
  -4.45821881e-02 -6.66621774e-02  1.96264014e-02 -4.58051227e-02
  -9.80249047e-03  5.33178449e-03 -7.01885372e-02  3.48902345e-02
   1.14357620e-02 -1.92797631e-02  3.36795822e-02  4.01187763e-02
  -9.41885263e-03 -2.62711197e-02  2.90409997e-02  1.81729123e-02
   2.21032724e-02 -4.23993208e-02  2.09612846e-02 -1.46583542e-02
  -7.36668184e-02 -7.76925310e-02  3.50155532e-02  4.01880816e-02
   2.87741125e-02 -6.98742121e-02 -2.79265530e-02  5.45680523e-03
   6.59308583e-03 -7.53284022e-02  2.94120237e-02 -7.35744834e-03
  -1.02813989e-02  5.53054139e-02 -4.57418077e-02  2.76889428e-02]
 [ 2.09935009e-04  3.63460630e-02 -6.91802949e-02  6.47705868e-02
  -7.35027492e-02  2.95516700e-02 -2.70989127e-02  3.88014093e-02
  -6.48985654e-02 -5.97622916e-02 -6.16059080e-02  5.01767024e-02
   6.92585334e-02  4.57610264e-02 -7.07424954e-02 -1.39636993e-02
   6.70067295e-02  3.76271307e-02 -6.22433722e-02 -5.27116992e-02
  -2.39425749e-02 -6.69884309e-02 -6.04159422e-02  3.41595039e-02
  -6.56425655e-02  7.97169134e-02  3.72914001e-02 -2.42024027e-02
   2.58534923e-02  5.87857440e-02  8.87082517e-03  4.61131334e-03
  -9.95907187e-03 -7.92829320e-02  3.61850560e-02 -5.91636337e-02
  -7.38816261e-02 -7.38193989e-02  1.39614418e-02 -1.27109289e-02
  -7.62286782e-02  8.61711055e-03 -7.30983838e-02 -4.07869108e-02
   7.84007460e-03 -9.31634009e-03  4.62551191e-02  3.67761850e-02
  -6.98892921e-02  1.07229725e-02  1.76720545e-02  5.23312762e-02
   1.75056830e-02 -6.99751377e-02 -5.47509231e-02  4.78880480e-02
   5.39084449e-02  3.99011001e-02  7.74122551e-02  3.33505049e-02
   3.06077302e-02 -1.65100917e-02  3.67346406e-03  5.84512129e-02
  -7.10498616e-02 -2.18333453e-02  1.33193135e-02  7.87377879e-02
  -4.89129238e-02 -3.07155624e-02 -3.17377672e-02 -4.74423021e-02
   3.76157612e-02 -9.45180655e-04 -2.98765525e-02 -8.10961425e-03
  -4.52583507e-02 -2.64310651e-02 -2.06462070e-02 -4.04240079e-02
  -7.49793276e-02  4.68259975e-02 -8.09118152e-02 -6.21599108e-02
   6.08252212e-02 -5.27467802e-02 -4.85741533e-02  9.57093388e-03
  -7.25213438e-03 -1.49482936e-02 -4.52662222e-02 -7.83701986e-03
  -6.41628951e-02 -4.69069928e-03  6.46544173e-02 -4.95757051e-02
  -3.61368805e-02 -3.62176187e-02 -7.57634640e-04 -1.56725347e-02
   6.56707808e-02 -2.97576003e-02 -3.10493037e-02 -4.97367233e-03
   1.88961104e-02 -9.63105261e-03 -6.99998513e-02 -6.45510852e-03
   8.01496878e-02  6.30027130e-02  4.82335687e-04  5.15369698e-02
   7.76258484e-02  5.85782602e-02 -4.55883965e-02 -5.09534217e-02
   1.45685449e-02 -1.80271268e-02 -5.17263338e-02  4.01607379e-02
   7.24014714e-02  3.24092880e-02 -4.86601889e-02 -1.12578869e-02
   7.98733458e-02  3.42327952e-02 -5.96210435e-02 -7.72669092e-02]
 [-3.09680938e-03  2.06589494e-02 -2.78174691e-02  4.52971682e-02
  -7.32343178e-03 -7.36340210e-02 -1.43092936e-02 -3.05860713e-02
   6.98610768e-02 -7.26229399e-02  7.84066468e-02 -8.56755003e-02
   6.92340266e-03 -6.16908073e-04 -2.17281524e-02  7.61952996e-02
   8.75562727e-02  1.05061233e-01 -3.39180268e-02 -1.90113261e-02
  -1.04461061e-02 -9.93766561e-02 -4.89835441e-02 -5.72198443e-02
   2.15496998e-02 -6.98655993e-02 -2.66368818e-02  1.14817217e-01
   9.56094414e-02  4.00858000e-02  2.59425882e-02  3.00283432e-02
   8.12616870e-02 -7.51571311e-03 -2.49058083e-02  3.02379876e-02
  -1.50497090e-02 -6.84733391e-02 -2.69899610e-02  3.78999822e-02
   9.09173712e-02  3.41421627e-02 -3.63588370e-02 -6.31093383e-02
  -6.46691024e-02 -4.57356609e-02 -2.91388612e-02  1.20835437e-03
   5.80203645e-02  3.11538894e-02 -7.28420019e-02  3.92407738e-03
  -3.61787453e-02  3.95972803e-02 -2.16781832e-02 -8.77767950e-02
   5.56495711e-02  3.87941580e-03  6.55735508e-02  5.33213243e-02
   4.46903631e-02 -4.36510071e-02  3.62765118e-02 -2.95319073e-02
  -6.17449079e-03  2.20580548e-02  1.66455731e-02 -5.45119494e-03
   1.53791923e-02  1.01370007e-01  6.85559958e-02 -4.37393738e-03
   2.28182226e-03  2.37789154e-02  3.78031433e-02  8.36157948e-02
   5.43310344e-02  2.72359811e-02 -9.79941338e-03  7.56840855e-02
  -7.88982809e-02  6.30095825e-02  7.00060204e-02  7.41708726e-02
   6.74008206e-02  5.87492473e-02  5.73037118e-02 -2.36503668e-02
  -3.30850147e-02  4.92139384e-02  4.29360121e-02 -1.18482076e-02
  -4.17971350e-02 -4.94881012e-02  3.42566445e-02  2.00206116e-02
  -1.00917347e-01  2.96096057e-02 -1.05608791e-01 -9.72015876e-03
   4.07954752e-02  4.53816131e-02  7.36186132e-02  3.25844698e-02
  -8.27147067e-03 -5.01597412e-02  6.43658713e-02  1.03319123e-01
  -7.79484287e-02 -5.95380999e-02  3.72111276e-02 -6.31015524e-02
  -2.10963786e-02  4.83093038e-02  4.07072902e-02 -7.96862692e-02
   3.41574773e-02  5.87618612e-02  1.10564679e-02 -2.11531296e-02
   3.86097021e-02 -1.36661408e-02  5.57718165e-02 -6.86143488e-02
   1.61945522e-02  1.76254846e-02  1.19496956e-01  8.16426277e-02]
 [-1.15673244e-02 -5.49777821e-02  1.45753920e-02  3.27103510e-02
   1.94168556e-02 -1.25809073e-01  2.14445591e-02  7.61143863e-02
   3.02744024e-02 -2.76611354e-02  5.93896694e-02 -7.01769814e-02
   5.26238680e-02 -2.18932554e-02 -1.22725800e-01  1.84559729e-02
   2.38592993e-03  1.68924145e-02  3.59852239e-02 -2.79024243e-03
   9.69159678e-02  4.72212061e-02 -2.99702585e-03 -5.29297218e-02
   2.36881599e-02 -5.42236120e-03 -4.95500378e-02  1.44930646e-01
   2.92915329e-02  1.10536642e-01  3.15685049e-02  1.03540018e-01
   1.28549173e-01 -6.62557408e-02 -6.64536580e-02 -2.49830522e-02
  -6.11247532e-02 -8.53673667e-02 -1.29700182e-02  1.20597966e-02
   9.71792489e-02  7.97397122e-02  1.10051028e-01 -6.12958781e-02
  -1.53295398e-02  4.98107448e-02  1.19491350e-02  2.62675341e-02
   5.37658073e-02  9.12233889e-02 -2.52647996e-02 -1.65299341e-01
  -1.23489704e-02 -6.28269464e-02  3.82636636e-02 -7.51601830e-02
   6.04871288e-02  2.40612421e-02 -7.34276026e-02 -5.87569103e-02
  -2.34533176e-02 -1.85027309e-02  3.23809944e-02 -7.97205642e-02
   1.68317422e-01  9.31955222e-03 -3.79855782e-02 -1.78247467e-02
   9.48871970e-02 -4.55385745e-02  2.22536546e-04 -2.86367442e-02
   2.39822268e-03 -7.00235590e-02  1.61793366e-01  5.83120771e-02
   1.37132984e-02 -3.93747352e-02 -9.78298299e-03  1.22558355e-01
   1.69792920e-02  3.47524956e-02 -3.97311151e-03  2.35336125e-02
  -5.01676500e-02  7.10246786e-02  1.42523527e-01  1.08484477e-01
   4.13050093e-02 -5.31337410e-02  3.27412486e-02 -7.16441730e-03
   4.00744099e-03 -1.41569600e-01  7.39650056e-02  4.16625515e-02
  -5.60355606e-03  2.67528370e-02 -9.77558866e-02  1.13222137e-01
  -7.55628794e-02 -5.44693582e-02 -2.63795480e-02  2.86864175e-04
  -7.98016638e-02 -6.26608357e-02 -3.51286419e-02  5.90854399e-02
   3.68358269e-02 -4.18012813e-02 -6.39391094e-02 -8.20076093e-03
  -1.23923250e-01  4.24851999e-02  1.68314934e-01 -6.49023205e-02
  -2.39341930e-02  4.51284684e-02 -1.74619649e-02 -3.30490172e-02
   4.05243896e-02  4.09369282e-02 -8.40045214e-02 -1.22040678e-02
   7.24785402e-02  8.25278312e-02  4.79419455e-02  3.92883383e-02]
 [-1.29788607e-01 -7.78573006e-02  5.67387864e-02 -7.78802857e-02
  -6.19975217e-02  1.03888512e-01  1.55678159e-02  8.38299766e-02
   3.31967734e-02  5.29964790e-02 -4.11404930e-02 -1.13927275e-01
   1.39955254e-02 -7.39233941e-02 -1.08699970e-01 -3.42071243e-02
   2.50398442e-02 -1.29397184e-01 -1.55691814e-04 -5.73558360e-03
   2.86443476e-02  4.57463935e-02  1.43507913e-01  3.25862169e-02
   3.82314324e-02 -7.16546103e-02  3.99385579e-02  1.49852559e-01
  -1.42933577e-01  1.81960508e-01 -1.36743821e-02 -4.26630825e-02
  -1.69446282e-02 -1.05574057e-01  1.02214240e-01 -4.54123430e-02
  -2.23708935e-02 -4.85683344e-02 -8.57754704e-03  1.40276581e-01
  -5.41531406e-02 -6.45044520e-02  1.25444844e-01 -5.09831198e-02
   1.53933186e-02  3.20295990e-02  1.05507500e-01  3.50375548e-02
   8.03725868e-02  8.97425786e-02  2.01214813e-02 -3.42182033e-02
  -4.01373617e-02 -2.21102722e-02 -3.74520458e-02  7.86168799e-02
   5.95185682e-02  2.28797309e-02  3.85049470e-02 -4.27935682e-02
   2.11462602e-02 -2.16655321e-02 -2.89810132e-02 -4.81285229e-02
   1.75993979e-01  7.32543692e-02 -8.04936588e-02  7.93664530e-02
   1.68071330e-01 -3.38371545e-02 -1.45905912e-01  1.98150538e-02
   3.60492617e-02 -4.17798348e-02  7.45611638e-03  6.96860626e-02
   2.16286965e-02 -8.85508135e-02  3.16936895e-02 -3.91222909e-02
  -6.65564314e-02 -5.98106347e-02  7.75486976e-03 -2.08653100e-02
   7.19681755e-02 -6.40017465e-02  6.68656603e-02  5.29655814e-02
   9.83652100e-03  1.02260709e-02 -7.88817555e-02  2.45993827e-02
   4.98767570e-02  3.84431966e-02  1.29075078e-02 -4.52452786e-02
   2.09557754e-03 -7.17951432e-02  4.21166420e-04  6.26056865e-02
   7.83297792e-02 -2.05265991e-02 -2.10355446e-02  1.59163535e-01
  -5.16206138e-02 -5.80816790e-02  4.93699238e-02 -1.16908662e-01
  -4.37714681e-02  6.33519143e-03 -5.14949635e-02 -3.38867754e-02
   1.18922345e-01  3.45536172e-02  1.16321675e-01 -6.94924146e-02
  -8.85532945e-02 -7.28936717e-02 -7.40529671e-02  3.00946832e-03
  -3.33319381e-02  4.86100018e-02 -1.38729081e-01  3.64757627e-02
  -2.49487869e-02  1.05066724e-01 -2.18590684e-02  7.63527080e-02]
 [ 5.07089421e-02 -5.99912219e-02 -5.73048145e-02  7.37095550e-02
   1.97444558e-02  9.98961926e-02  7.11954460e-02  6.93560615e-02
   7.80430995e-03  5.29611632e-02 -4.05144133e-02  1.05828056e-02
   7.06954002e-02 -3.43562104e-02  3.91061231e-02 -6.91340789e-02
  -5.66500425e-02 -1.04870468e-01 -4.15374488e-02  8.12225044e-04
  -4.49888036e-02 -1.64186805e-02  2.17616980e-05  4.48555723e-02
  -2.44124196e-02  6.62601739e-03  6.90845698e-02 -2.65886318e-02
   9.81744565e-03  7.63976276e-02  2.92038694e-02  4.33297679e-02
  -6.77763522e-02  4.04317640e-02 -4.94897477e-02  2.44634524e-02
   3.74961644e-03 -4.67840470e-02  7.13373944e-02 -3.08743306e-02
  -1.16849411e-02 -2.66313199e-02  2.24031415e-02 -2.11829394e-02
   5.84415123e-02  7.79203847e-02 -3.69152762e-02 -2.88605168e-02
  -4.44390327e-02  2.15585046e-02  7.09622502e-02 -1.63739510e-02
  -2.39797216e-02  3.22199091e-02 -3.73714827e-02 -1.07802525e-02
  -2.36933231e-02  9.69727114e-02  1.22354105e-02 -2.22597942e-02
   4.55419496e-02 -5.94986714e-02  4.55215424e-02  6.41951934e-02
   6.67454163e-03 -5.00392616e-02 -4.71945107e-03 -4.47301269e-02
   6.79848790e-02 -5.75674884e-02 -1.33890724e-02 -2.01615668e-03
  -2.39165276e-02 -7.60158375e-02  5.43897375e-02  3.89063358e-03
  -6.60749748e-02  4.76356363e-03  4.45412956e-02 -3.47891003e-02
  -2.70094760e-02 -1.26343668e-02 -4.61806320e-02 -4.68248129e-02
  -6.10378832e-02  6.18607029e-02  1.45737259e-02  2.71170568e-02
   2.82875039e-02 -4.34952416e-02  5.49011603e-02 -2.91814469e-02
  -6.17703013e-02  5.55750802e-02 -7.02879801e-02 -6.04946166e-03
   5.51728532e-03  1.52836367e-02  4.82725129e-02  8.84990394e-02
   7.33798370e-02  5.65511808e-02  2.33224556e-02  3.84778753e-02
   3.97409424e-02 -7.95363486e-02  4.72416356e-02 -6.65675551e-02
  -7.40275159e-02  1.11028552e-02 -3.05084921e-02 -4.57729250e-02
   7.35849813e-02 -4.96649891e-02  4.90597300e-02  2.47240961e-02
  -4.34967093e-02  5.40430024e-02 -7.31455609e-02  1.54304951e-02
   5.99176511e-02  3.82482843e-03 -2.26151031e-02  5.01594730e-02
  -4.51233499e-02  4.34786826e-03 -8.54408666e-02  6.67013153e-02]
 [ 2.10991651e-02  3.90486270e-02  7.20874742e-02 -3.77002880e-02
   5.67092970e-02 -1.66839361e-03  3.48411202e-02 -1.84693113e-02
  -1.72016919e-02 -7.45125860e-03 -2.63253041e-02 -7.42277056e-02
  -3.60105820e-02 -3.82664055e-03  1.01015568e-02  1.40999779e-02
   8.05505142e-02 -4.74039949e-02  2.48775408e-02  5.03227934e-02
  -2.80360468e-02  2.92097703e-02  3.60437483e-02  7.74854496e-02
  -7.95316398e-02  1.29083320e-02  8.01466927e-02  2.35551149e-02
  -3.46919633e-02  6.11963645e-02 -2.20267475e-02 -3.55149992e-02
  -2.08391659e-02 -5.34542911e-02 -5.12507856e-02 -1.35341436e-02
   8.08090642e-02  4.55750749e-02  1.63131505e-02  3.65890488e-02
  -5.00460304e-02  1.08224452e-02  7.77628943e-02  6.66733906e-02
   2.88556665e-02  7.52130076e-02 -7.90486261e-02 -3.13752145e-03
  -2.39590332e-02 -3.78756858e-02  2.69275159e-02 -1.27567202e-02
  -2.64097936e-02  3.08970734e-02 -3.24483328e-02  6.89520463e-02
  -7.90916756e-02  7.72959515e-02 -7.94315413e-02 -1.30670518e-03
  -3.66668664e-02 -1.98642425e-02 -3.84634733e-03 -2.84187533e-02
   3.59551236e-02 -6.75500706e-02  8.08717236e-02  1.76334530e-02
  -3.42945606e-02  6.90083727e-02  3.88875455e-02 -6.04376197e-04
  -1.34394020e-02  5.54861054e-02 -1.10652819e-02  2.53973380e-02
  -1.74410790e-02 -7.03506246e-02  6.57274202e-02  2.58701965e-02
  -1.00733042e-02  4.86593321e-02  3.09612751e-02 -2.77911872e-02
  -3.46671715e-02  3.42831090e-02 -1.69887766e-02 -5.19545451e-02
   7.38264099e-02 -6.92082345e-02  4.33427542e-02 -7.07553998e-02
   4.89316881e-04 -5.05696535e-02  5.79601526e-03 -4.44799662e-04
   5.94703779e-02  8.10058787e-02  4.38997075e-02  5.83533272e-02
  -6.62136599e-02  3.04711089e-02 -4.97597270e-02  4.97834310e-02
   4.30165380e-02  2.46993229e-02  7.19313398e-02  6.71798065e-02
   2.49787793e-02 -6.33503944e-02 -9.57278907e-03  6.63252398e-02
   7.59829655e-02  1.36789456e-02  1.16379261e-02 -1.04402080e-02
   2.99372524e-02  7.43019059e-02  2.62774229e-02 -4.79707792e-02
   5.96242473e-02  4.75194827e-02 -4.21978123e-02 -6.17708415e-02
  -6.74705952e-02  6.90696165e-02  2.54591629e-02 -6.08017221e-02]
 [ 4.89028320e-02 -1.63551942e-02  2.82308981e-02 -6.10482097e-02
  -4.70159911e-02 -1.82720423e-02 -3.94587182e-02  1.80818737e-02
   5.38376197e-02 -4.94643152e-02  1.03731379e-02  5.49332127e-02
   4.42514494e-02 -4.76839915e-02  3.32993567e-02  4.21281382e-02
   5.06622121e-02  8.02333429e-02 -3.88350002e-02 -2.16228291e-02
  -7.52183869e-02 -6.01807982e-03  6.31190315e-02  4.19904292e-03
  -5.91187701e-02  2.31996179e-02 -1.86479092e-03 -3.91939394e-02
   4.91989627e-02  2.14222148e-02 -8.00379366e-02  7.26672933e-02
   8.92646611e-03  5.01698926e-02  8.04065093e-02  1.14517659e-03
  -7.75104985e-02  7.91861787e-02  1.84911489e-02  5.61013743e-02
  -2.47278661e-02  3.77952531e-02 -2.61448584e-02  4.83803973e-02
  -5.60193807e-02  5.20962253e-02 -1.06380209e-02 -4.48673964e-03
  -7.87259862e-02  3.75983119e-02  6.20097145e-02  5.29621467e-02
  -6.73442557e-02  4.71759960e-02  6.37911931e-02 -6.66913763e-02
   3.83206606e-02 -2.57433765e-02 -2.19911076e-02 -2.53056921e-02
   2.79681906e-02  7.10954443e-02 -2.38949060e-02 -7.34333098e-02
  -5.10684662e-02  4.28492650e-02  7.11402074e-02 -6.10762872e-02
   7.46759847e-02  5.21234497e-02 -3.54072079e-02  4.66533527e-02
   2.58312672e-02 -4.05036062e-02  6.20020851e-02 -2.46335343e-02
   5.51710650e-02  4.35589775e-02  6.24184683e-02 -6.39222264e-02
  -7.02735037e-02  1.72165632e-02  6.77140281e-02 -6.61890656e-02
  -3.23055685e-03  2.35622898e-02  2.15335637e-02  5.67917451e-02
   3.25943157e-02  5.75375929e-02  1.25530884e-02  5.48707470e-02
   7.31546357e-02  8.37729126e-03  5.21117523e-02 -6.48290589e-02
   7.67293051e-02 -6.22693263e-02 -1.34601519e-02  1.44642740e-02
   6.58370033e-02 -5.19214422e-02 -1.90775990e-02  7.15244785e-02
  -2.52844393e-03  2.18777657e-02 -2.29649842e-02  1.94695890e-02
  -6.82500452e-02 -6.46145046e-02  3.16337422e-02 -6.82292730e-02
   1.08793378e-02  8.00756887e-02  1.89013109e-02  7.82937184e-02
   3.88516113e-02 -6.41085729e-02  3.80721241e-02  6.96656778e-02
  -7.59646297e-02 -1.30336657e-02  1.81023702e-02 -1.76284835e-02
   5.01226857e-02  3.46328616e-02  4.17691618e-02  6.39312193e-02]
 [ 3.98641825e-02 -7.74883181e-02  2.36601010e-02  4.00656089e-02
  -4.87706885e-02 -6.55850470e-02 -5.31455129e-03  2.35842541e-02
   3.83325741e-02  5.67458943e-02  7.22715184e-02  3.92302200e-02
  -6.80377856e-02  4.76239696e-02 -4.64094058e-02 -3.43432166e-02
   4.13467512e-02  1.64163411e-02 -2.69590802e-02 -7.32741356e-02
  -7.56101012e-02 -5.69497459e-02  2.58006155e-03  4.18118015e-02
   4.62361202e-02 -3.03738751e-02  7.33169094e-02  2.51394436e-02
   6.55840710e-02 -3.53262983e-02  7.61396810e-02  4.00229916e-02
  -4.58694994e-02 -4.92128730e-03  5.67947850e-02 -7.92064294e-02
   1.49746686e-02 -2.82552093e-03  5.77457622e-02  2.17010751e-02
   4.04701531e-02 -4.69910614e-02 -4.66033705e-02 -2.16838717e-03
  -4.29613292e-02 -2.02354230e-02 -4.08878364e-02 -8.03539604e-02
   3.56500372e-02 -5.57383001e-02 -7.01013356e-02 -3.03375386e-02
   3.78794745e-02  6.47201017e-02 -7.05504268e-02  5.50720319e-02
  -8.02748278e-02  1.64891854e-02 -7.51312077e-03 -3.09026241e-03
  -6.52654320e-02 -1.14574954e-02  1.47668421e-02  3.24202701e-02
  -6.06629252e-03  4.16923463e-02  8.88524950e-03  3.97397056e-02
  -6.20470941e-03 -4.25030291e-02 -6.75710142e-02 -5.88384606e-02
   4.15808260e-02  4.90042791e-02 -4.98794504e-02  6.76945820e-02
  -6.10781237e-02  3.94324586e-02 -5.00311218e-02  3.30692530e-03
  -7.50180036e-02  4.22347710e-02  6.66064098e-02  3.49247754e-02
   2.40610391e-02  1.43232793e-02  2.20593512e-02  3.66355032e-02
  -7.72228986e-02 -4.84981537e-02 -8.35935026e-03 -6.20757490e-02
  -7.49854743e-02  6.97258189e-02 -6.98183402e-02 -4.39004935e-02
  -2.30854228e-02 -5.25517538e-02  1.21556967e-03 -3.12442929e-02
   1.19794980e-02  2.72710845e-02  5.88621423e-02  1.14683881e-02
  -3.52650546e-02  3.92484516e-02 -6.07417747e-02  6.85863569e-02
   3.53415161e-02 -3.53132635e-02  2.09252015e-02  4.69727144e-02
   2.72308812e-02  4.57925349e-03  2.98131779e-02 -2.08030231e-02
  -4.45489064e-02 -1.06902346e-02 -6.26884401e-02 -5.75169958e-02
  -5.37750721e-02  3.88050079e-02 -2.55383141e-02 -2.29557790e-02
   5.10095283e-02 -2.64371559e-02  7.76068047e-02 -2.33937725e-02]
 [ 4.46485505e-02  8.57502967e-03  7.58778378e-02 -7.95198455e-02
  -4.09554653e-02  4.66865674e-02  7.22348019e-02  4.03770730e-02
   4.64921668e-02 -1.77531391e-02  4.87398580e-02  2.59952992e-03
  -1.80972293e-02  1.18771195e-02 -5.66773862e-02 -2.60018520e-02
  -2.96630561e-02 -1.17344037e-02 -7.97568560e-02  5.24655357e-02
  -3.82819064e-02  4.64251861e-02 -3.57139707e-02  7.09776655e-02
   5.58006093e-02  1.46462098e-02 -1.66601166e-02 -2.21544988e-02
  -6.26723319e-02  6.23350963e-02  5.70679381e-02 -5.13934866e-02
   3.19303945e-02 -5.14429137e-02  5.62133566e-02 -3.37267108e-02
  -3.92592438e-02  1.32944211e-02 -6.36533499e-02 -5.76727837e-02
  -7.10964277e-02 -5.71501702e-02  5.88284060e-02  5.55846319e-02
  -8.93396884e-03 -9.03405994e-03 -3.45904566e-02  1.05778947e-02
  -2.17644237e-02  1.77461207e-02  3.58187854e-02 -2.70508379e-02
   2.08335742e-02  4.71356586e-02  6.49281591e-03 -3.39971483e-03
  -6.01408184e-02 -2.16039568e-02  1.49952695e-02  1.62060782e-02
  -6.63097352e-02 -7.06545264e-02 -3.49163078e-02  3.49848047e-02
  -7.82960951e-02 -6.35503232e-03  8.02712962e-02 -7.26006553e-02
   3.38350832e-02 -2.71452107e-02  7.58072808e-02 -3.40424292e-02
   5.72399125e-02 -9.03295726e-03  7.32367113e-02  4.50423583e-02
   4.27843034e-02 -1.20268911e-02  2.37055272e-02 -5.53818345e-02
  -5.10130599e-02  2.21540555e-02  3.91188860e-02  6.97001591e-02
   4.87093851e-02 -1.98824592e-02 -1.51818022e-02  1.76497549e-02
  -6.94217905e-02  4.07101214e-02 -6.71499223e-03 -2.28951536e-02
   4.45791259e-02  6.71718940e-02  1.41262189e-02  1.20991617e-02
   5.65453395e-02  6.99752569e-03  7.21340701e-02  6.48987964e-02
   5.86615130e-02 -5.78985997e-02  6.97396696e-04  6.18741885e-02
   6.89185932e-02 -2.22429633e-04  7.92033598e-02 -9.02181864e-03
   4.23126817e-02 -3.10985781e-02 -1.02189928e-02 -1.63972899e-02
   5.38591966e-02  5.42658046e-02  1.21552497e-03  7.94390514e-02
  -7.67080560e-02 -1.96465924e-02  5.48701212e-02  6.62771836e-02
  -5.15092239e-02 -2.54246034e-02 -5.95703572e-02 -1.90929323e-03
  -7.49149472e-02  6.11138269e-02  6.71534464e-02  3.42229530e-02]
 [ 3.76097411e-02 -3.97684611e-02 -1.65902078e-04  2.64913067e-02
  -3.93977240e-02  8.10218230e-02 -2.09250636e-02 -7.93501139e-02
  -5.43897040e-02  2.71672159e-02 -1.66964382e-02 -2.29412764e-02
  -4.66506332e-02  7.12841973e-02 -2.93555968e-02 -9.04249400e-03
  -2.26174183e-02 -3.44995260e-02 -1.75882131e-03  5.30217960e-02
  -7.04120845e-03 -6.16229624e-02  6.17403314e-02 -4.40290719e-02
  -5.11487797e-02 -7.67313763e-02  6.90409616e-02 -4.25764397e-02
   5.89792654e-02 -4.20903899e-02 -2.97926217e-02  6.70872852e-02
  -3.29240412e-03 -6.14642911e-02 -4.80446517e-02  5.63096032e-02
  -1.57019272e-02 -3.26088220e-02  1.77643523e-02 -2.35802345e-02
   7.94516727e-02  5.82968518e-02 -6.21352121e-02 -3.60786170e-02
   2.60620490e-02  2.33549029e-02 -2.34324485e-03 -5.01282364e-02
   7.60009363e-02  6.49051741e-02 -5.57957143e-02  5.31397685e-02
  -7.21944571e-02  2.94993743e-02 -3.05885114e-02 -1.79344937e-02
   1.54701173e-02  5.55308238e-02 -7.46356845e-02  4.86928150e-02
   2.02563852e-02 -7.48999417e-03 -2.85058469e-03 -5.36308102e-02
   1.38830021e-02 -7.18167573e-02 -6.92125410e-03  7.58564994e-02
   6.62471429e-02  5.94508871e-02  2.79660225e-02 -1.09675452e-02
   2.28167176e-02  6.14174977e-02  3.65352705e-02 -1.06126666e-02
   4.86865863e-02 -3.03913765e-02 -1.12128481e-02 -3.86857651e-02
  -1.96446963e-02 -9.89867747e-03 -3.21120024e-02 -6.69565052e-02
   3.71222049e-02  6.53710887e-02 -7.05294088e-02  4.79287133e-02
   2.66490653e-02 -5.01184911e-03  1.13933533e-03  5.58615476e-03
  -2.98134983e-03  5.22047058e-02  4.45891544e-02 -3.97908352e-02
   8.06335360e-03  5.24593666e-02 -6.77312538e-02  1.83321461e-02
  -4.40780558e-02 -7.94090182e-02  5.47059849e-02  7.17703924e-02
  -2.42736861e-02  8.01502392e-02 -3.79272550e-03 -4.35115434e-02
  -6.05899468e-02 -7.72803500e-02  6.27629682e-02  3.25421989e-02
   6.46967515e-02 -6.21484220e-02  2.42059603e-02  4.57119569e-02
   5.02049103e-02 -2.04547569e-02  7.78644606e-02  5.92626110e-02
   4.47233841e-02  3.04717571e-03 -5.87570444e-02  5.70436493e-02
  -2.40217671e-02 -3.03694606e-03  3.98027822e-02  7.75664672e-02]
 [-3.01748440e-02  2.79741660e-02 -8.06312338e-02 -3.09023149e-02
  -6.46316335e-02  1.20214447e-02  1.81285292e-03  7.21792057e-02
   4.10281122e-03 -1.75967664e-02 -3.88848744e-02  3.74612808e-02
  -4.20955345e-02 -6.65414855e-02 -1.23443305e-02  6.89043328e-02
   6.92954734e-02 -6.55663013e-03  5.55836335e-02 -5.56015186e-02
   3.65059897e-02  2.38916352e-02  1.64671615e-02 -3.41678746e-02
   7.61731341e-02  6.77687749e-02 -7.23849982e-02 -3.97355668e-02
  -4.15786020e-02 -7.49958977e-02  2.07778066e-02 -3.02349478e-02
  -7.79632479e-02  6.43348172e-02  6.58013746e-02 -1.29599497e-02
   5.54864183e-02 -4.28635366e-02  7.14836344e-02  3.54080573e-02
  -4.71516475e-02  2.48387307e-02 -4.92695719e-03 -1.17957443e-02
  -3.58526483e-02  3.35914418e-02 -7.22117871e-02 -1.37641728e-02
   4.30549085e-02 -7.26284832e-03 -6.23932071e-02 -3.15941609e-02
  -5.70754260e-02  1.24759227e-03  2.57667005e-02 -4.33271527e-02
   4.37418595e-02  5.19658998e-02 -3.05697322e-02  6.13208637e-02
   7.04612359e-02 -3.75053547e-02  6.50915429e-02 -6.89757913e-02
   1.23528019e-02 -7.05679283e-02  1.45248845e-02  2.30491683e-02
  -2.16015577e-02 -3.93209532e-02 -5.73525578e-03  2.61097997e-02
  -2.54712887e-02  3.96553427e-03 -5.64732403e-03  1.17690414e-02
   4.95241359e-02  6.60449490e-02 -3.82826030e-02  3.78685072e-02
  -3.14319320e-02  7.20496848e-02 -7.83589259e-02  7.44914189e-02
   2.86459178e-02 -7.86104798e-02  5.24291322e-02 -2.04622820e-02
  -9.30862874e-03  7.76976347e-04  1.65977180e-02 -2.97481641e-02
   2.44350061e-02  1.85414255e-02 -5.13574965e-02 -7.82945082e-02
   5.22324219e-02  5.32492027e-02 -2.07673050e-02  8.07956234e-02
  -6.62975684e-02 -4.79260832e-03 -4.89872582e-02 -5.94882667e-02
  -3.77390534e-03 -4.53195386e-02 -6.96913451e-02  3.56571376e-02
  -2.13132836e-02  6.96768388e-02 -5.17383069e-02 -3.91301215e-02
   6.03091195e-02  2.11061686e-02  4.82260436e-03 -1.01038739e-02
  -3.45881730e-02  8.39222223e-03 -2.42451429e-02  6.57278672e-02
   8.84035230e-03  7.32445493e-02  1.98453516e-02  4.04662415e-02
  -3.55863795e-02  1.24038979e-02  6.86439499e-02  2.54589319e-02]
 [-6.33344799e-02  3.42242494e-02 -2.53080726e-02  4.64138016e-02
  -6.31851852e-02  5.77813312e-02 -4.08734493e-02 -6.63951710e-02
  -7.07653165e-02  6.07018247e-02 -5.96456975e-02 -5.87439165e-02
   7.72893801e-02 -6.89059421e-02 -5.84456623e-02  3.68123651e-02
   7.43560269e-02 -3.08590159e-02  3.80823314e-02 -3.96067537e-02
   3.31028774e-02  7.22546205e-02  6.75661638e-02  3.59636322e-02
  -5.91426902e-02  1.27103105e-02 -8.63777846e-03 -6.75362051e-02
   4.49781194e-02 -3.03676464e-02 -4.87974137e-02 -7.72337466e-02
  -4.83471230e-02  2.26497650e-03 -2.01445073e-03  4.52579781e-02
   4.39739451e-02  2.47462168e-02 -4.16038781e-02 -2.82956064e-02
   3.33762839e-02  6.11185059e-02  2.27616802e-02 -6.94882721e-02
   4.79665026e-02  6.36864677e-02  5.49168214e-02  1.81005746e-02
   4.07193825e-02  4.29126546e-02  1.53694451e-02  5.29117510e-02
   4.84718904e-02  1.99942738e-02 -2.20928676e-02 -4.51133922e-02
  -2.85348035e-02  5.29207066e-02 -2.59187184e-02  2.07501501e-02
   1.68237090e-03 -4.85153459e-02 -7.00042769e-02 -5.40539138e-02
   7.83658698e-02  7.02658519e-02  3.64991054e-02  4.32122648e-02
  -4.33288328e-02 -6.84203729e-02 -8.79541039e-05  7.63078257e-02
  -4.51674610e-02 -1.26572847e-02 -1.92809999e-02 -4.02202196e-02
  -4.71350960e-02 -5.63903451e-02  2.66349465e-02 -7.61763304e-02
  -6.68836534e-02 -5.06190658e-02 -8.03622231e-02 -7.90480450e-02
  -4.09902148e-02  2.28650272e-02 -1.23229995e-02 -5.77376261e-02
  -4.68785129e-02  3.13207731e-02  5.74965701e-02 -7.79467672e-02
  -9.64590162e-03 -2.93951444e-02  4.96081337e-02  7.39934966e-02
  -1.31337196e-02 -2.67805271e-02 -6.61754608e-03 -6.32176548e-02
   2.46941745e-02  2.44095400e-02 -4.45631184e-02  2.64650583e-03
  -4.92556542e-02  5.60188070e-02  5.14076725e-02  5.08859679e-02
   2.21627727e-02  3.70720774e-03 -8.92261416e-03  7.17550889e-02
   3.53015661e-02 -1.75449997e-02  1.80613697e-02  3.59472856e-02
  -2.43198462e-02 -1.03685409e-02  7.58818462e-02  7.41836205e-02
   6.15760610e-02  3.49868685e-02 -5.05733117e-02  2.47551873e-02
   4.25974950e-02  9.34210420e-03  7.91543648e-02 -5.66847324e-02]
 [ 4.32462394e-02 -2.70292163e-04  3.89638916e-02  6.56702295e-02
  -6.39399588e-02  5.91854677e-02  2.57308483e-02  5.34588173e-02
   2.78141573e-02  5.28039560e-02 -6.19829819e-02  1.68043673e-02
   3.88607979e-02 -2.46380195e-02  1.39954388e-02 -6.16959445e-02
   4.10388112e-02  1.49216503e-03  3.14361677e-02 -3.05829234e-02
  -1.23296753e-02 -4.07797955e-02  1.15537047e-02 -4.95212488e-02
   2.21838132e-02  6.57284036e-02  7.59889409e-02  2.28454918e-03
  -4.00780663e-02 -6.60540462e-02  6.43428043e-02 -6.43367842e-02
   3.00197154e-02  2.14404315e-02 -1.69611573e-02 -5.25308289e-02
   6.22924194e-02 -1.14474595e-02 -5.17172068e-02 -6.46600574e-02
   7.57074878e-02 -5.61668351e-02 -2.25503705e-02  1.71100274e-02
  -4.63035665e-02  4.10897881e-02  3.05047780e-02 -1.00347772e-02
  -2.68487148e-02 -3.13293934e-03  6.06564209e-02  3.94389927e-02
   6.72460422e-02 -3.92363071e-02 -4.09895182e-02  8.02593604e-02
   8.10134336e-02  3.68355736e-02 -2.09201351e-02 -5.98904043e-02
   4.46669981e-02 -1.89512819e-02 -6.15126379e-02 -6.55352920e-02
   2.70364881e-02  4.12216783e-02  2.61817127e-03 -3.72631252e-02
   7.21726939e-02  4.14759740e-02  4.30831984e-02 -6.69242069e-02
  -2.71217339e-02  5.47186658e-02  2.27455124e-02 -7.01105595e-02
  -5.12637198e-03  8.00615028e-02  7.76444748e-02 -3.87135148e-03
   4.74564731e-04  3.40217724e-02 -1.58249363e-02  4.50440124e-02
   6.49092868e-02  1.15918443e-02 -6.95620701e-02  6.52608201e-02
  -6.98996410e-02  4.44693863e-03  8.98014754e-03  2.76388973e-02
   7.34253153e-02 -3.79490852e-03 -9.57035273e-03  3.84973884e-02
  -1.96976438e-02  5.41907474e-02 -2.18092129e-02  1.48160160e-02
   5.41377589e-02 -5.89518212e-02  1.11070722e-02  6.76437244e-02
   7.66633078e-02  1.00025535e-03 -6.39088675e-02  7.79075101e-02
  -6.35189265e-02 -9.63024050e-03 -6.26644045e-02  5.42225167e-02
   1.02392063e-02 -1.02323219e-02 -5.89099899e-02 -4.16470207e-02
  -4.71400060e-02 -7.83962086e-02 -4.67863865e-02 -1.55174360e-02
  -5.58835119e-02 -6.03936650e-02  8.30421597e-03 -1.71725228e-02
  -1.54605806e-02 -6.31777197e-02  5.50655946e-02  7.09247664e-02]
 [ 4.16497663e-02  3.92753556e-02 -2.61146352e-02 -2.32315846e-02
  -6.72824904e-02 -1.91783346e-02 -2.29490511e-02  4.62105051e-02
   2.56390870e-03  6.55363575e-02  6.75429627e-02  2.27634609e-02
  -5.02694659e-02 -4.93728444e-02  6.85400739e-02  5.60129359e-02
  -3.21004763e-02 -6.78000376e-02  5.19442335e-02 -4.66727726e-02
  -7.11152256e-02  2.92386040e-02 -6.13666326e-02  5.09131923e-02
  -1.83252990e-02  4.76104245e-02  1.63182542e-02  7.00729862e-02
   3.43336836e-02  6.52524456e-02  7.75715336e-02 -4.41707075e-02
  -7.29185045e-02 -1.02668032e-02 -1.81603283e-02 -1.58932209e-02
   4.34010029e-02 -2.93402039e-02 -5.06589971e-02  3.46891582e-04
   6.56807795e-02  4.15723175e-02  1.19361803e-02  5.10235652e-02
   9.63681936e-03  3.18968222e-02  8.65141302e-03 -2.98479311e-02
   5.03350794e-03 -3.67255025e-02 -1.44448429e-02 -1.81238726e-02
   1.26887113e-02  3.20809036e-02  4.76881191e-02 -7.18192160e-02
  -2.78071016e-02  1.30956247e-02 -7.03810677e-02  1.84147432e-02
   6.65682033e-02 -3.23824659e-02  2.07958668e-02  7.69933313e-03
  -6.76170215e-02 -2.93830037e-03 -6.43457323e-02  5.02261892e-02
  -2.88207754e-02 -7.24645928e-02 -7.44444132e-02 -7.94889629e-02
  -7.15852231e-02  7.38271847e-02  7.78077915e-02 -6.92211092e-04
  -6.68003112e-02  7.26074651e-02  5.86717054e-02  2.38465965e-02
  -6.04815409e-02  9.81178880e-03  2.88270414e-02 -4.72130105e-02
  -3.98792885e-02  4.75415513e-02 -3.12079564e-02  2.87447199e-02
  -3.67438905e-02  2.69575864e-02  4.13119495e-02 -2.50341743e-03
  -5.38996905e-02 -5.03969826e-02 -1.50324553e-02  1.96560845e-02
   3.05051059e-02  1.52774528e-02  3.20442766e-02 -3.30779292e-02
   8.03445801e-02  2.88639963e-03 -5.37770838e-02 -5.25620803e-02
   3.66574675e-02 -6.97195828e-02  3.68618965e-03  1.89148262e-02
  -6.85726628e-02  7.40142539e-02  5.45555726e-02 -1.30800009e-02
   4.41048369e-02 -3.86974663e-02  2.85160840e-02  6.61098883e-02
   5.31937405e-02 -4.38588373e-02  5.48400506e-02 -4.02214974e-02
   7.20585883e-03  1.90962404e-02 -9.43463296e-03 -7.77906701e-02
   1.53739750e-03 -6.02463484e-02 -9.86222178e-03 -5.27555197e-02]
 [ 1.40096322e-02 -6.37933388e-02  2.94879898e-02 -7.80214891e-02
  -1.55495629e-02  1.88007951e-04 -6.46831915e-02  1.77903250e-02
  -1.37702972e-02 -3.31387892e-02 -2.65518352e-02 -2.96244770e-02
   1.05988011e-02 -6.09809682e-02  1.57538503e-02  7.18265846e-02
  -7.84186274e-02  5.28771803e-02  5.23114204e-03 -3.75999585e-02
  -6.02639616e-02 -1.32014453e-02 -2.82223746e-02 -8.57402384e-03
   6.83747232e-04  2.59104818e-02  5.09082302e-02 -5.79764359e-02
   6.34868667e-02  5.39378598e-02  6.06258586e-02  5.40147945e-02
  -4.52854447e-02 -8.09172541e-03  7.36548230e-02  3.85791957e-02
   1.08320042e-02 -6.42322227e-02  3.14900801e-02  2.71770060e-02
   1.53385848e-03  4.26279157e-02  8.06972757e-02  5.39847836e-02
   4.30833697e-02  1.83569938e-02  4.18137535e-02 -6.76746294e-02
  -3.19433697e-02 -3.39217559e-02 -6.64823875e-02  8.88034701e-05
  -2.27341056e-02  1.33457854e-02 -4.76595499e-02 -6.47184253e-02
   5.06191701e-03  2.44644806e-02 -4.18017842e-02 -3.70924063e-02
   7.66541585e-02  1.96157247e-02 -3.03368047e-02 -5.79169914e-02
   4.84770536e-03  6.35938421e-02  5.51617146e-03 -6.15558773e-02
  -3.23796235e-02 -3.88356186e-02  4.04603779e-03 -2.07117237e-02
   7.89455101e-02  7.61794075e-02  6.92435727e-02  5.58255538e-02
   4.68188152e-02  4.02984619e-02 -1.98020041e-03 -2.32071206e-02
  -1.37557760e-02 -1.69259831e-02  3.37339267e-02 -2.92717665e-02
  -5.75074628e-02 -4.58211452e-03 -6.29366934e-02  1.88697502e-02
   6.81411102e-02 -2.70232819e-02 -5.98762110e-02 -1.76079124e-02
   3.15669924e-02  3.96872759e-02  1.12334639e-02  7.52378032e-02
   4.41609323e-03 -6.95995092e-02 -5.41044250e-02 -6.56333566e-02
   7.08775967e-03  2.57819593e-02  4.06838581e-02 -3.38154361e-02
   4.46560234e-03  3.47793847e-03 -6.02745786e-02 -7.05810636e-02
   4.53815386e-02 -2.83364505e-02 -2.58727297e-02 -5.81275262e-02
  -7.21216202e-06  6.33107647e-02  6.76270202e-02  1.58278793e-02
   6.08928278e-02  4.83467206e-02 -1.29760802e-02  6.60552606e-02
   1.37854815e-02  9.74684954e-03  5.96346185e-02 -4.88749631e-02
   3.52646858e-02  1.34862959e-02  5.40178344e-02  1.04892850e-02]
 [-5.43927029e-02 -7.82936811e-02 -7.75735006e-02 -1.26618519e-02
   2.72287726e-02  1.73559487e-02 -1.57011300e-03  2.80489102e-02
  -1.73656419e-02 -3.01236957e-02 -4.00202833e-02 -4.83185202e-02
  -3.77331600e-02  3.82828116e-02  4.46467325e-02  7.63732940e-03
  -2.80158781e-02  6.72265142e-03  6.93150982e-02 -2.06056722e-02
   3.02333385e-03 -2.64090970e-02  4.37727273e-02  6.97403476e-02
   8.24488699e-03  2.22591385e-02 -4.10308428e-02  1.05267763e-03
  -1.65848956e-02  5.47006652e-02 -1.73865408e-02  7.40389451e-02
   1.78107619e-03 -7.49994591e-02 -5.10469601e-02  2.42738202e-02
  -3.29144262e-02 -2.23368183e-02  5.89732826e-03 -1.01084933e-02
   5.52163646e-02 -7.32763931e-02 -1.68905556e-02 -5.51558658e-02
  -7.38165900e-02  4.00962085e-02 -4.20340002e-02  1.21685266e-02
   1.89064145e-02  3.32404897e-02 -2.72496752e-02  6.25719652e-02
   4.53369543e-02  4.08442318e-02  6.03517070e-02  1.85879320e-02
  -5.53844273e-02 -4.33394313e-02  1.32813305e-02 -3.75993587e-02
  -4.16442566e-02  6.20462522e-02 -5.50130345e-02  4.07069698e-02
  -7.52547011e-02 -4.85215746e-02  3.38757336e-02 -1.34056360e-02
  -4.38480079e-02 -7.11115152e-02  6.74100220e-03 -2.09115483e-02
  -3.91768441e-02 -3.43071297e-02 -7.04119354e-03 -1.21148080e-02
  -5.21919429e-02 -7.00723901e-02 -4.17007618e-02 -5.28968647e-02
   2.05547959e-02  6.80966005e-02 -1.08834580e-02  2.86598653e-02
  -5.00725247e-02  2.14519575e-02  1.15286410e-02  5.54681197e-02
   7.31020421e-03  5.64386025e-02 -5.98134398e-02  2.19630897e-02
  -7.95663521e-02  2.67026350e-02 -8.54567438e-03  6.54169992e-02
  -5.55112883e-02  6.94335997e-03  1.94172561e-02 -9.03289765e-03
   6.54673353e-02  2.19179690e-02 -3.79181132e-02 -4.63305414e-03
  -1.00146085e-02 -1.89601779e-02 -4.33908887e-02 -6.67194948e-02
  -1.43076330e-02  3.66586447e-03 -6.59625158e-02  7.50546679e-02
   3.14567983e-02  7.84789398e-02 -5.96357398e-02  3.92652750e-02
   1.47809610e-02 -1.83499157e-02 -5.29930741e-02  4.05934453e-03
   6.44056499e-03  7.03951195e-02 -5.01994044e-02 -3.88862193e-03
   8.05401132e-02 -4.08167504e-02 -1.90930702e-02 -1.36811510e-02]
 [ 2.92281806e-02  1.03240013e-02  5.33572659e-02  2.15142071e-02
  -5.44270277e-02  4.95117083e-02 -3.75605859e-02 -6.53320253e-02
  -9.39514488e-03 -7.66231045e-02  4.10448015e-03 -3.95428017e-02
  -4.60995659e-02  1.04523674e-02  6.69457540e-02 -5.63686490e-02
  -2.12904997e-02  1.76293775e-02 -1.07629448e-02 -6.71943426e-02
  -6.78786486e-02  4.59321588e-03  6.20680302e-03 -1.82332098e-02
   5.26037291e-02 -2.42857151e-02 -7.51741976e-02 -6.86942264e-02
  -7.54282251e-02 -1.67826638e-02  1.70027763e-02 -1.44505501e-03
   6.95116743e-02 -3.42308395e-02 -2.50893570e-02 -2.67873146e-02
   7.33728036e-02  4.56402078e-02  1.65914521e-02 -7.14311749e-02
   8.56474042e-04  6.84750006e-02 -1.92713886e-02 -5.62300533e-02
   2.68389136e-02  4.43042591e-02 -5.86890914e-02 -7.52706826e-03
  -7.52357915e-02 -3.60911861e-02 -1.97809711e-02 -7.40520135e-02
  -4.15057354e-02  9.63371992e-03  5.95375225e-02 -7.97383860e-02
  -3.88502590e-02  1.38892680e-02 -8.37514549e-03 -8.06522146e-02
  -2.37583593e-02 -6.66752309e-02  8.04744735e-02 -7.44360760e-02
   3.21219787e-02  7.87558034e-02 -4.12147716e-02  1.49396136e-02
  -4.62757796e-02  4.07485068e-02 -1.63342655e-02 -3.56269293e-02
   2.43418142e-02 -6.25773817e-02 -1.10121965e-02 -3.76471244e-02
   6.36738539e-03 -5.29763624e-02 -7.41530359e-02 -8.93367827e-03
  -2.03652605e-02  3.63463163e-03  2.53055543e-02 -3.31190638e-02
  -4.62284759e-02  1.45028904e-02 -5.64628467e-02 -2.92930566e-02
   2.89346203e-02  3.43111902e-02 -6.41478449e-02 -2.62791663e-03
  -4.28647138e-02  5.81463799e-02 -1.23121738e-02  2.09240764e-02
  -1.43497884e-02 -7.33642280e-02 -4.35988344e-02  2.69298032e-02
  -7.86006451e-04  6.68852851e-02  4.72284108e-03  5.44476286e-02
   5.23349866e-02 -2.15436593e-02 -4.08869870e-02  5.59347942e-02
   5.49379736e-03 -7.71349445e-02 -6.94132447e-02 -1.33028924e-02
   4.18293253e-02 -4.22314815e-02  3.95552516e-02 -1.19790733e-02
  -5.66864945e-02  3.18438932e-02  6.27733842e-02 -3.94061357e-02
   7.74481669e-02 -4.15874012e-02  7.94645622e-02 -1.62221044e-02
   3.91619131e-02 -5.54463677e-02 -7.56643116e-02 -7.21384883e-02]
 [ 2.77980343e-02  2.61737332e-02  3.07356566e-02  7.79882297e-02
  -4.42433245e-02 -6.35375902e-02 -2.46809311e-02 -4.02456112e-02
  -7.98546672e-02 -1.11562833e-02 -3.59144807e-03 -2.26230659e-02
   3.73509750e-02 -6.17983192e-02  1.69222504e-02  2.87102386e-02
  -5.58157489e-02 -3.40438783e-02  2.16984451e-02  3.01823467e-02
  -6.42591566e-02 -7.40555152e-02  3.37429345e-02 -8.00626725e-02
  -2.73863412e-02 -6.12734780e-02 -4.09173220e-03  6.49997517e-02
   3.80107239e-02  6.34686723e-02  7.91045502e-02  4.95089516e-02
  -4.30286638e-02  2.40250751e-02  1.89308599e-02  1.58907622e-02
  -2.18375251e-02  5.90992197e-02  6.14412352e-02 -3.34370621e-02
  -6.99648485e-02  7.37786666e-02 -7.97503740e-02  5.77224270e-02
  -5.61979488e-02 -5.86799458e-02  2.33607069e-02 -4.22303975e-02
  -6.20487705e-02  6.64164200e-02 -2.66965218e-02  3.64879668e-02
   5.81658557e-02  6.35795221e-02  7.40957186e-02  3.59530151e-02
  -6.77399337e-04 -9.60415602e-03 -3.31690721e-02  3.99675667e-02
  -2.87038758e-02 -2.75906920e-03  4.18382958e-02  9.13576037e-03
  -4.78051677e-02  7.51623288e-02 -7.39486143e-02 -3.12986895e-02
   5.87013736e-02  3.64580676e-02  4.59935889e-02 -6.64985552e-02
   7.85857216e-02 -5.05675822e-02  3.89414579e-02  1.81203336e-02
   4.15566936e-02 -4.05489542e-02 -5.47218174e-02  8.03296342e-02
   7.06032440e-02  2.25878134e-02 -4.03984226e-02 -4.82567735e-02
   7.90131837e-03 -7.68241435e-02  1.41871572e-02 -5.88721782e-03
  -3.59682329e-02  4.19024006e-02  6.23453483e-02 -3.62305157e-02
   3.45971063e-02 -4.10823040e-02  6.84656128e-02 -7.18733668e-02
   2.15515867e-02  2.68648639e-02  6.59839436e-02  5.11277542e-02
   7.39346668e-02  2.32803896e-02  5.56778908e-03 -2.01537944e-02
   3.11798751e-02 -4.09934260e-02  6.62878081e-02 -4.99849617e-02
   2.97647715e-03 -6.93688020e-02 -7.06524402e-02 -2.61574872e-02
   4.81381342e-02 -1.55224055e-02  1.41140372e-02 -2.11345963e-02
  -2.45578587e-04 -6.28965050e-02 -1.72767788e-02 -1.15881637e-02
   5.32343611e-02 -2.12111957e-02  5.32408580e-02  3.06591168e-02
   1.41389444e-02 -6.82820454e-02  6.04166836e-03 -1.42000616e-04]
 [ 1.87429115e-02  6.45947680e-02  3.45556065e-02  1.62902921e-02
  -6.49118423e-02 -2.83807553e-02  8.39067250e-03  2.14363709e-02
  -2.67086923e-03 -2.24314816e-02  3.84254009e-03  4.91930023e-02
   5.14060259e-03 -2.56453715e-02 -6.88137561e-02 -2.70089135e-02
   1.28312111e-02 -2.08273679e-02 -2.49466598e-02 -5.62270731e-03
   7.67422989e-02 -6.92566186e-02  1.37139484e-02 -5.01068309e-02
   2.43123993e-02 -4.68618236e-02 -7.33844191e-03 -4.44190316e-02
  -5.11418357e-02  3.42584327e-02 -7.26621151e-02  7.83399567e-02
   2.18138099e-03 -2.74529420e-02  2.02947110e-02  1.51170194e-02
   9.70596820e-03  4.62806225e-03 -7.62375519e-02 -2.38956399e-02
   6.60286844e-03 -3.43912914e-02 -4.01341468e-02  3.47841904e-02
   6.27916530e-02 -4.83041517e-02  6.27794936e-02  2.26052850e-03
  -6.30154908e-02  3.90556678e-02 -4.23460416e-02 -6.07433766e-02
  -5.23244515e-02  3.03267837e-02 -5.43555319e-02 -4.17435169e-02
  -3.03338468e-03 -4.29453701e-03  4.64447588e-03 -3.61018591e-02
   5.07724211e-02  1.18177682e-02 -9.17064399e-03  2.57888436e-02
   2.25730538e-02  5.26444614e-03  3.97643223e-02 -6.01804405e-02
   7.01838359e-02 -3.87480147e-02 -1.28381774e-02 -4.88379858e-02
   4.25290391e-02  4.71915826e-02 -4.57298197e-02 -3.69451456e-02
   2.29634196e-02 -1.75035596e-02 -6.25613704e-02 -1.66766718e-02
   7.65416026e-03  6.65675327e-02 -5.67232370e-02  2.80810073e-02
   7.27779642e-02 -3.19652259e-03  7.61347488e-02 -7.03279823e-02
   3.88585702e-02 -4.65538055e-02 -4.96634990e-02  1.51131302e-02
  -4.82971705e-02 -1.02691203e-02  5.04565462e-02  7.19550923e-02
  -5.62591851e-03  4.28456292e-02 -7.97130167e-03 -8.06493759e-02
  -5.44327721e-02  4.99194041e-02 -4.61751819e-02 -1.12605020e-02
   6.99053630e-02  8.38450342e-03  5.58010116e-02  6.82705417e-02
   9.59365070e-03 -6.06608242e-02 -6.78968877e-02 -7.03211948e-02
   5.06174788e-02 -6.05387986e-02  7.42455572e-03  3.70266587e-02
  -4.38812524e-02  1.60054564e-02  3.80411595e-02 -7.09133893e-02
   1.40895396e-02  1.59080923e-02 -4.85175140e-02 -2.31222436e-02
   2.08470002e-02  4.92006764e-02  6.14396110e-02 -1.24542937e-02]
 [ 3.89853194e-02 -5.15396222e-02 -7.09996372e-02  2.19537690e-02
   5.54617569e-02 -6.66094571e-03 -1.63418129e-02  3.39566022e-02
  -7.89082721e-02  4.69501242e-02 -1.81667507e-03  6.01612702e-02
   7.89837614e-02  7.66724125e-02 -4.24501970e-02 -1.06325075e-02
  -6.08606264e-02 -4.89656776e-02  4.31983769e-02 -6.25797659e-02
   5.36208525e-02  1.59067959e-02 -5.46351261e-02 -5.07658198e-02
   6.10478595e-02 -3.55358683e-02  1.58594921e-02 -8.00616071e-02
   5.40369675e-02  2.92195529e-02  1.61200762e-02 -7.07534850e-02
  -3.52943130e-02  6.63892552e-02  4.94628325e-02 -3.69680412e-02
  -4.60257716e-02 -7.81795233e-02 -3.83695662e-02  8.07453915e-02
   3.29658389e-04  5.45685068e-02 -5.61377332e-02 -2.01083496e-02
  -4.83718961e-02  3.95960361e-02  3.08924094e-02  2.92815343e-02
  -5.20253256e-02 -7.74567351e-02 -7.33706504e-02  2.19443515e-02
   1.84940472e-02  8.57818127e-03 -5.55444323e-02 -5.97730428e-02
  -1.13734156e-02  1.85854957e-02 -4.76285517e-02  3.02314088e-02
  -2.69553661e-02 -7.39264116e-02 -3.13007608e-02 -3.92228477e-02
  -3.68901864e-02 -4.16239686e-02 -3.22976299e-02 -2.78116651e-02
   5.60409650e-02  8.01678672e-02  7.27892295e-02  7.94334784e-02
   1.62018090e-03  6.51792958e-02  4.82033268e-02  4.62427661e-02
  -7.84660205e-02  7.10922852e-02  2.07542703e-02 -3.61446738e-02
   4.58382890e-02  2.81090662e-02  6.14849254e-02  3.82976457e-02
  -7.74759948e-02  4.81121019e-02 -9.77487117e-03 -2.39746384e-02
  -7.09195584e-02  1.04188770e-02  3.41406092e-02  5.23226187e-02
  -4.33307663e-02 -7.47586042e-03  6.41965941e-02 -4.92579937e-02
  -3.06264721e-02 -1.71306431e-02  7.79509470e-02 -3.49614024e-02
  -4.71423641e-02 -2.83735804e-02 -2.59872340e-02 -2.82447860e-02
   7.52525032e-03  7.02654347e-02 -7.11883977e-02  1.14560276e-02
   3.17221805e-02  4.33623269e-02  7.82882497e-02 -2.35120952e-03
  -1.29143670e-02 -5.97266108e-02  5.35661802e-02 -3.83056141e-02
   2.47474760e-02  6.52283803e-02  5.48922792e-02  5.44190779e-02
  -5.43932617e-02  6.56496808e-02  4.64340672e-02 -4.65352610e-02
  -4.15220745e-02  6.99847862e-02 -7.05696642e-04  1.20410100e-02]
 [-1.38648227e-02  6.75383583e-02  4.11430672e-02  1.52538195e-02
  -2.58900970e-02  5.44986501e-02  3.20390165e-02 -2.32725032e-02
  -4.82228547e-02 -3.18466425e-02  2.47292966e-02  7.47776106e-02
   6.02341369e-02  4.11534905e-02 -6.49639219e-03 -3.86319458e-02
  -3.68888117e-02  5.86894155e-03 -2.89857313e-02  2.92604715e-02
  -2.82526389e-02 -4.32927869e-02  4.03330401e-02 -4.13236246e-02
  -1.10335425e-02  5.98119870e-02  1.68127790e-02 -7.31291771e-02
   5.59852496e-02  2.85871923e-02 -1.85812041e-02 -4.89564538e-02
   1.18216574e-02 -6.84033781e-02 -1.54151395e-02 -4.29117084e-02
   3.84730846e-02  7.01483339e-03  7.63829574e-02  7.11158440e-02
   8.14601034e-03  4.18617502e-02 -4.94480915e-02  5.76098636e-02
   5.88556156e-02  1.20636001e-02 -6.55988231e-02  1.52479783e-02
  -5.69436923e-02 -3.26320268e-02 -8.86409730e-03  3.92954424e-02
  -7.00107217e-02 -6.91064000e-02 -4.05227877e-02 -4.74526882e-02
  -3.75120677e-02 -6.24857396e-02 -4.61636148e-02  4.75540385e-02
  -3.66182327e-02 -5.26629277e-02 -4.43393365e-02  6.20898828e-02
  -2.40369476e-02 -6.92217126e-02 -7.19796643e-02 -1.86104625e-02
  -6.74838796e-02  2.23542601e-02 -2.64482573e-02  1.63986534e-03
  -3.20236459e-02  5.90515509e-02 -1.71064064e-02  2.04768404e-02
   1.98287591e-02 -4.62309308e-02  5.36326542e-02  2.76013240e-02
   2.72106901e-02  5.51858023e-02  3.72291505e-02  6.74360916e-02
   7.29188547e-02 -4.71065901e-02 -2.44185477e-02  4.91608679e-03
   6.24898449e-02 -6.79567158e-02 -2.37936303e-02  2.89127082e-02
   6.05794117e-02  2.72109956e-02  7.17013255e-02 -5.56955226e-02
  -3.04725952e-02  3.55561301e-02  7.14472681e-03  6.79189339e-02
   1.06221959e-02 -6.06552921e-02 -2.41597071e-02 -1.90926082e-02
  -3.28390636e-02  7.25944117e-02 -8.58582556e-04 -3.69889662e-02
   7.02163056e-02 -4.33154143e-02 -2.84429640e-02  1.14974529e-02
  -5.94867952e-02 -4.88088615e-02  5.76385930e-02  6.61644861e-02
  -2.37924531e-02  6.17390350e-02 -2.52141654e-02 -1.39715523e-02
  -1.29485130e-03  5.08933514e-03  4.04478535e-02 -1.80864334e-02
   4.88332734e-02  4.63969186e-02 -5.38932681e-02 -4.00681272e-02]
 [ 2.33418867e-02  7.11767375e-02 -3.43155414e-02  6.60163090e-02
   6.58313707e-02 -7.98891485e-03 -6.63368255e-02  8.79184827e-02
  -2.46614777e-02 -2.45623291e-02 -1.06451486e-03  5.75770736e-02
   3.88790779e-02  4.18969989e-03  7.66486302e-03  4.98877950e-02
  -6.70220098e-03  5.44774756e-02  3.60747310e-03  5.94503060e-02
   1.33316144e-02  1.69107486e-02 -4.20834869e-02 -6.23739623e-02
  -5.76842353e-02  4.54076603e-02  3.73603180e-02 -7.52062025e-03
   5.86934127e-02  1.36449980e-02 -6.63311779e-02  1.05329752e-02
   1.89635309e-03 -5.85219488e-02  7.28908703e-02 -4.02018130e-02
  -4.78788465e-02  4.58440930e-03 -2.39604060e-03 -4.97120544e-02
   4.33491506e-02 -8.74048856e-04 -3.19643021e-02  6.04643784e-02
   5.45019209e-02 -5.12469411e-02  3.14541720e-02 -6.72806054e-02
   4.82911281e-02  4.52010557e-02 -2.79936474e-02  2.64352411e-02
   8.11023340e-02  7.12046698e-02  6.01171399e-04  3.79571542e-02
   2.94138156e-02  7.33211115e-02 -5.17481565e-03 -2.26646662e-04
   2.99052522e-02 -6.77801892e-02  2.32143328e-02 -2.12025717e-02
  -1.76956318e-03 -4.12333682e-02  1.28215998e-02  1.96393225e-02
   6.57706037e-02  3.30410972e-02  3.20255794e-02 -4.21524942e-02
  -4.57898825e-02  4.58029583e-02 -2.05016341e-02 -2.50447243e-02
   5.09334654e-02  7.76598901e-02  7.73916626e-03  9.06782597e-03
  -5.32867014e-02 -7.60284532e-03 -3.90663259e-02 -3.80903110e-02
   4.12592292e-03  3.38600464e-02  5.72261587e-02  3.60998288e-02
  -3.67946997e-02 -3.79982702e-02 -7.14733526e-02  5.44911586e-02
  -1.36377141e-02  5.55916131e-03  2.24313582e-03  7.97846988e-02
  -3.61128040e-02 -7.14569464e-02  1.98364444e-03 -2.26561651e-02
  -4.95245159e-02 -3.61089557e-02  2.22204626e-03 -2.26869937e-02
   3.85645702e-02 -7.65635148e-02  7.46829808e-03 -2.92288326e-02
  -2.53668204e-02 -7.32790232e-02 -4.19027172e-02 -4.93141748e-02
  -8.24391842e-02  5.03808334e-02  3.09356898e-02 -4.73301113e-03
   4.90798652e-02  5.87235391e-02  3.14827114e-02  2.97803190e-02
   1.80161688e-02 -6.41280832e-03  5.93451411e-02 -7.37766027e-02
   2.49096826e-02 -7.23493695e-02 -3.85153517e-02 -3.33269429e-03]
 [-2.42577232e-02  5.62505387e-02  6.31330535e-02  6.27276972e-02
   4.16640043e-02 -6.11573122e-02 -3.54265620e-04  8.46407004e-03
   3.76206115e-02  7.51267299e-02 -4.28926572e-02 -1.08173024e-02
  -3.27422507e-02 -3.34216878e-02  5.38560301e-02 -5.86690716e-02
   8.63597542e-02  2.50317827e-02 -6.76522255e-02 -6.63232356e-02
  -4.36643735e-02 -1.08956277e-01  6.13235459e-02 -5.11431992e-02
  -1.81034133e-02 -7.89033026e-02  7.89911300e-03  7.19578937e-02
   4.49957214e-02  1.03087537e-01  6.01383932e-02 -7.43477792e-02
   1.40608265e-03 -2.87301298e-02 -9.48454142e-02 -4.91765998e-02
  -2.60060690e-02 -3.14511615e-03 -9.72965360e-03  5.09576835e-02
  -1.41552454e-02  4.84074019e-02 -3.10978536e-02 -2.01144405e-02
   1.48595665e-02 -6.41136989e-02 -1.92622710e-02  4.28780690e-02
  -5.16979173e-02 -2.31127441e-03 -3.59881558e-02 -5.81259206e-02
  -4.99241054e-03  2.16669217e-02  1.03878364e-01 -6.44496009e-02
   5.10788560e-02  8.93622860e-02  2.88814139e-02 -1.12092718e-02
  -4.96605411e-02  3.46006416e-02  1.99505761e-02 -3.51701155e-02
   5.98351248e-02  9.19955969e-02 -6.65793866e-02 -2.17962060e-02
   5.72963804e-02 -4.19524089e-02 -3.33384648e-02  9.14968327e-02
   3.43829691e-02  6.93069398e-03 -2.72965501e-03  8.05397406e-02
  -5.02749197e-02 -2.51089758e-03  2.57469565e-02  3.34908739e-02
  -5.47530130e-03 -1.54655324e-02 -4.27991785e-02  3.93334962e-02
   8.11008289e-02  9.97034386e-02  1.61349941e-02 -2.87273396e-02
  -1.03330322e-01 -4.78497595e-02 -3.99307460e-02 -5.99386021e-02
   7.55639002e-02 -1.88608002e-02  6.34454712e-02 -5.16546480e-02
  -1.10305101e-02  5.85442334e-02  6.08092472e-02  6.55372217e-02
   2.48307046e-02  3.91664356e-02  2.58908719e-02  6.41177520e-02
   8.45598951e-02  6.99040070e-02  2.18518376e-02  5.48239350e-02
   6.18799105e-02  7.13408515e-02 -7.90046677e-02 -1.72309503e-02
  -4.09235172e-02  1.88987721e-02 -1.47851780e-02 -9.19843442e-04
  -4.70520779e-02 -3.61763574e-02  5.14691100e-02 -6.13272656e-03
   3.30383070e-02 -2.36965455e-02  6.58285320e-02 -5.27636856e-02
  -1.46673620e-03 -1.45104919e-02  8.10134187e-02  6.91144094e-02]
 [-1.30575046e-01 -8.26944858e-02  4.69029173e-02  7.45357797e-02
   1.17569014e-01 -1.71266124e-01  8.03728923e-02  8.96440744e-02
   4.33245003e-02 -5.61080910e-02  1.14152431e-01  4.67015766e-02
  -3.55885029e-02  1.21525675e-03 -1.73587114e-01 -8.43093842e-02
   7.72823244e-02  7.93724284e-02 -2.00870216e-01 -1.71967968e-02
  -2.68595088e-02 -1.60785258e-01  2.60012932e-02 -2.21210234e-02
  -1.03428423e-01 -1.54368341e-01  6.60122111e-02  1.04290769e-01
   9.31710973e-02  1.79920912e-01 -1.46121904e-01  7.00608566e-02
   5.08819222e-02 -1.05394691e-01 -1.32386148e-01 -9.18132216e-02
  -3.41330469e-03 -8.23663920e-02  4.57303822e-02  6.13586530e-02
   1.74168482e-01  1.14906043e-01 -3.64708565e-02  5.64678684e-02
  -1.65331468e-01 -6.50809556e-02  8.20610002e-02 -6.25675023e-02
   6.16885014e-02  2.45802224e-01 -2.22791746e-01 -1.69699434e-02
   4.65979613e-02 -2.06366926e-03 -4.69456613e-02 -8.16159474e-04
  -4.57051769e-02 -2.41902471e-03 -1.59234658e-01 -2.03284025e-02
   1.12614632e-02  1.61402777e-01  1.90863565e-01  1.74750447e-01
   1.88505109e-02 -2.82649212e-02 -6.37950376e-02  7.29651228e-02
   2.43046302e-02  5.47091067e-02  1.42072305e-01  9.61746797e-02
  -4.75761369e-02  6.94643781e-02 -1.04593553e-01  2.89052930e-02
  -9.36121866e-02 -5.10964263e-03  1.29456356e-01  1.59170866e-01
  -1.22978836e-01 -5.15284576e-02  1.49407908e-02 -7.55227134e-02
  -9.32221860e-03  2.79549938e-02  1.94185972e-01  7.84616396e-02
  -1.52173221e-01 -2.11799443e-02 -9.24370438e-03 -3.98782454e-02
   3.66345234e-02 -1.74106851e-01  2.40791366e-01 -4.25700173e-02
   2.52195913e-02 -6.30334392e-02 -3.92464139e-02  1.51147991e-01
   4.26217504e-02 -2.44043004e-02  2.79778726e-02  1.08711645e-01
   8.03454518e-02 -1.33289278e-01  9.14231688e-03  7.54806250e-02
  -1.08487256e-01  1.47664770e-02 -3.56035605e-02 -3.47812586e-02
  -1.95722684e-01  1.24889351e-01 -5.01581356e-02 -2.01290488e-01
   8.37437138e-02 -5.83782867e-02 -2.88975872e-02 -4.00871448e-02
  -2.45432146e-02  2.01153815e-01 -1.70953780e-01 -5.67509569e-02
   5.20478413e-02 -1.27420530e-01  2.19864279e-01  1.56043634e-01]
 [-5.02613336e-02 -7.86768273e-02 -4.24738973e-03 -1.08141480e-02
   2.13393971e-01 -7.56883994e-02 -6.41757203e-03  1.32961422e-01
   2.95979101e-02  3.69841978e-02  8.73537511e-02 -9.15575549e-02
  -6.84840232e-02 -6.94602504e-02 -2.61851493e-02 -1.41658988e-02
   1.33929685e-01  1.06003851e-01 -5.29171415e-02  6.48759529e-02
  -2.90296637e-02 -1.45663247e-01 -5.52643053e-02  7.66237900e-02
  -1.45312414e-01 -1.40462801e-01  6.90284967e-02  6.64647818e-02
   7.34807774e-02  1.82147667e-01 -1.23063117e-01  1.67299863e-02
   1.50621787e-01 -1.45506054e-01 -4.60613370e-02  1.28547736e-02
  -6.68628216e-02 -7.74611831e-02  8.84166658e-02  7.27832094e-02
   1.77537397e-01  8.79605636e-02 -3.35869417e-02  1.04719572e-01
  -9.61156115e-02 -2.12981831e-02  3.53184827e-02 -3.14054638e-03
   7.27226287e-02  1.43444836e-01 -2.04587489e-01 -1.06236469e-02
  -1.34991199e-01  1.93791685e-03  4.00631018e-02  7.22981896e-03
  -1.71644613e-02 -5.65193780e-03 -1.57639906e-01 -1.46858692e-02
   3.55882570e-02  1.54339403e-01  1.08928114e-01  1.23663977e-01
   2.26627346e-02  5.92675731e-02 -4.20189090e-02  1.08129689e-02
  -2.83643082e-02  1.30884871e-01  8.82808492e-02  1.57866910e-01
  -3.50781642e-02  5.40903434e-02 -7.62922540e-02  7.03442693e-02
  -1.00451067e-01  1.00974575e-01  7.74075165e-02  1.95278719e-01
  -1.50849193e-01  5.21807075e-02  7.89165869e-02 -1.08824454e-01
   6.97676018e-02  5.34752347e-02  4.43426669e-02 -1.09749585e-02
  -1.90001905e-01 -3.33794877e-02  1.46925077e-02 -1.52663171e-01
   3.74591835e-02 -1.53504103e-01  2.44360417e-01  4.33922559e-03
  -2.93124635e-02 -8.64338279e-02  2.40304507e-03  1.13776892e-01
   1.65510312e-01  5.31929806e-02  3.68645452e-02  1.25831798e-01
   7.26271123e-02 -1.05252832e-01 -8.47148430e-03  1.08847857e-01
  -1.46915566e-03  5.50027490e-02 -6.51347265e-02 -9.27467868e-02
  -1.48709998e-01  1.61287293e-01  8.83816853e-02 -8.24177638e-02
  -1.30469222e-02  2.27727462e-02  5.31164035e-02  2.03498509e-02
  -1.18900023e-01  1.84744075e-01 -1.46536306e-01 -1.38919711e-01
   9.21499263e-03 -2.07971912e-02  2.27591634e-01  1.57080814e-01]
 [ 1.43821329e-01 -6.48348108e-02 -8.03116113e-02 -7.66860545e-02
   3.38466763e-02 -3.85766588e-02 -9.97766387e-03  1.67826667e-01
   1.00185210e-02  2.80541666e-02  5.64778829e-03 -6.44786283e-02
  -7.56798163e-02  3.53354812e-02 -4.31559384e-02  4.95329089e-02
   1.61972642e-01  1.23431021e-02 -8.29052925e-02 -7.20471963e-02
   3.03065050e-02 -1.27441391e-01  7.19535202e-02 -4.86241020e-02
  -1.20746698e-02 -1.52997330e-01 -6.66109249e-02  3.15283537e-02
   1.34748802e-01  1.12511732e-01 -9.37072188e-02  2.71398313e-02
   5.77504039e-02 -1.14690609e-01 -4.52071764e-02 -1.19547859e-01
   5.56917861e-03 -9.65824053e-02  9.16008279e-02  1.06604554e-01
   1.10364147e-01  8.62211660e-02  1.55740406e-03  4.36744988e-02
  -9.29705873e-02 -4.76141199e-02  9.25615802e-02  2.23029833e-02
   6.56646788e-02  7.42473081e-02 -1.49865299e-01 -4.59879488e-02
  -2.05767993e-03  3.32955783e-03 -2.25347038e-02  1.86199713e-02
   7.56850559e-03  1.17291309e-01 -1.61330894e-01 -7.43007846e-03
   2.95203030e-02  6.70045987e-02  6.01701736e-02 -3.13917398e-02
  -8.18016827e-02  1.57207139e-02 -2.91206017e-02  4.69923159e-03
  -2.67993333e-03  6.55929744e-02  9.16187912e-02  4.81980629e-02
  -1.13929026e-01  6.90411776e-03 -4.48969267e-02  6.13332391e-02
  -8.57642014e-03 -2.73476336e-02  2.24040989e-02  5.56379780e-02
   2.37943139e-02 -4.60104235e-02  6.91233650e-02  4.75427648e-03
  -6.06675446e-03  2.07526796e-02  3.74535918e-02  1.29646296e-02
  -6.11784533e-02  7.44819120e-02 -5.49137332e-02 -4.83047999e-02
  -6.69057891e-02 -4.78518419e-02  1.25855610e-01  6.38871118e-02
  -3.55532044e-03 -5.67292273e-02 -2.62000915e-02  3.93007360e-02
   1.12051882e-01  3.31083573e-02 -8.95397086e-03  2.10365299e-02
   2.89436765e-02 -8.73114318e-02 -5.04944846e-02  7.19515458e-02
   2.67632259e-03  9.32786497e-04  2.01047835e-04 -6.60282075e-02
  -1.11096501e-01 -6.23215362e-02  3.85403149e-02 -1.33047178e-01
  -4.03776467e-02  7.05684125e-02  3.56287858e-03  1.70414783e-02
   6.06725514e-02  1.36296540e-01 -1.90318022e-02 -4.00436744e-02
  -3.73247229e-02 -9.60995443e-03  1.75561786e-01  1.01228893e-01]
 [ 1.05669154e-02 -5.97210415e-03 -3.36201377e-02  3.56021561e-02
   1.50532752e-01 -5.43226898e-02  1.73039958e-02  1.69724599e-01
  -4.17863913e-02  1.77575592e-02 -3.81903686e-02 -1.12476656e-02
  -9.42456052e-02 -5.53765893e-03 -3.75143774e-02 -3.43900993e-02
   1.40811340e-03  4.86405827e-02 -8.65376666e-02 -3.87535281e-02
   6.43891143e-03 -8.92954841e-02  7.78067484e-02  5.87197430e-02
  -8.06568004e-03 -1.79105550e-01 -1.67514496e-02  9.48719159e-02
   2.62072738e-02  1.21751703e-01  1.15934284e-02  2.98487779e-04
   4.43409383e-02 -1.10303350e-01 -6.15742877e-02 -7.62754306e-02
  -8.11876282e-02 -7.92936906e-02  1.49736628e-01  3.21392231e-02
   7.56804505e-03  9.47107002e-02 -1.11594856e-01  1.09840281e-01
  -1.09321833e-01 -5.45685589e-02  9.16217715e-02  3.26454802e-03
   7.74709284e-02  7.82855153e-02  5.57438750e-03 -7.35778883e-02
  -6.44705221e-02 -2.42770314e-02 -1.56764090e-02 -8.48949030e-02
  -1.00775156e-02 -2.90272757e-02 -1.19025394e-01  2.64010951e-02
  -2.26229038e-02 -2.65891273e-02  8.06041881e-02 -6.54351413e-02
  -7.95706920e-03 -9.91829187e-02 -6.56058416e-02  3.94937322e-02
  -4.52844892e-03  7.57599343e-03 -7.23834662e-03 -1.00646829e-02
  -1.68078169e-02  7.73099065e-03  8.05575028e-02 -4.71980013e-02
   1.86723415e-02 -5.19525185e-02  8.31914097e-02 -3.09624076e-02
  -8.19563195e-02 -9.12968814e-02  7.07727000e-02 -5.96460961e-02
   6.73069581e-02 -2.20007151e-02  6.18856885e-02 -6.16299994e-02
   4.40125577e-02 -6.24708049e-02 -8.98617804e-02 -3.52148674e-02
   2.45066620e-02 -9.19206515e-02  1.22885428e-01 -2.09339038e-02
  -9.02649239e-02  1.95230916e-02 -1.65537745e-02  6.74950471e-03
  -6.08300231e-02  6.71477765e-02 -7.05973059e-02 -7.19752759e-02
   4.74603586e-02  3.58135216e-02  1.92903783e-02  1.30792052e-01
  -6.98681315e-03  2.95850597e-02  2.44809706e-02 -9.35552791e-02
   2.63191350e-02 -4.38453332e-02  8.60006362e-02 -6.55928859e-03
   4.06875722e-02  1.66899934e-02  3.48644704e-02 -4.86999154e-02
   5.59796579e-02  4.88414839e-02 -1.18001271e-02 -1.01712301e-01
   4.83179279e-03 -3.84734245e-03  9.77427959e-02  1.16670258e-01]
 [ 7.32147321e-02 -1.73705649e-02  8.99296999e-03 -2.00803131e-02
   2.57068723e-01 -1.43282905e-01 -6.38537183e-02  6.29443377e-02
   5.90419024e-03  1.07805291e-02  1.44329906e-01 -2.10907102e-01
  -1.02389045e-01  1.62315220e-02 -3.29004712e-02  9.91245285e-02
   5.88099360e-02  1.73079818e-02  5.77653460e-02  5.66254184e-02
   2.40663551e-02 -4.61775810e-02  1.17169442e-02  1.49448261e-01
  -1.35688439e-01 -1.30175903e-01  2.13909447e-02  1.20997310e-01
   2.75585558e-02  2.32643589e-01 -8.04421976e-02 -5.72906286e-02
   1.23428851e-01 -1.17842823e-01 -1.31732419e-01 -4.98437546e-02
   5.54643199e-02 -2.63727028e-02  1.19832335e-02  4.38004881e-02
   1.73737392e-01  2.79996190e-02  1.68800708e-02  7.36942664e-02
  -1.70910612e-01  2.22150888e-03  8.05103034e-02  5.02600987e-03
  -8.50372314e-02 -8.22381079e-02 -1.59266647e-02 -7.06526975e-04
  -1.10512398e-01  1.18231392e-02  3.50300409e-02 -2.93647461e-02
  -1.16536170e-01  8.41235667e-02 -1.53449029e-01 -5.83576262e-02
  -4.71068472e-02  8.64249319e-02  3.71785797e-02 -1.85626864e-01
  -1.56908501e-02 -2.74941027e-01  1.66508760e-02 -5.20985425e-02
   4.02014889e-02  1.56177372e-01  3.34694088e-02 -8.52227062e-02
  -1.16029359e-01 -6.77413866e-02  9.85945761e-02 -1.62481738e-03
   3.51923145e-02  6.23566583e-02  1.86349601e-01  1.00593371e-02
  -1.04640694e-02 -1.15475636e-02 -6.77787885e-02 -9.14206635e-03
  -9.99524165e-03  1.46576613e-01  1.85086474e-01  2.02559114e-01
   1.10940486e-02  3.14536020e-02 -8.18213224e-02  4.15933393e-02
  -3.51339839e-02 -1.52416810e-01  2.18171448e-01  6.88966736e-02
  -2.02228040e-01 -2.86996122e-02 -1.64034665e-02  8.05675760e-02
  -1.02878422e-01 -4.74350750e-02  4.40390781e-02  3.02305352e-02
  -3.97286080e-02  8.30953121e-02 -1.69708252e-01  1.33492708e-01
   2.01363675e-02 -8.74725655e-02  5.71380071e-02  3.04802340e-02
   3.63947861e-02  1.79364718e-02 -8.28039553e-03 -1.49265334e-01
   2.02849917e-02 -6.36413395e-02  4.94274274e-02  2.65145898e-02
   4.38641757e-02  2.14390829e-01  1.46374032e-01 -8.65257625e-03
  -1.34067446e-01 -2.43221559e-02  1.50575519e-01  1.80255286e-02]
 [-6.85024038e-02  4.09478322e-03  1.27961710e-02 -1.69984698e-01
   2.81821817e-01 -1.57274425e-01 -3.12836096e-02  2.34794721e-01
   1.18829779e-01  8.96090362e-03  3.75026837e-02 -1.16703421e-01
  -6.66378438e-02  3.83031368e-02  7.58683775e-03 -1.16412509e-02
   1.37891218e-01 -3.89385549e-03  2.52473634e-02  6.02829084e-02
   2.71766968e-02 -1.39125898e-01 -7.94833601e-02  1.76349506e-01
  -1.62369430e-01 -6.03901707e-02 -4.44921069e-02  2.69836843e-01
   9.51787084e-02  1.05475597e-01 -3.17108370e-02 -1.27240447e-02
   2.33281881e-01  1.20478077e-02 -7.50947967e-02  8.51945877e-02
   1.48064882e-01 -8.45177695e-02 -5.42250387e-02  1.81893930e-01
   2.05491453e-01 -4.99304645e-02 -5.72393462e-02 -1.71971656e-02
  -1.37372226e-01  7.51040503e-02  5.50751202e-02 -2.16359738e-02
  -8.03251192e-02 -5.22741415e-02 -1.80060361e-02  6.53247014e-02
  -2.38000974e-01 -7.60500133e-02  2.14566082e-01 -4.39099520e-02
  -2.21663743e-01  2.47490361e-01 -1.95304900e-01 -3.63526531e-02
   2.86364723e-02  5.27492464e-02  2.31631726e-01  1.84869006e-01
   2.64761951e-02  9.78147686e-02 -9.82182845e-02  7.04985633e-02
   1.18962057e-01  1.81922033e-01  1.30820602e-01 -1.77128650e-02
  -4.02345359e-02  7.06791505e-02  9.36099738e-02  6.93073720e-02
   8.11905134e-03  8.75824392e-02  1.80513993e-01  1.03380270e-01
   2.65485682e-02 -6.25792146e-03 -2.24310532e-02 -5.51765785e-02
  -3.53951342e-02  6.49788976e-02  1.98622420e-01  1.86336130e-01
   2.16347873e-02  2.80711651e-02  4.12967205e-02 -9.32666212e-02
  -5.00690155e-02  1.72946543e-01  1.74173757e-01  4.52563241e-02
   1.39320984e-01 -7.46730641e-02 -2.15569753e-02  2.68434793e-01
  -8.56432691e-02 -1.00855663e-01  1.19094141e-01  1.15075439e-01
   3.88079658e-02  4.58940528e-02 -2.53938377e-01  5.77662252e-02
  -8.89135599e-02 -1.29886061e-01 -1.14691280e-01 -7.14869201e-02
   2.95891743e-02 -9.29976813e-03  1.19920038e-02 -1.32796153e-01
  -8.49218518e-02 -1.25548005e-01 -3.97915319e-02 -6.73021525e-02
  -1.19590223e-01  2.51503885e-01 -7.88297206e-02 -3.72868888e-02
  -1.18238963e-01 -2.16217786e-01  6.44661710e-02  4.72907387e-02]
 [-1.24215096e-01 -5.17303348e-02 -3.14201340e-02 -9.99132097e-02
   2.98677713e-01 -1.46877483e-01 -6.07428439e-02  3.24232221e-01
  -6.28687814e-02 -4.58808355e-02  1.67667136e-01 -5.99030629e-02
  -1.38145611e-01  2.66610533e-02 -3.68225947e-02 -1.19677037e-01
   5.45472428e-02  8.59649759e-03 -1.01193383e-01 -6.64261505e-02
   8.19906518e-02 -6.48820773e-02 -2.26729698e-02  1.82954535e-01
  -9.26385522e-02 -4.84329313e-02 -6.59123883e-02  1.73740312e-01
   2.72333682e-01  1.99783012e-01  1.08041577e-02 -5.88085204e-02
   3.09338838e-01 -1.27481192e-01  6.89009158e-03  1.89586118e-01
   9.20827836e-02 -2.78236158e-03 -9.26648453e-02  2.14923322e-01
   2.47223243e-01  1.34494871e-01 -8.75774026e-02  2.03870870e-02
  -2.89885283e-01  1.07123032e-01  8.81698281e-02  1.26883790e-01
   1.84085425e-02 -1.06824399e-03  1.57177951e-02  5.25930040e-02
  -2.17692345e-01  2.24886388e-02  2.13179544e-01 -1.13409638e-01
  -1.37837812e-01  1.97045252e-01 -1.42419621e-01 -2.20344514e-02
   1.00757508e-02 -2.26702280e-02  2.31000558e-01  2.11453408e-01
   1.82600066e-01  7.66426697e-02 -7.54682869e-02 -1.06579065e-01
  -7.93929503e-04  2.58918285e-01  1.04235120e-01 -2.01960467e-02
  -1.36518866e-01  2.42043734e-02  7.82885402e-02  7.82871097e-02
   5.38080968e-02  9.29116756e-02  4.77194600e-02  5.66844754e-02
   6.41542599e-02  3.08800489e-02  7.97725692e-02 -2.49850564e-02
   4.37234156e-02  2.66098324e-02  1.88282013e-01  1.38242424e-01
  -1.84195843e-02  5.40695637e-02  5.43203279e-02 -1.32855475e-01
   3.46527286e-02  6.62169978e-02  3.46940607e-01 -1.96112022e-02
   5.03561608e-02 -1.81846201e-01 -6.21932745e-02  1.78691447e-01
  -7.00222626e-02 -1.43180147e-01  2.35475153e-01  6.99301437e-02
   3.27872895e-02  5.58273075e-03 -5.21262027e-02  5.92536964e-02
  -8.01504776e-03 -1.91822290e-01 -9.19223428e-02 -4.33331616e-02
  -7.98724890e-02  2.34797329e-01  8.78421240e-04 -7.31516704e-02
  -4.15656082e-02 -3.78104001e-02  3.33241448e-02 -1.98297817e-02
  -1.53024435e-01  1.25654191e-01 -4.07351069e-02 -1.71983674e-01
  -2.58061290e-01 -2.27496311e-01  1.59914091e-01  1.10930592e-01]
 [-4.72177640e-02 -1.74407497e-01 -3.69843096e-02 -1.24223828e-01
   5.52459419e-01 -2.13302225e-01 -4.82153706e-02  8.77482444e-02
   1.20384984e-01  3.55063155e-02  1.56543642e-01 -1.58094049e-01
  -1.34204924e-01 -1.30953193e-02  1.61669344e-01 -1.52427554e-01
   1.07895814e-01  2.67358780e-01 -9.30663347e-02 -5.89719713e-02
   1.26221195e-01 -1.06538497e-01 -2.58328468e-01  9.94774476e-02
  -8.91589224e-02  2.11732220e-02 -2.39919946e-01  5.77811897e-02
   2.63652891e-01  1.81245301e-02 -3.86558101e-02  4.59138416e-02
   4.21355397e-01 -1.25051931e-01 -6.46550814e-03  4.78546731e-02
   1.18967265e-01 -7.76235536e-02 -4.09248518e-03 -1.84228662e-02
   4.61752564e-01  2.48784781e-01 -7.30032772e-02 -7.58843720e-02
  -2.02848986e-02  7.36152530e-02 -1.55613022e-02  2.20904455e-01
  -1.24173716e-01  2.91493591e-02 -1.29113957e-01 -2.62956083e-01
  -1.29979506e-01  7.57379681e-02  3.52428108e-02 -1.18714683e-01
  -3.69933039e-01 -3.48723754e-02 -1.01247773e-01 -6.45025820e-02
   1.83516163e-02 -8.07890594e-02  1.96299106e-01  2.33918667e-01
   2.52286553e-01 -9.83140841e-02 -9.61900651e-02  2.27287188e-02
  -2.20323317e-02  3.46355528e-01  2.22705096e-01  1.15360998e-01
  -8.82844776e-02 -7.77471364e-02  2.65036166e-01  3.09962034e-01
  -1.35553747e-01 -3.80357876e-02 -2.34212223e-02  3.28267187e-01
   1.47775516e-01  6.03458174e-02  4.48415652e-02  5.18884920e-02
  -9.21226144e-02  2.85863817e-01  2.44779401e-02  1.30351812e-01
  -6.48576841e-02 -2.03021672e-02 -5.00759203e-03 -2.82515455e-02
   3.61252464e-02 -1.13531351e-02  2.04152107e-01  7.33685419e-02
   4.10366133e-02  4.98457141e-02 -1.64159730e-01  3.33533809e-03
  -1.77972093e-02 -4.27980661e-01  5.01169227e-02  4.07861406e-03
  -4.61717248e-02  2.54609108e-01 -2.08288923e-01  5.66528551e-02
   1.68432053e-02  1.18250251e-01 -1.23579852e-01 -1.17426336e-01
  -7.19958022e-02  2.96458870e-01  1.61104035e-02 -2.04312772e-01
   2.66959169e-03 -3.58417518e-02  1.61116738e-02  4.02434207e-02
  -1.87153906e-01  1.14772066e-01 -5.89838140e-02 -1.03474975e-01
  -1.40096024e-01 -2.91545510e-01  2.51109928e-01  1.10235304e-01]
 [-7.49858171e-02  6.53964132e-02 -9.97861661e-03 -1.31084561e-01
   4.38874781e-01  1.06967822e-01 -1.54886439e-01 -1.71164811e-01
   2.68693030e-01  2.72981226e-02  3.33897993e-02  4.01586555e-02
   9.96848047e-02  8.08665380e-02 -7.53117576e-02 -3.25755700e-02
  -6.80012703e-02  2.41655886e-01  1.69928715e-01  1.78765729e-02
   4.63212430e-02 -1.05245471e-01 -1.61797211e-01 -1.37022004e-01
  -9.40998867e-02  1.79478556e-01  8.52379054e-02 -9.39537585e-02
  -1.46432295e-01 -1.42007947e-01  5.68378437e-03 -7.49514299e-03
  -9.58719999e-02 -2.21225023e-01 -1.63094699e-01 -1.41306505e-01
   3.76284420e-02 -8.05845186e-02 -2.48027638e-01  1.38114691e-01
   1.67886212e-01 -3.20408791e-02  1.65978864e-01 -2.83412755e-01
  -3.53759062e-03  7.84191266e-02 -1.72343459e-02  3.62571061e-01
  -1.06738240e-01 -1.10832252e-01 -1.26149759e-01 -8.93106759e-02
   1.55975178e-01  1.43153682e-01  3.77183594e-02  3.11099496e-02
  -3.47603291e-01 -1.72710925e-01  7.88082033e-02  1.63588859e-02
   1.82445630e-01  6.10533124e-03 -2.70332936e-02  2.11654887e-01
   6.45234510e-02  3.09972346e-01 -8.27604160e-02  2.79718995e-01
  -8.47655907e-02  2.23952308e-01 -1.10480160e-01 -2.20462188e-01
  -1.11399002e-01 -3.74739617e-03  2.38155439e-01  1.81479126e-01
  -4.42460887e-02  8.84916633e-02 -2.02117622e-01  8.55489969e-02
   5.55471182e-02  5.71489409e-02 -4.84047122e-02  2.30331689e-01
  -1.16464220e-01  4.02009606e-01 -2.08233163e-01  6.53447509e-02
   2.56605390e-02  1.53811201e-01  7.11853965e-04 -1.26023535e-02
  -8.30888841e-03 -1.93668842e-01 -3.88471805e-03 -7.22063705e-02
   1.63210139e-01  3.60620230e-01  3.45084630e-02  2.19447147e-02
   6.02561273e-02 -2.96490431e-01 -8.55667219e-02 -1.23071790e-01
  -7.22413138e-02  1.46382570e-01  2.63213307e-01  1.90816507e-01
  -1.99211568e-01  1.65272459e-01 -6.94099441e-02 -1.56587169e-01
  -1.84138373e-01  1.92754090e-01  2.43321627e-01 -2.30022281e-01
   8.37542564e-02  9.18824747e-02 -1.68679714e-01 -5.30151203e-02
  -6.61189333e-02 -2.67799765e-01  2.07333893e-01 -1.10210702e-01
   1.53966546e-01 -2.38012806e-01 -6.44284859e-02 -1.49717197e-01]
 [-5.04168961e-03  8.34204629e-02 -4.31435136e-03 -3.09258550e-02
   5.36124170e-01 -3.67319554e-01  4.88075279e-02 -7.35558495e-02
   1.18100733e-01  1.55181676e-01  2.59508282e-01 -1.04264013e-01
  -1.27639577e-01  7.06134960e-02 -2.48517230e-01 -1.77007288e-01
   3.34906243e-02 -1.65204123e-01 -2.60188878e-01 -3.45148146e-03
   2.70429626e-02 -2.43017972e-01  2.59101778e-01 -2.23870173e-01
   1.57299787e-01 -5.93216419e-01  1.01008549e-01 -1.41856018e-02
  -1.61264129e-02  1.53082367e-02 -3.37343693e-01  8.17754641e-02
   1.45727351e-01 -2.24466056e-01 -1.59381777e-01  9.06362608e-02
  -9.90226027e-03 -2.28540786e-02 -2.82152355e-01  1.50499985e-01
   3.10283750e-01  2.76286947e-03  1.59436777e-01 -8.52271914e-02
  -1.21640459e-01  2.31983453e-01  6.11801893e-02  2.28925154e-01
  -3.99601422e-02 -1.07801750e-01 -1.15890563e-01 -9.68547016e-02
   1.36019304e-01  1.43841371e-01  1.50809065e-01 -1.33531287e-01
  -2.17779860e-01  7.58740352e-03 -3.08379829e-01  2.47656200e-02
   9.99379382e-02  2.44870186e-01  4.86378334e-02  1.39847085e-01
  -7.50472546e-02  3.80986065e-01 -7.45472312e-03  1.12888128e-01
  -1.41024515e-01  1.05081089e-01  3.21961641e-01 -2.17072859e-01
  -1.70726895e-01  7.14413896e-02 -1.21075928e-01  9.63606909e-02
  -1.68236285e-01  1.93406150e-01 -1.07081048e-01  4.63258550e-02
  -4.07240726e-02 -2.11344123e-01  1.50743946e-02  1.64454550e-01
  -1.49910107e-01  2.58120537e-01 -1.45234223e-02 -1.08530903e-02
  -1.57938585e-01  2.45185122e-01  4.28368710e-02 -5.89248054e-02
  -3.54085118e-02  1.70806512e-01  5.38609326e-01 -2.56247558e-02
   3.05060834e-01  2.04131424e-01 -4.89686336e-03  2.90347487e-01
  -1.58140343e-02 -2.96198875e-01  2.14813501e-01  1.76388696e-01
  -5.04589221e-03 -1.92587554e-01  1.61894798e-01  3.08920085e-01
  -2.45049730e-01  1.37316659e-01 -1.34995848e-01 -9.72227082e-02
  -3.87402892e-01  4.53664213e-01  3.13210279e-01 -2.43943572e-01
   8.77185091e-02  3.11663374e-02 -3.50970656e-01 -3.94077078e-02
  -5.52011542e-02 -9.02561098e-02 -2.20607996e-01  4.05323766e-02
   2.15523526e-01 -2.55322605e-01  1.69579223e-01 -3.04503553e-02]
 [ 2.36141942e-02 -2.22609445e-01 -7.19670504e-02  4.68342118e-02
   4.30971533e-01 -1.40316501e-01 -4.18067239e-02  3.00226837e-01
   1.48457289e-01 -1.09417081e-01  1.00275934e-01 -3.54852110e-01
  -9.71256942e-02  5.81221655e-02  1.93093270e-02 -1.06705707e-02
   3.18329453e-01 -1.58845454e-01 -1.65250391e-01  1.86880529e-02
   2.71739252e-02 -3.04742187e-01  2.36172646e-01  7.94349704e-03
   9.59622636e-02 -4.46871251e-01 -7.54954144e-02  2.03336254e-01
   1.76765025e-01  2.28646904e-01 -2.10580871e-01  9.13318843e-02
   2.84062296e-01 -3.32936525e-01  1.23589620e-01  1.34805992e-01
   1.62091926e-02 -3.15825343e-02 -3.59229967e-02  1.56294703e-01
   1.91141456e-01  4.05013785e-02  5.49995713e-02  1.91162184e-01
   1.30470574e-01  3.78222466e-01  1.05653182e-01 -1.04238838e-01
   1.61307275e-01  1.44221231e-01 -8.67508575e-02 -1.75980598e-01
  -2.36500666e-01  5.69897592e-02  8.65807384e-02 -8.04467201e-02
  -2.37858325e-01  3.31631303e-01 -1.03489719e-01  1.21830776e-01
  -2.27443069e-01  2.71266811e-02  2.11241767e-01  9.65111554e-02
  -7.88942352e-02  1.94968089e-01 -1.66855171e-01 -1.20375104e-01
   2.07856119e-01  3.72487098e-01  2.25335732e-01  1.10619836e-01
  -3.35194357e-02 -2.12927461e-02 -1.25950724e-01  1.38916820e-01
  -1.14240140e-01  2.73424946e-02  2.04551250e-01 -1.23307794e-01
  -1.51294604e-01 -1.32781744e-01 -2.13795751e-02 -2.94113904e-01
  -2.17561319e-01  1.55515924e-01  3.97501409e-01  3.09164882e-01
  -1.47225469e-01  1.24394782e-02 -1.10086709e-01 -1.80445239e-01
  -5.35843298e-02  1.09847777e-01  2.94493049e-01 -2.05893498e-02
   1.79503933e-01 -8.25732574e-02 -8.21120664e-02  2.37791866e-01
  -1.34364935e-02 -1.68105870e-01  7.92510286e-02  4.03822154e-01
   3.46699543e-02 -3.28765422e-01  2.78334133e-02  3.25724870e-01
  -2.18310252e-01 -1.09459169e-01 -1.12264931e-01 -9.74545851e-02
  -8.28760117e-02  3.47781032e-01  2.19572484e-01 -1.35319516e-01
  -4.71882112e-02  8.57382938e-02 -2.78792351e-01 -4.43654805e-02
  -1.09407581e-01  2.60171175e-01 -1.34086430e-01  1.08545862e-01
   3.99354994e-02 -1.26069561e-01 -1.36188057e-03  7.38750100e-02]
 [ 4.10541706e-02 -9.89097655e-02  7.81811848e-02  3.57140824e-02
   3.43816817e-01 -1.98076755e-01 -6.75827637e-02  3.47838283e-01
   7.21839070e-02 -4.00924422e-02  1.30851090e-01 -2.75387973e-01
  -3.85075249e-02 -5.67140877e-02  8.73034149e-02 -6.67982697e-02
   3.86080295e-01 -3.36945131e-02 -1.91693813e-01  2.04261988e-02
  -4.56857169e-03 -2.79336452e-01  1.58315912e-01  1.63901210e-01
   5.31576574e-02 -2.68741429e-01 -5.03255092e-02  1.91057801e-01
   1.67730168e-01  9.70685408e-02 -1.68046400e-01  5.46102412e-02
   4.76614892e-01 -2.52162904e-01  2.13321403e-01  1.64745495e-01
  -7.82978311e-02 -9.44698527e-02  3.35754342e-02  7.59909600e-02
   1.29449442e-01  8.49534348e-02 -1.95093587e-01  2.47563630e-01
   6.68115690e-02  1.47623718e-01  2.18301103e-01 -2.03032479e-01
   2.88107544e-01  2.21542090e-01 -1.04478568e-01 -1.13375604e-01
  -2.37328961e-01 -1.89766958e-01  1.18496738e-01 -1.27404168e-01
  -1.29835665e-01  5.03805578e-01 -2.45285153e-01 -2.17666663e-02
  -2.23244578e-01 -1.55818701e-01  2.87967503e-01  1.13758415e-01
  -4.36563045e-02 -4.99529019e-02 -1.87486365e-01 -1.76211685e-01
   1.31297454e-01  2.27431789e-01  3.49068969e-01  9.11714286e-02
  -8.40900689e-02  4.53335792e-03 -5.61004318e-02  2.44700871e-02
  -1.81678176e-01 -1.38655469e-01  2.98384488e-01  1.40847266e-01
   9.01168119e-03 -3.28175932e-01  4.58305553e-02 -3.06797892e-01
  -1.04876049e-01  1.46560937e-01  3.95439833e-01  3.10637265e-01
  -7.77404308e-02 -2.04551145e-01 -1.16991550e-01 -1.22263208e-01
  -1.36445731e-01  1.49765238e-01  3.48084182e-01 -7.98638910e-02
  -1.20221637e-02 -2.37303656e-02 -1.47561982e-01  2.46875897e-01
   7.18527958e-02 -2.26368949e-01 -7.28409216e-02  3.29991579e-01
  -3.94898020e-02 -2.09662467e-01 -1.65259376e-01  1.83403879e-01
  -6.48049936e-02 -3.60593647e-01 -2.65659541e-01 -1.12058423e-01
  -2.02117473e-01  2.32270271e-01 -5.88674024e-02 -1.44189477e-01
   5.19289784e-02  1.40498742e-01 -3.42102587e-01 -9.22264457e-02
  -5.84093146e-02  5.37221253e-01 -2.01721594e-01  1.13858089e-01
  -1.96652442e-01 -1.12847880e-01  1.38628900e-01  7.97426924e-02]
 [-3.22965644e-02  1.07979989e-02 -2.59411577e-02 -1.62230030e-01
   2.87742019e-01 -3.62894565e-01 -4.31835912e-02  2.66980946e-01
  -7.68509731e-02  3.59731447e-03  1.94324046e-01 -2.46260762e-01
  -1.18511364e-01  1.39013752e-02  5.29896952e-02  1.60614863e-01
   1.56952426e-01  2.00319305e-01 -1.07975714e-01 -5.54385744e-02
  -3.55372429e-02 -1.01512156e-01 -1.28383279e-01 -5.17736562e-02
  -2.48727635e-01 -1.99190140e-01 -1.97601132e-02  1.64739430e-01
   2.06301391e-01  2.47931421e-01 -2.34574810e-01  3.82527173e-03
   4.22141373e-01 -2.01460034e-01 -1.47531480e-01 -1.54337794e-01
  -1.27960056e-01 -8.89922157e-02  2.30335042e-01  7.19684064e-02
   1.49244666e-01  2.16941938e-01 -1.94421247e-01  1.57850813e-02
  -1.64733559e-01 -3.51665244e-02  1.93524599e-01 -4.96381186e-02
  -1.51841342e-02  1.14966072e-01 -1.31282449e-01 -2.43040472e-01
  -1.58990771e-01 -2.42422611e-01  8.73272941e-02 -1.35437369e-01
  -1.17948078e-01  3.32608163e-01 -1.76604137e-01 -5.72653487e-02
  -8.44268203e-02 -1.74724427e-03  2.34501109e-01 -1.12273030e-01
  -3.99966203e-02  2.16221154e-01 -5.83464876e-02  4.03804928e-02
   3.23466770e-02  2.58958369e-01  2.48831406e-01 -1.75375029e-01
  -6.57101274e-02  4.83708307e-02  1.22279517e-01  4.68201078e-02
