baseline/conv2d/kernel:0
(5, 5, 3, 6)
[[[[ 0.11126979  0.2974021  -0.13696963  0.22605897  0.01915228
    -0.11345147]
   [ 0.10865434  0.16742669 -0.17301428  0.00320817 -0.09684511
     0.05952281]
   [ 0.21255168  0.2814351   0.08149236 -0.13698713 -0.17933992
    -0.09407049]]

  [[ 0.00728206  0.15265712 -0.2838723   0.00383635 -0.08235767
     0.01190686]
   [ 0.05050593  0.12546483  0.02582549 -0.04323644 -0.10845232
     0.00856151]
   [ 0.05277903  0.2884937   0.3653482  -0.10486684  0.01349699
     0.14812419]]

  [[-0.07895547  0.11728038 -0.114983   -0.07668535 -0.04985658
    -0.0543071 ]
   [-0.30175766 -0.09985928  0.03500041  0.10971405 -0.03633572
     0.15734749]
   [-0.19828999  0.01555264  0.3696943   0.0747053  -0.0243902
     0.02548551]]

  [[ 0.00624882 -0.11176072  0.02641379  0.16149507 -0.00952878
     0.05170869]
   [-0.0759337  -0.23378375  0.00449874 -0.23573607 -0.15577471
    -0.20018521]
   [-0.22872144 -0.08719179  0.14528352 -0.12399186  0.1838713
    -0.20034392]]

  [[ 0.09433395 -0.22503756 -0.04766246  0.27543858  0.08326553
     0.03578185]
   [ 0.13840063 -0.31463522 -0.00212723  0.12896946  0.09585276
    -0.00377416]
   [-0.02645504 -0.08172867  0.03820538 -0.18825035  0.11956139
     0.12030111]]]


 [[[ 0.06454813  0.1313339  -0.11973172  0.07298293  0.00231614
    -0.08154231]
   [-0.12186562 -0.05531972 -0.02591237 -0.10046601 -0.00627831
    -0.15704553]
   [-0.13038133  0.07241844  0.0798943   0.06852994 -0.05043084
    -0.06853478]]

  [[ 0.2673785  -0.12204923 -0.2608469  -0.0814498  -0.09702483
    -0.04296299]
   [ 0.11591846 -0.297751    0.16333531  0.26039997 -0.34782732
     0.29267612]
   [ 0.24823675 -0.12002672  0.31271663  0.2689977  -0.09288844
     0.21405666]]

  [[ 0.00054957 -0.1604832  -0.04929248 -0.09150327 -0.03601351
     0.11514781]
   [ 0.21874143 -0.27248028  0.09101392  0.0790325   0.04742336
    -0.06278747]
   [ 0.19318648 -0.21146871  0.1378003   0.219887   -0.15118214
     0.07084119]]

  [[-0.18015915 -0.2274987  -0.02073257  0.25101784 -0.05132868
    -0.15922487]
   [-0.08491439 -0.1758753  -0.06310947 -0.20929767 -0.01828966
    -0.25724098]
   [-0.17549588 -0.085209    0.07856742  0.01396089  0.23534699
    -0.23742911]]

  [[-0.09764047  0.09194218  0.052024    0.22310437  0.18899465
     0.21598504]
   [-0.16155852  0.10607529 -0.21630016 -0.07963104  0.05629562
     0.0970315 ]
   [-0.12091558  0.20334037  0.03066478  0.04013541  0.03140851
     0.02048389]]]


 [[[-0.16720735 -0.12821189 -0.10042629 -0.2641812   0.15665355
    -0.10189235]
   [-0.21843295 -0.20442031 -0.02446322 -0.03006571  0.22032489
    -0.04863328]
   [ 0.03398271 -0.19067678  0.14049031 -0.03207084  0.13933599
    -0.11507394]]

  [[ 0.14466095 -0.22898015 -0.01830589 -0.22766894 -0.33314574
     0.23503882]
   [-0.06866299 -0.12156188  0.01497678  0.20572944 -0.36187288
     0.32556117]
   [ 0.02613844 -0.35501292  0.31841606  0.02839906 -0.17994331
     0.14295354]]

  [[ 0.07101648  0.04775487 -0.02144646 -0.13221397 -0.23649289
    -0.10679892]
   [ 0.26679626 -0.19202381 -0.07244232 -0.02002015 -0.12266162
    -0.13756746]
   [ 0.168534   -0.24902858  0.2830047  -0.06564727  0.04379423
    -0.0438059 ]]

  [[ 0.09810073  0.09761987  0.03022323  0.17052372 -0.1263396
    -0.18581983]
   [ 0.09412734  0.0379889   0.06356183 -0.04558659  0.02527867
    -0.00063727]
   [ 0.1414491   0.02043099 -0.09308444 -0.03567141  0.2565579
    -0.27918547]]

  [[-0.18253715  0.0750894  -0.00529649 -0.15074405 -0.00889695
     0.12703475]
   [ 0.06489127  0.10282362 -0.02799122 -0.15413861  0.20802188
     0.19297591]
   [-0.30931157  0.03298407 -0.1636244   0.10684165  0.3661833
     0.04642814]]]


 [[[ 0.0399711  -0.1838687   0.13527733 -0.19206274  0.22351943
     0.12855007]
   [-0.23846452 -0.20983249  0.064367   -0.01868643 -0.03233433
     0.16329014]
   [-0.1388344  -0.0712551  -0.15969823 -0.08612956  0.0760049
     0.19680476]]

  [[-0.00780057  0.05219128  0.12339435 -0.30818775 -0.12076877
    -0.0395074 ]
   [-0.2923231   0.01604737  0.01379375 -0.1893748  -0.2538588
    -0.01242713]
   [-0.1509624   0.05309216  0.01940039  0.0321376  -0.04655876
    -0.11267768]]

  [[ 0.08492266  0.18912742  0.12999684 -0.35339606 -0.26123914
    -0.17490776]
   [ 0.04345039  0.25533807  0.09543249 -0.00596693 -0.28501466
    -0.23853761]
   [ 0.12607312 -0.14384708 -0.1860232  -0.03979321 -0.22009633
    -0.11758444]]

  [[ 0.21086542  0.04786241  0.13347192  0.03285133  0.08253126
    -0.01604351]
   [ 0.13470124  0.17168593 -0.11981666 -0.19531418  0.00307003
     0.12512231]
   [ 0.17912082  0.04958674 -0.07701062 -0.13874218  0.01939356
    -0.07751355]]

  [[ 0.04708284  0.17709398  0.23027033 -0.1497409   0.03477305
     0.12186357]
   [-0.05086144  0.07960854 -0.18564485 -0.14228603  0.13505308
    -0.03566171]
   [ 0.06899124  0.1343411  -0.26885927  0.11115383  0.03097491
     0.10201965]]]


 [[[ 0.10447615 -0.01075723  0.19019054  0.12091564  0.21030447
    -0.03853643]
   [-0.00672261 -0.12950698 -0.01405136  0.22553404  0.2099297
     0.21273454]
   [ 0.14524606  0.08099259 -0.12218484 -0.08056741  0.29305926
     0.00369416]]

  [[-0.16053247  0.07591325  0.26141003  0.18532032 -0.13753133
    -0.1276992 ]
   [-0.21239862  0.07504162 -0.14450967  0.1389309  -0.06900615
    -0.2452086 ]
   [ 0.06836686  0.05127084  0.07898275  0.09491791 -0.03286592
    -0.17534909]]

  [[-0.17846286  0.09903194  0.09491051 -0.0360568  -0.1213959
    -0.01888427]
   [-0.290747    0.2552648   0.00090494  0.12553467 -0.31568983
    -0.1259803 ]
   [ 0.03130182 -0.06164345 -0.03702248  0.20826139 -0.13609813
     0.2015515 ]]

  [[-0.09207171 -0.04365964  0.23288211 -0.00382432 -0.17959097
     0.17447639]
   [ 0.05475318  0.05280972 -0.09742482 -0.04630097 -0.07142314
     0.16095397]
   [-0.00730101  0.14825313 -0.2774679   0.13184984 -0.1156202
     0.05313478]]

  [[ 0.16969898 -0.16890848  0.09072544 -0.09939803 -0.01736877
    -0.02416594]
   [ 0.22719143 -0.00378836 -0.19312304  0.0303484   0.12093566
    -0.24099438]
   [ 0.02184058  0.0877642  -0.26664856  0.18431163  0.15979548
     0.1352965 ]]]]
baseline/conv2d/bias:0
(6,)
[ 0.11121245 -0.03777289  0.08072826  0.02002648 -0.05596343  0.09748771]
baseline/batch_normalization/gamma:0
(6,)
[0.616564   0.8391244  0.64762884 0.8315841  0.758634   0.81444496]
baseline/batch_normalization/beta:0
(6,)
[-0.2577358  -0.62311095 -0.23910446 -0.4146008  -0.40192723 -0.2793811 ]
baseline/dense/kernel:0
(1536, 128)
[[-2.74572074e-02 -6.43152967e-02 -2.21832003e-02 -1.00060545e-01
  -5.39269634e-02 -7.31459334e-02  8.78801662e-03 -3.07003874e-02
   6.07816852e-04 -4.09626542e-03 -4.48396802e-02 -3.09508182e-02
  -3.90175078e-03 -5.68716116e-02  2.72321757e-02 -9.06686019e-03
   2.72098207e-03 -1.75384395e-02  1.12686511e-02  1.71423644e-01
   2.38598697e-02 -4.15792204e-02 -2.59478739e-03  3.23581770e-02
   1.18200306e-03 -1.06120043e-01  6.05823984e-03 -7.36674219e-02
  -4.52341959e-02  3.22420299e-02  6.77316338e-02  5.04431464e-02
  -4.48003709e-02 -5.00443764e-02 -8.43166560e-02 -1.46736708e-02
  -2.89131962e-02 -2.00295374e-02  6.85589910e-02  5.53383417e-02
  -5.63579202e-02  9.53079835e-02 -2.51524970e-02  5.32329418e-02
   2.96119545e-02 -2.30449042e-03 -7.49605820e-02  6.44572377e-02
  -4.94867899e-02  1.12800160e-03  1.24183586e-02  1.96883045e-02
   7.12259710e-02 -5.70184477e-02  9.64729413e-02 -7.42745772e-02
   1.75813735e-02  1.15158213e-02  3.04624368e-03  2.63007358e-02
  -1.73907932e-02  3.02458666e-02 -1.68445818e-02 -5.02784550e-02
  -5.85309900e-02 -8.37977529e-02 -1.19050473e-01  2.60673910e-02
   8.71116668e-02  7.95366615e-03  3.71915405e-03 -7.03951418e-02
   1.13304127e-02  8.88888016e-02  7.57322647e-03 -1.48259453e-03
  -7.43521154e-02  1.25449325e-03 -1.84151903e-03 -2.57688444e-02
  -2.48810388e-02  4.91248220e-02 -1.00549258e-01  1.37477648e-02
  -2.05711951e-03 -4.81578372e-02 -4.72555729e-03 -7.66734406e-02
  -6.02818504e-02 -4.91918027e-02  2.28034407e-02  1.13586280e-02
  -9.84456614e-02  2.73380615e-02  7.63234508e-04 -4.35711071e-02
  -7.21740499e-02 -9.47476458e-03 -6.88740537e-02 -8.43405053e-02
  -1.13388672e-01 -7.42741823e-02  6.39714971e-02  1.13142453e-01
  -2.05769036e-02  6.32910710e-03 -4.94437665e-03 -9.05626938e-02
  -8.42746422e-02  5.64894341e-02  7.85349216e-03 -6.18159138e-02
   4.29838113e-02 -5.93346730e-02  3.39639932e-02 -7.24823400e-03
   1.78319570e-02  7.65076354e-02  2.91452017e-02 -4.76938412e-02
  -8.25447682e-03  2.68605482e-02 -1.05826832e-01 -2.28710640e-02
   3.06261685e-02 -3.30536477e-02 -1.79630890e-02 -9.76390168e-02]
 [-6.02965280e-02 -4.94104959e-02  1.30756218e-02 -1.86561737e-02
   4.47764248e-03  4.49500978e-02 -8.06697831e-02 -2.21950784e-02
   3.79564497e-03 -7.62576684e-02 -4.09495085e-02 -7.31418803e-02
  -1.75125394e-02 -1.80487484e-02  1.55645860e-02  1.16718449e-02
  -2.30551902e-02  1.47518367e-02  1.38492268e-02  2.83567049e-02
  -2.26335339e-02 -2.61531584e-02 -1.98213197e-02  2.05455367e-02
  -4.65306304e-02 -1.29346803e-01 -3.93452048e-02 -8.75085518e-02
  -4.00369149e-03  9.35627264e-04 -7.90979341e-02  8.82540047e-02
  -3.88752273e-03  2.01573670e-02 -2.17103194e-02  3.25102732e-02
  -1.81491245e-02 -1.52188819e-02  1.25530109e-01  1.96053777e-02
  -3.84000354e-02  1.52323209e-02  1.57106780e-02  8.76642987e-02
  -1.87470540e-02 -2.80585513e-02 -5.49689904e-02  4.67391610e-02
  -5.09453416e-02  5.18036038e-02  1.13526061e-02 -3.31547111e-02
   1.50724119e-02 -3.52591090e-02  8.16038474e-02 -1.38287753e-01
   4.76165153e-02 -3.95233091e-03  2.90990658e-02 -6.06589532e-03
   3.03062517e-02  7.05625638e-02 -2.85317153e-02 -4.12051417e-02
  -4.33220156e-02 -7.27984682e-02 -9.45115015e-02  2.41338462e-02
  -1.74440555e-02  3.95254344e-02  1.32898064e-02  1.76158659e-02
  -6.43994659e-02  5.97330295e-02  8.05493891e-02 -2.30052173e-02
  -9.77982506e-02 -3.40860412e-02 -8.10859278e-02 -2.53539695e-03
  -4.42576148e-02 -1.68851074e-02 -2.88642701e-02  3.55209783e-03
  -6.93432195e-03 -2.46966793e-03  5.42254839e-03 -8.75620916e-03
  -1.33510614e-02 -4.04482447e-02  2.51677707e-02  1.14344647e-02
  -2.33036876e-02 -1.26079516e-02 -8.70415848e-03 -7.36609250e-02
  -1.01397552e-01 -7.29063600e-02 -2.48446502e-02 -5.55230491e-02
  -5.81705458e-02  1.63818784e-02  1.46065369e-01  8.82614851e-02
  -2.38215849e-02  3.75009924e-02 -6.67504445e-02  1.37428734e-02
  -1.11294203e-01  3.72064561e-02  1.25676140e-01  2.98519544e-02
   3.77174690e-02 -7.10735917e-02  1.06392587e-02 -1.09276175e-03
   5.44840377e-03 -4.73988988e-02  1.50986644e-03 -3.42212035e-03
  -2.47910693e-02 -9.37381107e-03 -9.87009406e-02 -5.48661575e-02
   5.02163805e-02  1.61279012e-02  1.65148498e-03 -5.99661507e-02]
 [ 5.16740680e-02  3.24279144e-02 -2.37459153e-01 -1.40739847e-02
  -1.00404695e-01  1.03198811e-01  2.33831257e-03 -8.57250616e-02
   2.71085389e-02  2.45601386e-02 -3.11369821e-03  3.02500483e-02
  -1.56093270e-01 -5.03560975e-02 -1.61022134e-03 -3.40003856e-02
  -3.63918394e-02 -1.77722145e-02 -5.07196561e-02  8.09676200e-02
  -5.61252274e-02  6.57573342e-04  1.26707526e-02  5.83029538e-02
  -5.84017672e-02  2.53862023e-01 -5.77087933e-03  5.30215725e-02
  -7.95053318e-02  6.28079474e-02  3.44816525e-03 -2.02899687e-02
  -9.22437459e-02 -6.31823540e-02 -6.00804202e-02  7.18393922e-03
   1.82669640e-01 -2.81322878e-02 -2.64520466e-01  9.85027179e-02
   5.25895804e-02 -2.96170563e-01 -2.32246779e-02 -1.12449534e-01
  -1.31112739e-01  2.11213887e-01 -4.87217009e-02  7.61985555e-02
  -3.75341177e-02  8.44396502e-02 -6.53161183e-02  4.85089831e-02
  -9.96259376e-02  9.54359956e-03 -1.70711234e-01  6.10376149e-02
   6.19440489e-02  4.14558686e-02  4.61819842e-02  9.49674398e-02
   2.82309860e-01  2.96498071e-02 -1.50679797e-02  4.91265282e-02
   2.42054075e-01 -1.31263509e-02 -1.91925839e-02  2.80662104e-02
   3.71123478e-02 -3.38888884e-01 -2.00868230e-02  1.67694166e-02
  -3.60965505e-02 -1.41723767e-01  3.02032948e-01  2.04788238e-01
  -6.71761036e-02  3.84984985e-02 -1.07347555e-02 -1.98256560e-02
   2.39916518e-02  1.32785365e-01 -1.19569767e-02 -2.75360793e-03
  -6.12391531e-03  3.00332084e-02 -1.85713936e-02 -1.36738047e-01
  -3.57440487e-03 -4.46610227e-02 -4.78087738e-03  5.04277796e-02
   4.84992340e-02 -5.77931106e-02  5.28261214e-02 -2.72157900e-02
   1.23889945e-01  8.64645243e-02 -1.13074826e-02 -5.67381382e-02
   7.67613053e-02 -4.07767259e-02 -6.49557263e-02 -9.63906385e-03
   3.22979912e-02 -1.26993343e-01 -1.29197929e-02 -1.69159342e-02
   1.35929948e-02 -1.66537926e-01 -4.60041016e-01 -3.20493169e-02
   1.66632354e-01 -1.15267299e-02  4.08661887e-02  1.70604303e-01
  -6.78721815e-04  1.55730039e-01  1.29863665e-01  2.18055793e-03
  -1.21001206e-01  3.61724228e-01  2.15357821e-02  8.49631522e-03
   5.97483292e-02 -4.75084335e-02 -1.88847288e-01  1.92329586e-01]
 [-4.30052541e-02 -3.57354768e-02 -1.83859676e-01 -9.45526510e-02
  -1.82793830e-02 -7.57476538e-02  4.56147008e-02  1.42258897e-01
   8.76351446e-03  3.04606352e-02  8.96442495e-03  1.33024417e-02
   1.22992709e-01  3.51239964e-02  4.50005047e-02  2.99558491e-02
  -8.26627202e-03 -1.30511731e-01 -2.05699876e-02  2.18361709e-02
   7.04197288e-02 -5.69477715e-02 -3.90279144e-02 -3.22967507e-02
  -7.43624344e-02 -2.76701003e-01 -2.92369034e-02 -7.80511573e-02
  -7.20595419e-02 -2.30413303e-01 -7.37401024e-02  5.56447394e-02
  -4.97292951e-02 -2.41867915e-01 -1.10147625e-01  3.33006214e-03
   3.67864892e-02 -4.18987572e-02  1.05449446e-01  9.15621668e-02
  -6.34881668e-03  1.45041257e-01  1.20447233e-01  9.67474002e-03
  -9.56935212e-02 -1.48504406e-01  4.72389087e-02 -2.79050171e-02
  -3.40575911e-02 -8.89332294e-02  4.63934280e-02  6.95699453e-02
   2.18901202e-01 -4.13485840e-02  1.30266929e-02 -5.31647243e-02
  -7.13234022e-02 -2.09430858e-01 -6.20179437e-02  9.04516727e-02
  -4.65157442e-02 -2.40284622e-01  1.87588837e-02  9.82287154e-03
   3.14532630e-02  7.84274265e-02 -4.01993133e-02  7.46471435e-03
   1.00306366e-02  4.17423695e-02 -1.74847879e-02 -5.52407540e-02
   1.18381269e-02 -1.78552672e-01  1.17933325e-01 -5.75143583e-02
  -7.37736300e-02 -4.02688794e-02 -1.36419609e-01  1.04520246e-02
  -1.97865814e-02  4.06345120e-03  1.18712727e-02  3.95435058e-02
   8.00186489e-03  1.87656116e-02  5.16558699e-02 -4.22174111e-02
  -3.78052406e-02 -5.58327660e-02 -6.45054877e-02  2.51080934e-02
  -5.21792918e-02  2.39675827e-02  2.55524646e-02  9.64136235e-03
   7.80778304e-02  9.56788138e-02 -8.06693360e-02 -5.09024784e-02
  -6.65495172e-03 -2.83169392e-02 -7.06700981e-02 -1.69953443e-02
  -6.98335618e-02  4.33083288e-02 -1.10258744e-03  4.16968837e-02
  -3.04032546e-02  1.72963202e-01 -2.92082042e-01  5.60242124e-03
  -5.08861877e-02 -8.23443197e-03  2.25916244e-02 -2.82142442e-02
  -7.13585736e-03 -3.23489644e-02  9.91702452e-03 -2.08256781e-01
   6.41654953e-02  7.44295567e-02 -4.53133993e-02 -9.89039056e-03
  -4.58138660e-02 -1.61262963e-03  8.15534964e-02 -7.34271631e-02]
 [-5.61056193e-04 -8.57595056e-02  1.74209867e-02 -6.20125197e-02
  -2.58037318e-02 -2.80969553e-02 -6.96906075e-02  1.74777538e-01
  -4.15505357e-02  2.28316113e-02 -2.94544026e-02 -2.64926944e-02
   1.64359555e-01  3.32604796e-02  4.58595268e-02 -3.91324470e-03
  -9.22349002e-03  1.15376540e-01  1.47243915e-02 -5.71817830e-02
   1.96234792e-01  1.17985699e-02 -1.09513188e-02  6.27201274e-02
  -4.37908396e-02 -1.39098421e-01 -6.29486293e-02 -4.85746376e-02
   6.03150427e-02  1.40284691e-02 -8.17613304e-02  1.29984424e-01
  -1.19022159e-02 -2.87325568e-02 -3.53957266e-02 -5.51289581e-02
   9.65307001e-04  4.94093299e-02  1.77053750e-01 -4.50789444e-02
  -8.64409432e-02  1.01302467e-01 -6.46186098e-02  1.87983021e-01
  -9.31749716e-02 -1.57755211e-01 -3.58135924e-02  9.88879800e-02
  -4.74195890e-02  6.93248957e-02 -7.03590214e-02 -3.94282788e-02
   1.11944051e-02 -6.30657673e-02  9.89609659e-02 -9.69083756e-02
   2.21773703e-02  1.54302657e-01  3.63239199e-02 -4.26874645e-02
  -1.12049310e-02  4.82559837e-02 -4.34841290e-02 -4.40528616e-02
   8.83295015e-02 -4.55863103e-02 -2.51787845e-02 -6.42119572e-02
  -1.02189332e-01  2.35536210e-02  1.88882593e-02 -4.96303551e-02
  -2.19106805e-02 -2.17501801e-02  2.96045337e-02 -1.88514628e-02
  -3.56114693e-02  4.13949601e-02 -6.89166039e-02 -3.40302363e-02
   2.26422865e-02  6.60113469e-02  1.53656363e-01  4.25026305e-02
   3.01505774e-02 -4.40642089e-02 -8.67560580e-02 -8.83592665e-03
  -7.78009444e-02 -4.09875177e-02 -3.49416118e-03 -5.35932742e-02
   5.14177745e-03 -2.59596575e-02 -2.78844144e-02 -5.90684190e-02
  -6.18091039e-02 -3.29423435e-02 -1.22197149e-02 -2.25756923e-03
   6.67504743e-02 -5.18803187e-02  3.99432853e-02  5.04374653e-02
  -1.37272496e-02  5.73941097e-02 -8.49547088e-02 -7.26998225e-02
  -4.21390049e-02 -8.08473453e-02  5.47466427e-02 -1.43928723e-02
  -1.25181749e-01 -7.49489618e-03  2.37203520e-02 -3.47222085e-03
  -3.55010703e-02 -3.59781422e-02 -3.09586935e-02 -7.03984573e-02
   1.00610100e-01 -1.28722703e-02 -1.90095007e-02  1.93503480e-02
   1.46912262e-01 -6.91409335e-02  8.85139629e-02 -3.15947123e-02]
 [-2.53155883e-02  8.35533952e-04 -1.33110080e-02 -4.54655811e-02
  -1.70728080e-02 -3.18279229e-02 -3.61185782e-02 -1.05725147e-01
   4.65774909e-02  2.47771968e-03 -9.04462021e-03  1.79495141e-02
   4.84085530e-02 -1.60339810e-02 -2.30643541e-01 -5.78815341e-02
   2.20647696e-02  1.11415070e-02  2.12070838e-01  5.64504191e-02
   9.31207612e-02  3.01993601e-02  1.35597950e-02 -4.10526805e-02
   2.70408094e-02  1.60850435e-01  6.78320825e-02  3.86296809e-02
  -9.85685810e-02  1.24644481e-01  8.62919614e-02 -1.09804966e-01
   6.10497221e-03  1.30480349e-01 -1.10384032e-01  4.02767695e-02
   1.57548748e-02  2.97045279e-02 -5.96973374e-02 -4.99776229e-02
  -3.83403189e-02  1.22041143e-01  5.11978082e-02  2.17590690e-01
   1.27599239e-01 -9.92005691e-02 -2.10497230e-02 -1.61941741e-02
  -2.54551917e-02 -1.48495361e-01 -6.15457408e-02  1.04735076e-01
   1.06945753e-01 -5.20870201e-02 -1.65771574e-01  6.34040534e-02
  -7.61078624e-03 -1.48211062e-01 -6.04635589e-02 -6.91896677e-02
   6.01582378e-02  6.98681222e-03 -4.66532856e-02  1.51014430e-02
  -2.87580341e-02 -6.79972693e-02 -6.19557612e-02 -5.33224456e-02
  -5.72947077e-02  3.42309885e-02  5.74688241e-03  1.79000217e-02
  -3.10433656e-02 -6.58853576e-02  3.51407155e-02  9.61359516e-02
  -1.12543039e-01  3.73161435e-02  6.26752526e-02  3.26859467e-02
   3.52090672e-02  5.60196377e-02  5.16343638e-02  7.06972368e-03
  -5.89880496e-02  3.06394752e-02 -4.77444716e-02  2.52262112e-02
  -5.62156066e-02 -2.33804118e-02 -4.33984995e-02  8.35706852e-03
  -3.46939825e-02 -4.91042323e-02 -4.37757419e-03 -1.45265432e-02
   1.20381750e-01 -7.87187144e-02 -6.42442629e-02 -4.10818942e-02
  -1.22588230e-02 -1.39502250e-02 -1.86720744e-01 -3.45793396e-01
  -1.48118439e-03  7.21348748e-02 -2.65207663e-02 -2.96997018e-02
  -3.87144685e-02 -6.35793135e-02 -2.49810219e-01  1.35775912e-03
   1.68656096e-01 -6.25235811e-02 -3.58010381e-02 -1.51157066e-01
  -6.34337813e-02 -1.03540413e-01 -2.77054645e-02  9.53106117e-03
   1.75777972e-01 -1.46795169e-01  1.28248990e-01 -1.32065164e-02
  -8.63970146e-02  2.16728896e-02 -1.18393824e-02  1.96131930e-01]
 [-1.17245419e-02  4.44550663e-02  1.50219306e-01 -3.89401987e-02
  -7.37548992e-02  2.55257450e-02  2.06706040e-02  8.97521270e-04
  -2.65046060e-02 -5.15240356e-02  7.91156664e-03 -5.73670045e-02
   4.97391522e-02 -1.78654976e-02 -1.84373677e-01  4.07021726e-03
  -2.15691030e-02 -5.00623742e-03 -2.42309850e-02 -4.04949449e-02
  -1.35435164e-01  9.45017207e-03 -2.91088317e-02  5.21442434e-03
   1.44670000e-02 -3.95961329e-02 -2.45411061e-02 -2.44723596e-02
  -1.26104340e-01  6.17714562e-02 -4.51734774e-02 -7.08289146e-02
  -2.53442526e-02 -2.43696257e-01 -7.11088926e-02 -1.87492408e-02
  -2.27567434e-01 -1.94948632e-02 -1.88306317e-01  7.40101002e-03
  -6.16711751e-02 -9.86182690e-02  9.94662382e-03  9.10049304e-02
   3.30493897e-02 -6.57751784e-02 -5.30376583e-02 -6.02939725e-02
   4.07423601e-02  5.01487628e-02 -3.22199874e-02 -1.28753379e-01
  -1.44179955e-01 -6.11669943e-03  4.91992868e-02 -4.66387570e-02
   1.74059384e-02  7.91320801e-02  1.96468458e-02 -2.47939557e-01
   1.58499572e-02 -5.36662415e-02 -2.42007300e-02 -1.29086571e-02
   1.42130226e-01 -6.10653944e-02 -4.58774669e-03 -9.54582915e-03
  -4.22489122e-02  1.04504898e-01  1.69171486e-02 -1.06793398e-03
  -9.34541319e-03  7.92061761e-02 -9.30931419e-02 -1.20506901e-02
  -6.39228895e-02  1.97271556e-02  9.24815144e-03  2.61931401e-02
   1.18198171e-02 -1.32573647e-02  1.70957491e-01 -2.35845614e-02
   1.20892515e-02  4.41489033e-02 -6.28164187e-02  9.01510939e-02
   1.54066700e-02  3.71675529e-02  6.86367974e-03 -7.04443753e-02
  -6.53366074e-02 -2.49183481e-03 -2.52106413e-02 -1.12331472e-02
  -1.37544364e-01 -1.09998047e-01 -9.22466293e-02 -5.59621193e-02
   4.35427837e-02 -2.22929027e-02 -8.30249861e-04 -1.20423660e-01
  -4.06259857e-02 -2.60103606e-02 -6.12113550e-02 -2.90369261e-02
  -4.48449329e-02 -1.70790374e-01  1.03626121e-02  9.71935410e-03
   5.92208467e-03 -6.47137314e-02 -3.57606634e-02  4.57751118e-02
   4.57189679e-02 -2.57252127e-01  1.85274407e-02  1.33251166e-02
   8.99559632e-02 -3.39865267e-01 -1.70180753e-01 -8.83356109e-02
   5.54145314e-02 -6.36532158e-02  3.15598142e-03 -4.60890420e-02]
 [-6.54717833e-02  1.76485572e-02  8.27726945e-02 -9.72659420e-03
  -2.45911926e-02 -9.30625424e-02 -4.15460691e-02 -1.26092955e-01
  -1.10333366e-02  2.72989105e-02 -2.05292460e-02 -9.45571363e-02
   3.57976817e-02 -3.56446975e-03  6.81884810e-02 -3.16942669e-02
  -4.85870242e-02 -1.13658365e-02  4.15518992e-02 -8.53765756e-02
   3.87018025e-02 -8.20063874e-02 -5.09991720e-02 -4.44619060e-02
  -5.40058129e-02 -3.20429006e-03 -8.86664614e-02 -7.45733231e-02
  -4.99499068e-02  6.21011816e-02 -7.70142004e-02  1.05252922e-01
  -8.45906809e-02 -1.44373789e-01 -3.15473340e-02 -5.69817163e-02
  -1.41564608e-01 -3.64276618e-02  5.03137298e-02 -1.48523167e-01
  -6.41419068e-02 -1.06879778e-01 -6.03344627e-02  5.26470542e-02
  -1.47620831e-02  7.57835433e-02 -1.62070580e-02  9.60685462e-02
   3.25423591e-02  1.08456478e-01  1.96265113e-02 -1.23493627e-01
  -1.24065667e-01  2.57642902e-02 -4.46158722e-02 -6.31334633e-02
   1.17733032e-02  1.26914293e-01 -2.50668954e-02  4.06522420e-04
   7.87460655e-02  1.60733297e-01 -4.15643081e-02 -9.80058592e-03
   1.94628298e-01 -3.47018540e-02 -9.26456973e-02 -5.47070280e-02
   4.45000157e-02 -7.23792762e-02  1.42822172e-02 -1.13262413e-02
  -1.04660541e-02  2.45839301e-02 -6.75355142e-04  2.82679219e-02
   8.19899961e-02 -1.28850108e-02 -1.02897044e-02  7.06270989e-03
   1.78864989e-02 -3.65503691e-02  1.20786764e-01 -7.13919625e-02
  -2.29682159e-02 -3.34416628e-02 -3.72283086e-02 -2.97187343e-02
   1.55850649e-02 -2.49096043e-02  2.17098333e-02 -2.30509546e-02
  -1.27219511e-02 -4.42681313e-02  1.60762090e-02 -7.41207004e-02
  -9.09450799e-02 -1.90082014e-01  8.17370965e-05  8.57429462e-04
  -3.22623663e-02 -3.84951569e-02 -2.41518766e-02  7.36738816e-02
  -1.50551880e-02  1.12960748e-02  2.38353275e-02  2.70046126e-02
  -6.88798055e-02 -2.19746232e-01  7.48714879e-02 -9.48466212e-02
  -5.43985665e-02 -4.55602407e-02  1.95518136e-02  4.11202796e-02
  -1.62479710e-02 -5.05824313e-02 -1.29884049e-01 -4.71792072e-02
   5.18412180e-02 -2.01735944e-01 -1.57129556e-01 -5.81064336e-02
   1.39428005e-01  1.86224878e-02  5.90277426e-02  2.56492291e-02]
 [-1.77316070e-02 -5.19409664e-02 -2.82839052e-02  4.65674698e-02
  -9.55448598e-02  1.22823879e-01  2.39012334e-02 -1.87171414e-01
   6.08467236e-02  1.87063348e-02  3.62434313e-02  1.06039476e-02
   1.12365501e-03  4.87883911e-02  1.10475339e-01 -3.49060260e-02
  -3.57626681e-03  1.46185815e-01 -2.87397444e-01  6.63018301e-02
  -1.58762082e-01 -3.37306745e-02 -6.58316612e-02 -6.77799433e-03
  -5.36940359e-02  2.71201074e-01 -3.03412452e-02  3.67604308e-02
  -3.39150839e-02  1.35934398e-01  7.55095333e-02 -3.17165375e-01
   2.03483440e-02  1.05503118e-02 -5.43540455e-02  2.92392001e-02
   1.65906668e-01  1.85050555e-02 -1.67308465e-01 -6.30745515e-02
   3.73694301e-03 -1.32762820e-01  7.70719275e-02 -7.26735443e-02
  -1.24106906e-01  2.11416423e-01 -1.59402713e-02  1.30305633e-01
   4.36619706e-02 -4.76659462e-02 -5.03445342e-02  1.33223981e-01
  -2.46981293e-01  3.23710516e-02 -2.52601415e-01  7.17177913e-02
   1.14947617e-01  2.37181708e-02 -1.08510414e-02  4.99976687e-02
   2.15598747e-01 -4.72420901e-02  3.27512436e-02 -3.74309011e-02
   7.15966374e-02 -4.55382690e-02  1.28314237e-03 -5.37512712e-02
  -3.65124643e-03 -3.24079305e-01  2.82808095e-02 -2.03116331e-02
  -2.39655674e-02 -1.67766392e-01  3.21854502e-01 -2.88850129e-01
   7.59333698e-03 -7.55534275e-04  7.70025179e-02  2.66576335e-02
  -3.37927639e-02 -6.63823709e-02  1.37151480e-01  1.93846552e-03
  -4.53609452e-02  2.79716942e-02 -8.00224096e-02  1.61041711e-02
   1.48707628e-03  5.04187495e-02  2.55835131e-02  5.93375117e-02
   8.75050724e-02 -4.94790189e-02  3.34077775e-02  5.94116002e-02
  -2.96984129e-02 -1.80830002e-01  1.56334378e-02  1.53052881e-02
  -2.16454323e-02 -4.24452201e-02 -2.05504164e-01  1.52469784e-01
  -2.32585147e-02  1.24620534e-01  1.44135011e-02  3.59871984e-02
  -1.75090209e-02 -2.61717021e-01 -4.53941584e-01  2.16628169e-03
   1.91462457e-01  2.93205306e-02 -8.26637670e-02  1.47375494e-01
  -5.03259897e-02  6.98905662e-02 -1.24998465e-02 -1.33757234e-01
  -2.01179937e-01  3.39500695e-01  5.90848401e-02  1.16021909e-01
   1.21059619e-01  3.69086117e-02  5.41824363e-02  9.80450287e-02]
 [-2.45522335e-02  4.77560647e-02  6.80205077e-02 -6.29125163e-02
  -1.00816034e-01  1.43263891e-01 -2.65500508e-02 -1.39901772e-01
   8.09187349e-03  2.92540004e-04 -5.74431978e-02  4.07384709e-03
  -3.84377912e-02 -4.20229100e-02  2.83349380e-02  3.54830697e-02
  -6.13871366e-02  8.03345367e-02 -7.41767585e-02  9.26689878e-02
  -6.59560412e-02  3.53519917e-02 -5.61156906e-02 -6.11027926e-02
  -4.35311683e-02 -2.52687603e-01 -1.40912771e-01 -8.27397630e-02
  -6.91493526e-02 -3.47802639e-01 -1.23460583e-01 -9.45974290e-02
  -1.21815994e-01  3.17500792e-02 -3.77652347e-02  9.40220430e-03
  -1.58196345e-01 -4.75690933e-03  5.97525239e-02  4.68549356e-02
  -3.47337835e-02 -6.92490628e-03  8.13903287e-03 -2.99471859e-02
  -1.09146014e-01  4.70318310e-02  5.10634594e-02  5.65754808e-02
  -5.15252613e-02 -1.90190837e-01 -2.80835796e-02  2.54374724e-02
  -6.08945042e-02 -5.50032556e-02 -6.87951744e-02  1.16317896e-02
   1.02643287e-02 -1.38948873e-01 -4.75950614e-02  1.04847014e-01
  -1.07555829e-01  7.33121559e-02  4.26478907e-02  4.01886888e-02
   2.03868672e-02 -1.48443859e-02 -6.05393872e-02 -3.94853689e-02
   2.24770624e-02 -5.04205339e-02 -5.20440340e-02  4.30208631e-03
  -6.29407838e-02 -1.03275940e-01  1.14680231e-01 -1.16033636e-01
  -6.11183420e-02  3.94261368e-02 -1.04520330e-02 -3.06771845e-02
   3.26483771e-02  1.16510615e-02  5.90619370e-02  1.36900730e-02
  -4.85423654e-02 -1.95824225e-02  3.20170037e-02 -7.13088140e-02
  -2.60866829e-03 -5.28374724e-02  4.14420143e-02  4.30641100e-02
   7.67870992e-03  8.60711373e-03  2.76396908e-02  1.98475309e-02
  -9.53425616e-02 -1.40683383e-01 -2.73246644e-03  5.03148809e-02
   2.89000217e-02  3.13690379e-02  3.23516391e-02  1.36560142e-01
  -3.52553241e-02 -1.82941556e-01  4.80046794e-02 -6.23042621e-02
  -2.14249343e-02 -3.75924744e-02 -1.08244486e-01 -2.24381476e-03
  -3.24005596e-02  1.87250748e-02  3.72767411e-02 -1.42178452e-02
   2.65371264e-03 -9.39105302e-02  1.91103779e-02 -1.95535153e-01
  -1.17233835e-01  1.56150922e-01 -1.37938127e-01 -6.93228990e-02
   1.91955566e-02  4.79331464e-02  2.80415826e-02  2.25252360e-02]
 [ 1.79463346e-02 -1.25018985e-03  7.15522915e-02  2.92845219e-02
  -1.07127242e-01  4.23291745e-03 -2.77610980e-02  1.12917855e-01
   2.19608331e-03 -1.87909678e-02 -6.59302622e-03 -3.56858708e-02
  -1.01154014e-01  1.86871607e-02 -9.93710607e-02 -2.41139866e-02
  -1.88773088e-02  7.24654198e-02 -3.89149070e-01 -1.66454956e-01
  -3.12115736e-02 -5.98373525e-02  3.74569893e-02 -8.13550800e-02
  -2.43722070e-02  7.07129808e-03 -7.89177641e-02 -6.23243228e-02
  -1.05443336e-01 -1.11214079e-01  5.59050823e-03 -6.75280839e-02
   1.26425512e-02 -1.63821936e-01  2.95117917e-03 -4.14191745e-02
   1.86014339e-01  2.45378464e-02 -4.09140810e-03 -6.25160262e-02
  -6.07268065e-02 -1.12675920e-01  9.45471879e-03 -8.56037438e-03
  -1.34048015e-02  6.39474951e-03 -3.91223244e-02 -1.27103273e-02
   5.45818433e-02  7.90360719e-02  2.31918134e-03  1.10782124e-01
  -2.46366978e-01 -3.07443479e-05  5.67823797e-02  1.55376077e-01
   1.98541228e-02  2.01510370e-01 -2.39394810e-02  1.40179917e-02
  -5.29652871e-02 -2.67317239e-02 -3.54215316e-03 -7.85265267e-02
   2.62157917e-01  1.50957359e-02 -3.94919366e-02 -6.27468377e-02
  -1.45872355e-01  3.81110944e-02  2.81331921e-03  2.71628927e-02
  -2.71790773e-02 -1.17076496e-02 -8.91632363e-02  5.61295934e-02
  -1.43176064e-01  1.45666692e-02 -2.17607468e-02 -6.23895824e-02
  -1.28145125e-02  5.94043285e-02  9.29406732e-02  2.23657042e-02
  -9.54410760e-04  1.79855265e-02 -4.02630754e-02  6.94972789e-03
   3.60121429e-02 -8.31476450e-02 -5.18256286e-03 -7.60676200e-03
   3.66295613e-02 -5.76330610e-02 -4.39216048e-02 -5.92321493e-02
   2.95512397e-02  1.39436349e-01  3.80861871e-02 -3.18564139e-02
   2.23224349e-02 -4.62658107e-02  1.79658815e-01 -1.50219336e-01
  -1.75510403e-02  6.63328469e-02 -2.00781394e-02 -3.90012786e-02
   6.11582259e-03 -8.50672573e-02  2.02152934e-02 -7.81772733e-02
   1.86885044e-01  2.66678836e-02 -3.59274424e-03  3.76048088e-02
  -6.10325113e-03 -1.52067691e-01 -4.24493253e-02 -1.81623676e-03
  -1.30951973e-02 -3.74044874e-03  8.91146138e-02  1.89915847e-03
   8.76889825e-02 -4.00433354e-02 -4.10017073e-02  1.04980581e-01]
 [ 3.34058851e-02 -3.15466933e-02  9.42022130e-02 -9.67457443e-02
  -6.20281585e-02 -2.58002058e-02 -7.03418925e-02 -9.22984406e-02
  -3.29052866e-03  5.81843266e-03  2.56288704e-02  1.90411024e-02
  -1.34447575e-01  4.59876135e-02 -7.33796926e-03  7.02555338e-03
  -9.71781164e-02  3.37663181e-02 -2.59472638e-01 -1.38134092e-01
  -7.25857615e-02 -5.02240621e-02  2.82751513e-03  8.95643514e-03
  -6.11483343e-02  9.28034484e-02  1.02631442e-01  2.18277648e-02
  -3.64277735e-02  1.54506207e-01 -1.07991830e-01  1.21830128e-01
  -6.63947016e-02  9.69332531e-02  5.63361533e-02 -5.08777872e-02
  -1.11389972e-01 -9.97471716e-03 -1.49955511e-01 -4.27186955e-03
  -6.80088475e-02 -2.42816359e-01 -2.08555222e-01 -3.93514223e-02
  -1.58787593e-01  1.24470824e-02  5.50611503e-02  1.40303552e-01
  -3.17096412e-02 -1.27251834e-01 -6.55336976e-02 -2.12561548e-01
  -1.84912071e-01 -1.28762405e-02 -8.59815329e-02 -8.73964578e-02
   4.81692106e-02  1.30917788e-01 -5.37895933e-02 -7.44008943e-02
  -8.55745282e-03 -4.07325178e-02 -9.33030853e-04 -7.81538635e-02
  -8.93639401e-02  1.40047254e-04  1.00525292e-02 -2.79858448e-02
  -6.79487512e-02 -1.43128425e-01 -2.70226598e-02  8.40267749e-04
   3.16413529e-02 -7.17124566e-02  1.58160865e-01  9.24601108e-02
  -4.26460020e-02 -4.43499833e-02 -1.05549626e-01  4.22084779e-02
  -7.34426975e-02  1.10564828e-01  5.23549579e-02  2.03369395e-03
  -2.04244349e-02  1.70167759e-02  6.61368109e-03  3.67279239e-02
   3.55780311e-03  9.71479807e-03  1.89688858e-02  3.50545719e-02
  -4.80938181e-02 -6.81816861e-02 -2.69836653e-02 -5.60276695e-02
  -6.25291467e-02 -1.50171801e-01  6.00291938e-02  3.51783796e-03
  -5.12668341e-02  4.48418893e-02  1.99226569e-02 -1.26677770e-02
   2.70003993e-02  6.48841858e-02  5.58269536e-03 -5.03406413e-02
  -1.00593800e-02 -8.81413743e-02  9.55491439e-02 -1.40362345e-02
   4.76533286e-02 -4.57465202e-02 -1.15224635e-02  2.81744421e-01
  -5.41548803e-02 -1.93423823e-01 -7.03029484e-02 -8.32581222e-02
  -2.09132105e-01  2.84701556e-01  1.98426262e-01  4.58089076e-03
   4.14733775e-02  9.38887894e-03 -1.42707350e-02  1.38316154e-01]
 [ 2.83791870e-02 -2.94433329e-02  2.94509083e-01 -4.72760424e-02
  -9.95546281e-02  8.56522396e-02 -2.69432310e-02  1.11557566e-01
   1.81419998e-02 -6.40210435e-02 -8.69443547e-03 -2.32847985e-02
  -5.41372225e-02 -1.02994302e-02  6.71318173e-02  1.99696105e-02
  -4.56812307e-02 -2.83493791e-02 -6.40520453e-02  6.93133622e-02
   6.84220344e-02 -3.50504033e-02  2.78102867e-02 -4.06649821e-02
   2.33658478e-02  4.33221273e-02  2.99175289e-02  1.35372616e-02
  -1.59093618e-01 -7.38483015e-03 -4.09267955e-02  1.63625434e-01
  -1.10313587e-01 -7.45198829e-03  6.65689334e-02 -4.78056744e-02
   1.19500227e-01 -3.53882983e-02 -1.47314236e-01  5.98908141e-02
  -6.57726079e-02 -4.92973775e-02 -7.95680806e-02  1.23614185e-01
   1.00671528e-02 -1.22063324e-01 -2.57216245e-02 -8.70043561e-02
  -1.39055373e-02  9.83780101e-02  4.71951999e-02  2.65680738e-02
  -1.69623997e-02  4.06327844e-02  1.75600629e-02 -6.05489835e-02
  -1.37035415e-01  6.58038110e-02 -5.22934943e-02  7.83050507e-02
   7.97066242e-02  8.99015367e-02 -1.91684123e-02  1.39428233e-03
   2.30606914e-01 -4.43386547e-02 -6.78676963e-02 -8.80700629e-03
  -1.94925815e-02  1.09552912e-01  5.09675965e-02 -5.87707618e-03
   4.31182832e-02  1.00313209e-01 -1.06216043e-01 -4.31875400e-02
  -4.13879491e-02 -1.90445315e-02 -7.56964087e-02 -2.81986557e-02
   2.61466950e-02  7.78615400e-02  1.70543820e-01  1.95340887e-02
  -2.35270951e-02 -2.21340964e-03 -1.37410257e-02 -6.97646216e-02
  -1.25207298e-04 -3.26891802e-02 -4.16589417e-02 -6.01086803e-02
  -6.96376413e-02 -1.34977442e-03 -5.24859615e-02 -5.62449321e-02
   1.69604225e-03 -5.60728498e-02 -5.52482158e-02 -5.01912497e-02
   3.80344279e-02 -5.30342013e-02 -1.87541619e-01 -1.08155362e-01
   3.57498229e-02 -5.68176806e-02  2.19622701e-02 -4.76473868e-02
   5.13237156e-03 -1.97079331e-01  7.26212263e-02  3.89618240e-02
   1.44169301e-01 -3.96568552e-02 -4.10928242e-02  8.84244889e-02
   2.87615079e-02 -1.09886788e-01  2.14194674e-02  8.89473706e-02
   9.89643186e-02  1.12633891e-01 -8.22861344e-02 -3.66317332e-02
   9.15694088e-02  3.86053212e-02  5.56060448e-02 -8.97615030e-03]
 [-3.00726295e-02 -6.33958504e-02  1.29577175e-01 -2.12942343e-02
   6.03994094e-02 -1.98887780e-01 -8.56544971e-02 -7.03223124e-02
  -4.85726958e-03 -5.93764149e-02 -1.36664063e-02  3.03108357e-02
  -1.30692609e-02 -1.98056400e-02 -2.58453889e-03 -4.40755151e-02
  -6.21351413e-02 -1.38473451e-01 -5.59907174e-03 -3.23608518e-02
  -2.53586732e-02 -8.37271065e-02 -3.39467227e-02 -7.25532025e-02
  -6.01575971e-02  2.87133064e-02 -6.52132481e-02 -2.15401445e-02
  -1.25884801e-01  1.19510151e-01  1.13867540e-02  5.82368635e-02
  -3.82659659e-02 -1.46100715e-01  4.65402044e-02  1.51603750e-03
  -9.97775942e-02  4.45767865e-02  7.98800662e-02 -6.33338094e-02
  -9.80140548e-03  1.87971853e-02 -6.02248870e-02  3.59881893e-02
   2.76813041e-02  9.27886143e-02 -8.39642435e-02  9.81243551e-02
  -1.69348009e-02 -1.64571144e-02  3.31339426e-02 -1.23583069e-02
  -2.35979319e-01 -3.13392766e-02  1.57419220e-02  7.70047307e-02
   1.25964761e-01 -1.52174998e-02 -5.18848971e-02  2.89910845e-02
   1.48111627e-01  6.78286180e-02 -5.25606647e-02  1.24491025e-02
   1.41906559e-01  1.73279867e-02 -7.47505948e-02 -5.74660196e-04
   3.32228318e-02 -6.43627048e-02 -8.46726149e-02 -7.99251944e-02
  -6.47204369e-02  1.09974500e-02 -8.10761303e-02 -3.46625857e-02
   7.08525942e-04 -4.11149068e-03 -8.59466270e-02 -1.85965057e-02
  -3.77197228e-02 -7.95594454e-02  1.16163969e-01 -1.20617831e-02
  -3.12144440e-02 -6.79241195e-02  1.16722956e-02 -1.11711912e-01
  -1.66583181e-04  2.41680667e-02  2.98007727e-02 -5.40252216e-02
  -4.85953987e-02 -4.47897874e-02 -1.27690034e-02  3.40276249e-02
  -5.35990447e-02 -1.43090203e-01 -6.30399659e-02 -8.32325369e-02
   1.34786321e-02  7.31646223e-03 -7.67260641e-02 -4.11704518e-02
  -1.76776294e-02 -2.39171181e-02 -1.80491610e-04 -5.50648831e-02
  -6.28887042e-02  1.31191174e-02  3.35312299e-02 -6.71574175e-02
  -2.93469839e-02  4.10583988e-02 -5.65439127e-02  9.03325900e-02
  -8.98696389e-03 -3.25302593e-02 -1.22008771e-02  2.92362608e-02
   4.73530814e-02 -6.14527278e-02 -2.10217983e-01 -1.08319810e-02
   1.32882334e-02  3.64185572e-02  1.35181639e-02  7.58952927e-03]
 [-5.84990829e-02  1.36451721e-02 -9.79661420e-02 -3.07125715e-03
  -1.03015274e-01  4.88755591e-02  1.65597647e-02 -3.27198923e-01
   6.22067712e-02  5.51653355e-02  5.25333211e-02 -1.52139412e-02
   1.62234575e-01  4.86418307e-02  4.25979011e-02 -7.85257965e-02
   3.07351053e-02 -1.01151690e-02 -1.27501830e-01  3.98565233e-02
  -1.23090923e-01  6.69512898e-03  8.40521157e-02 -1.51342573e-02
  -3.65221649e-02  3.36431414e-01  2.61496082e-02  3.79641429e-02
   6.56704418e-03 -7.99810961e-02 -3.43684969e-03 -5.08008301e-01
  -2.61673499e-02  1.61450915e-02  8.04794207e-02 -5.42160124e-03
  -3.83182243e-02  7.59360418e-02 -2.22827047e-01  7.35748559e-02
   3.41577232e-02 -5.95173836e-02 -1.61286220e-02 -2.02665523e-01
   7.52655119e-02  2.66672790e-01 -5.93134277e-02  5.02165072e-02
   4.00934443e-02 -1.82220519e-01  8.69987882e-04  1.76080719e-01
  -1.73767850e-01  2.36584470e-02 -1.24697015e-01  2.65308350e-01
   1.12572663e-01  9.15057305e-03 -1.22518092e-02  2.40483180e-01
   1.48504421e-01 -8.80497247e-02 -4.73273993e-02 -3.22271921e-02
  -6.11982904e-02 -2.94608157e-02  6.66129738e-02  5.40907905e-02
   7.78939053e-02 -1.48398831e-01  1.25726564e-02 -8.16345215e-04
   2.02575475e-02 -1.76569089e-01  4.90183346e-02  4.43101749e-02
   4.08898145e-02 -6.27588630e-02 -9.73110925e-03 -1.55496085e-02
   4.75756824e-05 -1.98605508e-01  1.45635948e-01 -1.35920681e-02
  -1.58479437e-02 -3.99646536e-02 -1.22704767e-02 -2.34259386e-02
   6.75691245e-03 -5.51896431e-02 -5.73051162e-02  1.94270033e-02
  -7.23808855e-02 -2.08326764e-02  3.92736271e-02  2.08781287e-02
  -2.95887664e-02 -1.70467064e-01 -7.10294861e-03  4.28015739e-03
  -6.98720738e-02 -4.25529890e-02 -2.64202774e-01 -9.41434354e-02
   3.09976060e-02  2.48117745e-02  1.68394074e-02  3.99758928e-02
  -2.64725070e-02 -1.69800550e-01 -3.16157609e-01 -1.75959226e-02
   1.83652967e-01 -5.09655662e-02  1.04514964e-01  9.28900465e-02
  -2.11330801e-02 -5.11720031e-02  4.44498062e-02 -5.33199385e-02
   2.65719503e-01  2.44715944e-01 -1.01618983e-01  2.77619641e-02
  -1.02021480e-02  3.51555496e-02  5.85878119e-02  3.86684388e-02]
 [-4.08252701e-02  4.17442955e-02 -1.53335944e-01  7.20714219e-03
  -1.85991883e-01  9.91900042e-02 -9.54728574e-03  6.71732724e-02
   3.06952372e-02 -5.26493080e-02  5.15173515e-03  3.83516289e-02
  -7.37778917e-02 -2.09949818e-02  1.85765680e-02  2.56362278e-02
  -1.85152534e-02  2.94315536e-02 -4.09477167e-02 -6.29281476e-02
  -8.51444304e-02 -6.66354746e-02 -4.36287187e-02  5.20868227e-02
   5.60745746e-02 -1.99026719e-01 -5.57114789e-03 -5.60113713e-02
  -1.43643469e-01 -1.87530398e-01  1.94159839e-02  4.92901020e-02
  -4.77612168e-02 -7.55590349e-02 -6.87372684e-02  1.35027478e-02
  -6.23293482e-02 -3.60400863e-02 -1.26897506e-02  5.81920259e-02
  -1.45955821e-02  3.10864625e-03  8.36356655e-02  1.08877175e-01
  -1.26425296e-01 -1.25950694e-01 -4.98689972e-02  6.57519698e-02
   1.21987537e-02  1.21740447e-02  3.05308518e-03  5.59601635e-02
  -9.74718928e-02  4.55131046e-02 -1.22726515e-01  1.12408837e-02
   1.20054610e-01  1.06069438e-01 -1.36082154e-02  3.55993323e-02
  -6.27349019e-02 -3.34992670e-02  3.79751585e-02  4.30887528e-02
   3.09650004e-02 -5.63495494e-02 -9.12599191e-02  5.14923893e-02
   3.17483582e-02 -2.01129913e-01  2.05252715e-03 -1.92964617e-02
  -3.47682647e-02  3.04666581e-03  8.26231837e-02 -7.38902688e-02
  -1.85005926e-02  5.68260998e-02 -8.85045230e-02  5.82820103e-02
  -1.24718447e-03 -2.74474341e-02 -9.90872532e-02 -1.70893371e-02
   3.08238901e-02  5.02449460e-02 -1.23649361e-02  2.47058794e-02
  -5.90030067e-02  1.91730149e-02 -1.21982042e-02  2.19940059e-02
  -5.84531091e-02 -6.41011000e-02 -3.07112862e-03 -3.68101597e-02
  -6.44057244e-02 -1.18115703e-02  3.35779251e-03  1.52893141e-02
  -4.26285006e-02 -3.40871066e-02  1.56474009e-01 -3.30630578e-02
   3.89499664e-02 -2.14712359e-02  1.59833580e-02 -2.57052053e-02
  -8.46041292e-02 -1.12205945e-01  1.37309283e-01  1.97686884e-03
  -1.67178154e-01  1.40604237e-02 -7.47795478e-02  2.81291679e-02
   1.00552477e-02  4.34629694e-02  8.74988139e-02 -2.09914356e-01
   2.15841737e-02  1.85720071e-01 -1.94756329e-01 -6.90641720e-03
  -1.23206386e-03  4.76263352e-02  5.18522076e-02 -8.18333328e-02]
 [-2.89608035e-02 -5.43217883e-02  1.14439055e-01 -4.18219827e-02
  -4.50797416e-02 -6.25980422e-02 -4.22997884e-02  9.50111225e-02
  -5.32051772e-02 -6.38661832e-02 -6.46532401e-02 -3.40466872e-02
   2.25471146e-02  2.81876307e-02 -9.48017165e-02  2.99305022e-02
  -5.11094555e-02  6.02356121e-02 -1.82337433e-01 -1.17046557e-01
  -1.22929849e-02  2.05263179e-02 -2.56001893e-02 -3.27576580e-03
  -2.03149766e-02  1.64230153e-01 -1.02286711e-01 -3.48823667e-02
  -3.81626375e-02 -1.00923121e-01 -4.25272919e-02 -7.30912685e-02
   1.39882416e-01  1.38508111e-01  7.35777467e-02  2.44895052e-02
  -1.82566643e-02 -5.08563668e-02 -3.67571302e-02 -2.55112853e-02
  -1.38665317e-02 -7.54754245e-02  5.62009728e-03 -3.83875705e-03
   3.02236229e-02 -2.72417236e-02  1.54259345e-02  1.43359741e-02
   4.33252230e-02  1.95655674e-01 -1.84008516e-02  8.50964859e-02
   5.52036241e-02 -5.79309389e-02  1.18409470e-01  1.17877267e-01
  -8.25858489e-02  6.88036829e-02  2.89780721e-02 -4.08056453e-02
  -1.05339006e-01  1.98378526e-02 -3.07045970e-02 -3.52863558e-02
   1.47857442e-01 -6.74876571e-02  2.28503365e-02  1.81563795e-02
  -8.66433233e-02  1.17651373e-02 -7.63807371e-02 -3.30120474e-02
  -5.17685786e-02 -1.78639218e-01 -4.12097992e-03  8.51775985e-03
  -1.10235542e-01 -5.55310994e-02  1.47240572e-02 -6.18255138e-02
   2.75415909e-02  4.58092093e-02  1.35875210e-01 -2.99769174e-02
  -6.72550052e-02 -6.34222254e-02 -2.30654683e-02  1.25933103e-02
  -3.90986241e-02 -5.48137492e-03 -5.63416677e-03 -2.77110133e-02
  -4.69128974e-02 -3.39494348e-02  2.81410012e-02  1.16563477e-02
  -1.25811398e-02  1.84932455e-01  2.40193699e-02 -5.33736572e-02
   5.84708303e-02  5.83376084e-03  4.71280105e-02  1.94421522e-02
  -2.34817471e-02  8.53902102e-02 -5.35943545e-03  7.91498832e-03
  -1.30115366e-02 -5.39451875e-02  1.67361364e-01  3.84064727e-02
   5.88361593e-03 -2.32773181e-03  1.83375750e-03 -8.59731510e-02
  -3.90006118e-02 -4.20900285e-02  5.28336987e-02 -6.73476756e-02
   1.06801249e-01  1.25606060e-02 -4.29884531e-02 -3.67192067e-02
   1.68067649e-01 -1.67764481e-02  2.61442158e-02  7.31140822e-02]
 [-7.02563003e-02 -1.70282219e-02  7.95882642e-02  1.19713303e-02
  -1.53267145e-01 -9.83361602e-02  2.34129708e-02 -4.08967100e-02
   4.22662571e-02 -4.17217612e-02  2.24860534e-02 -5.20559847e-02
  -1.34146854e-01 -4.54530045e-02 -9.61906463e-03 -4.36723009e-02
  -1.01745585e-02  1.02780901e-01 -1.08349845e-01 -1.37422547e-01
  -5.82065880e-02  6.16723672e-02  6.15167692e-02  3.34502421e-02
   2.38344893e-02  3.37195158e-01 -5.22727892e-02  3.17836255e-02
   1.04996733e-01  1.89156532e-01 -7.87466317e-02 -1.24378622e-01
   3.46889347e-02  8.12073350e-02 -3.44250761e-02 -4.46034484e-02
  -1.80708140e-01  2.96298005e-02 -1.37584984e-01  6.80917278e-02
   9.97168384e-03 -2.01275110e-01  6.19783811e-02  2.00322010e-02
   1.23928197e-01 -8.79041478e-02 -1.63751412e-02  3.69399488e-01
   4.06815112e-02 -9.49696004e-02 -5.32831904e-03  1.28043860e-01
  -2.37085074e-01  2.77355704e-02  1.37572885e-01 -6.63048849e-02
   1.36742875e-01  3.59456949e-02  3.22910510e-02  3.84764262e-02
  -4.08902802e-02  4.55125161e-02  4.13101874e-02 -2.64792927e-02
   1.24279365e-01 -2.37551946e-02 -4.48849937e-03 -8.03250726e-03
  -4.24928702e-02 -5.61582260e-02 -1.17197428e-02 -7.91660789e-03
   2.20242352e-03 -1.89523343e-02  2.09964924e-02  1.04820602e-01
  -9.45251528e-03 -1.90604720e-02 -4.62322012e-02 -4.91878949e-03
   2.45628767e-02  1.02538720e-01 -4.40261923e-02 -4.34374884e-02
  -4.54317443e-02 -6.70368820e-02 -2.11610161e-02  5.26043866e-03
  -2.86905151e-02 -3.72166885e-03 -2.87604611e-02 -6.53496906e-02
   2.37733871e-02  2.22028196e-02  9.49578732e-03  3.53571661e-02
  -6.30769655e-02 -2.43154526e-01 -6.97421506e-02 -5.88963628e-02
   1.08209819e-01 -4.61104028e-02 -2.10765172e-02  2.39202045e-02
  -6.71955794e-02  5.35041187e-03 -7.49627054e-02 -5.29604219e-02
  -4.77071330e-02 -3.94135788e-02  2.65988559e-01  4.70052026e-02
  -1.39203221e-01  4.08195984e-03  3.70261073e-02  2.20760882e-01
  -6.56141862e-02 -1.20281659e-01 -4.43968596e-03 -1.16929881e-01
  -1.52768120e-01  1.91053450e-01 -1.65038645e-01 -6.54361993e-02
   1.13466851e-01 -2.84912921e-02  8.54844823e-02  1.10480443e-01]
 [-2.52726469e-02  3.13699506e-02  1.80394694e-01 -5.44506088e-02
  -7.95117915e-02  6.64829388e-02 -6.54482190e-03  1.92309991e-01
   1.01441769e-02 -9.68474254e-04  2.85781827e-02 -4.78745662e-02
   1.81891084e-01  9.33319447e-04 -1.67641323e-02  1.25210714e-02
  -5.31331971e-02  1.85233634e-02  1.49014592e-01 -4.69094776e-02
   8.51390362e-02 -9.26520582e-03  4.96315723e-03  1.41400890e-02
  -6.75077662e-02  2.50055268e-03 -1.47136912e-01 -2.58680079e-02
  -6.11682329e-03  5.02563082e-02 -7.77311400e-02  1.09333716e-01
  -1.84179936e-02  3.28259729e-02  6.14013858e-02 -1.49031216e-02
   1.29156448e-02 -2.21115202e-02  2.34502205e-03  7.97343701e-02
   2.58208271e-02  1.40938060e-02 -6.83586001e-02  2.17669368e-01
   9.50668603e-02 -1.55739203e-01  5.53049473e-03  1.71060879e-02
   4.66758423e-02  9.85603631e-02  2.45739222e-02  1.05560243e-01
  -7.40608573e-02  3.31501737e-02  5.81180900e-02  3.98240834e-02
  -1.93930820e-01  1.75639734e-01 -3.87555510e-02 -1.02175802e-01
   4.84533906e-02  1.85948119e-01  2.20616497e-02 -1.38623556e-02
   7.47649819e-02  3.87894437e-02  2.30709687e-02 -4.07397263e-02
  -9.80639532e-02 -1.64183683e-03 -5.70841096e-02 -5.78277819e-02
  -6.34078830e-02 -1.44752800e-01  6.04620166e-02  7.56173730e-02
  -7.39221647e-03  1.89599395e-02  8.98816288e-02 -5.04577570e-02
  -6.41492903e-02 -6.45003915e-02  1.21198028e-01  7.74798822e-03
  -4.36818823e-02  3.66563983e-02  1.28322188e-02 -6.46308884e-02
   2.82742549e-02 -7.60664756e-04 -5.69379656e-03 -5.78772184e-03
  -4.97512482e-02 -1.56160314e-02 -7.39549026e-02 -4.41581234e-02
   4.85562161e-02 -2.43890472e-02  5.23844175e-02 -4.81695049e-02
  -5.17674536e-02  5.25425263e-02 -2.71648653e-02 -7.80302361e-02
  -3.02627007e-03  1.32724702e-01  8.75448436e-03  4.13026139e-02
  -9.91458371e-02 -1.72269121e-01  6.40098080e-02  6.83209598e-02
   3.14553469e-01 -2.04448048e-02  2.05121003e-02  2.76852027e-02
   4.12095524e-02 -1.11115307e-01  4.11352739e-02 -4.79801893e-02
   4.97455746e-02  1.23770602e-01 -1.11640140e-01 -4.25080024e-02
   4.33916599e-02 -4.02094126e-02 -1.74835488e-01 -6.44920766e-03]
 [ 1.62093807e-02 -7.03189289e-03  8.73092115e-02 -1.02698859e-02
   7.07128122e-02 -2.39982009e-01 -1.26589574e-02 -2.02627420e-01
   3.61351930e-02 -2.98542716e-02  8.12329538e-03 -2.85184029e-02
  -5.36597818e-02  1.90173518e-02  3.17562371e-02  3.02258264e-02
   4.52372245e-02  4.66359174e-03 -4.63907011e-02 -1.47123024e-01
   1.86973382e-02  9.62649845e-03 -1.72622055e-02 -3.09967659e-02
  -2.89453212e-02  3.94606851e-02 -1.68887362e-01 -1.01538077e-02
   5.68598695e-03  2.04942331e-01 -2.22563222e-02 -5.36668561e-02
  -1.30892638e-02 -1.71513602e-01  3.67556252e-02 -1.83399059e-02
  -8.96422789e-02 -5.48375174e-02 -3.73759530e-02 -1.06828593e-01
   1.24492822e-02 -5.72734438e-02 -9.70258564e-02  9.42173824e-02
  -6.98584989e-02 -7.26469904e-02 -7.98403919e-02  2.11521149e-01
   6.11237856e-03 -5.95615208e-02  2.02527251e-02  2.92221475e-02
  -1.63205162e-01 -1.14023210e-02 -5.21132648e-02 -1.12002186e-01
  -5.48620895e-02 -1.97998211e-02 -3.82895209e-02  4.80130501e-02
  -4.77372929e-02  1.01173043e-01  3.50231607e-03 -2.60147452e-02
   1.03078954e-01 -6.35671616e-02 -5.92068881e-02 -3.13241705e-02
   1.10867441e-01 -1.38871316e-02 -4.81568687e-02 -8.11071098e-02
  -7.10885376e-02  2.22551227e-02  3.78627367e-02 -5.42697199e-02
   3.51195596e-02 -2.37601367e-03  2.48730574e-02 -6.41524419e-02
  -1.34447040e-02 -3.46991681e-02  1.16816469e-01  7.29405228e-03
   3.05710360e-02 -2.02348717e-02  2.57094819e-02  6.30050804e-03
  -2.99566239e-02 -5.42150531e-03 -6.02313057e-02  1.94636006e-02
  -2.31147222e-02 -1.43396398e-02 -1.22072455e-02 -4.90516424e-02
  -3.74855846e-02 -1.63332328e-01  3.16602662e-02 -3.64170857e-02
  -2.40081754e-02 -5.09577170e-02 -8.39572549e-02 -4.79257256e-02
  -5.26686087e-02 -3.97104658e-02 -7.85944536e-02 -6.68418482e-02
  -4.88296337e-03  5.34339547e-02  4.77963649e-02 -4.73604687e-02
  -4.08422463e-02 -5.53502738e-02 -2.08732914e-02  8.87150168e-02
  -3.17509659e-02 -1.03641741e-01 -1.08881898e-01  1.12226844e-01
   1.47461817e-02  3.23106796e-02 -1.46406934e-01 -7.26372153e-02
   4.67234105e-02 -2.47845408e-02 -1.67034373e-01  4.93492410e-02]
 [ 5.83262593e-02  8.46982002e-04 -3.65187079e-02 -7.79604763e-02
  -7.14724883e-04  1.48503244e-01 -1.00065842e-02 -2.87110537e-01
   3.91228907e-02 -3.07950061e-02 -2.58670114e-02 -5.06767556e-02
  -2.69657880e-01 -4.66944315e-02  7.35738948e-02  3.14781852e-02
  -5.13070300e-02  1.70465019e-02  1.00306742e-01 -4.08223551e-03
  -2.40550637e-01 -5.98751716e-02  2.38611177e-02  2.44326293e-02
  -5.54715805e-02  2.54918456e-01  8.71165097e-02  1.64064169e-02
  -5.43421544e-02 -1.36564299e-01 -1.49346024e-01 -4.79825854e-01
  -2.00544953e-01 -1.88443661e-01  1.33005297e-02 -1.34354308e-02
  -4.50412370e-02  2.53333263e-02 -2.47056574e-01 -1.96471605e-02
  -4.43433821e-02 -2.75096059e-01  6.80630356e-02 -3.70053530e-01
   2.08609998e-01  1.75027519e-01 -2.79933605e-02  4.59470302e-02
  -4.62967269e-02  5.09759597e-02 -6.81081712e-02  1.77110568e-01
   2.29214523e-02 -1.93546582e-02 -2.12377176e-01  1.25412315e-01
   4.55856249e-02 -1.64439753e-01  5.87640181e-02  1.20490499e-01
   1.00125968e-01  5.61960004e-02 -3.51306051e-02 -5.47050051e-02
   3.67615633e-02  1.38086230e-02  6.09713700e-03 -3.76670025e-02
   5.29894158e-02 -7.32533336e-02 -1.48584982e-02  4.06709388e-02
   5.32206148e-02 -1.61408603e-01  1.09427340e-01 -2.94035207e-02
   7.32770413e-02  3.43737304e-02 -7.95712098e-02  5.51602393e-02
   4.55563664e-02 -2.23093480e-01  4.13760133e-02 -2.92198360e-03
   5.07206395e-02  1.56451575e-02 -7.90194497e-02  3.58810164e-02
  -1.92360319e-02 -6.56672567e-03 -7.67616257e-02 -4.83027659e-02
   5.93760163e-02  2.50079632e-02 -6.44128844e-02 -2.07062885e-02
  -1.55313835e-02  1.56750724e-01 -5.44575341e-02 -2.13924944e-02
   2.69771530e-03 -5.24720876e-03 -2.50672519e-01 -1.51281402e-01
  -7.36380182e-03 -8.03395063e-02 -1.96194761e-02 -2.66642720e-02
   9.17288065e-02 -1.90594375e-01 -2.86799848e-01  4.72198613e-02
  -6.48738677e-03 -5.27311713e-02  3.21352147e-02 -3.80396321e-02
  -5.95149770e-03  4.90852632e-02  4.97120693e-02 -1.98576786e-02
   1.54044241e-01  7.43644759e-02  7.48214424e-02  1.99901289e-03
  -4.95719351e-02 -4.13156524e-02  7.54880980e-02 -2.85027991e-03]
 [-2.47731004e-02 -4.80814204e-02 -2.20154017e-01  6.81868813e-04
  -1.90901533e-01  1.02891997e-01  4.83130617e-03  1.62387058e-01
   1.29279373e-02 -3.35528776e-02 -1.47645390e-02 -3.67609486e-02
   8.89818743e-03  1.83441211e-02 -6.67686686e-02 -2.57980283e-02
  -4.68555242e-02 -7.71644264e-02 -1.44075071e-02 -2.60426179e-02
  -7.35818744e-02 -5.18780388e-02 -1.10294449e-03 -6.52855411e-02
  -3.13317440e-02 -1.20998010e-01 -4.72353622e-02 -4.38977443e-02
  -1.17240295e-01 -3.27188313e-01  3.28480601e-02  2.29730625e-02
  -9.78920013e-02 -3.60281439e-04 -6.01875782e-03 -7.34008709e-03
  -6.94027245e-02  3.35816555e-02  4.42879507e-03 -4.39067185e-02
   3.03873010e-02  1.74927600e-02 -2.23212577e-02  9.08485055e-02
  -1.70469359e-01 -5.17090112e-02  3.46611068e-02 -5.54846674e-02
   5.39943241e-02 -2.07686182e-02 -4.10492495e-02 -1.34994820e-01
  -6.62847161e-02  3.17240357e-02 -1.24853566e-01  5.87794296e-02
   4.15578135e-04  1.36439905e-01  4.97718975e-02  2.20899601e-02
  -1.40269041e-01 -1.75331965e-01  2.23741513e-02  5.03410911e-03
  -5.29333390e-02  5.34643680e-02 -3.82781066e-02  4.68594469e-02
  -6.68299422e-02 -2.30888113e-01 -6.31021848e-03 -2.66892202e-02
  -1.71589199e-02 -9.81893316e-02 -1.01947682e-02 -7.81127857e-03
  -9.79053751e-02  3.20141464e-02 -5.76478280e-02 -2.33130455e-02
   2.73180008e-02 -2.08005771e-01 -2.85513010e-02  3.27096656e-02
   1.20332222e-02  5.40579706e-02  6.06347769e-02 -9.28960368e-02
   9.68948286e-03  3.16527858e-02 -6.19035680e-04 -4.57197055e-02
  -2.37510353e-03 -9.98247135e-03 -6.43963292e-02 -3.44159864e-02
   5.19932620e-02  9.14271772e-02 -4.17244248e-02 -3.99597026e-02
   6.89820945e-02 -4.42479439e-02  3.11450690e-01 -2.72250492e-02
  -5.25745824e-02  1.19006924e-01 -3.50242406e-02 -2.05248930e-02
  -1.72787160e-02 -4.26081195e-02 -1.40762880e-01 -5.08827865e-02
  -1.85328782e-01 -4.83158231e-02 -4.70332243e-02 -1.38866618e-01
   1.20614460e-02  1.38893753e-01  6.71154112e-02 -1.55787900e-01
   3.17801610e-02  1.16678677e-01 -1.91946149e-01 -5.87287135e-02
  -3.44212390e-02 -6.25391901e-02  1.06647490e-02 -1.32921576e-01]
 [-6.99478621e-03 -7.76268318e-02 -1.46200543e-03  1.30142486e-02
  -1.03768885e-01 -4.53224555e-02  1.78271569e-02 -8.22174922e-02
  -6.24174960e-02  2.68405508e-02  2.44472288e-02 -3.84112448e-02
  -2.65224911e-02  4.52743731e-02 -1.59727991e-01  1.84509177e-02
   3.12943757e-02  8.95350277e-02 -1.65286824e-01  2.43060980e-02
  -6.57690838e-02 -3.43241878e-02 -3.22166383e-02 -7.11970255e-02
   4.11765203e-02  1.43483896e-02 -6.14921972e-02 -9.57598984e-02
  -1.47477955e-01 -2.25465328e-01  3.45124863e-02 -6.37420490e-02
   1.02036774e-01  1.73863515e-01  7.48060411e-03  2.84616221e-02
  -1.26735657e-01 -3.12115736e-02  3.31469141e-02 -1.13654293e-01
   4.11889069e-02  2.56285816e-02  1.32208625e-02 -2.47236535e-01
  -1.40056431e-01 -5.83227612e-02 -5.57718165e-02  6.83972836e-02
   4.82548773e-02  2.13211417e-01 -6.25209585e-02  4.91929911e-02
  -1.17804274e-01  4.60352786e-02  3.47382342e-03 -4.18711342e-02
  -1.52824178e-01  7.89664164e-02  9.19453159e-04 -7.42971674e-02
  -1.77891165e-01  7.06404895e-02 -6.18040897e-02 -2.94027813e-02
   7.55304098e-02  2.89186463e-02 -1.01381019e-02  4.60672602e-02
  -3.98161076e-02 -1.81093290e-01 -3.55873853e-02  1.63931120e-02
   8.27265531e-03 -1.13304578e-01 -2.84732729e-02 -1.02353163e-01
  -1.31603241e-01 -2.25668587e-02  2.65989453e-02  5.19323051e-02
   3.81622054e-02 -1.69971455e-02 -2.73180734e-02 -6.24449365e-02
   2.83166133e-02  3.74190602e-03 -1.82099827e-02  6.01600148e-02
  -9.07669589e-03 -2.14546882e-02  3.61631773e-02 -3.99045013e-02
   8.53306119e-05 -1.20465113e-02  3.59604508e-02  4.07849252e-02
   8.36809501e-02  1.71264708e-01 -7.96252266e-02  5.76378778e-03
   2.64700409e-02  1.99620351e-02 -6.67751804e-02 -1.04555823e-01
  -4.02224883e-02  9.40591171e-02 -1.64614543e-02 -9.89414826e-02
  -3.60635333e-02 -7.91676790e-02  8.07734057e-02 -5.99760637e-02
   2.20621735e-01 -2.19815783e-02 -1.68538261e-02 -4.75142673e-02
  -1.81354750e-02  1.24401808e-01 -5.34848459e-02  6.62019253e-02
  -5.79532585e-04  8.07609875e-03  3.21409255e-02 -3.80183347e-02
   9.26719159e-02  1.78700946e-02 -3.96684743e-02  1.13033958e-01]
 [-7.30276480e-02 -7.76508525e-02  6.40542656e-02  6.17549475e-03
  -2.65869591e-02 -2.96197951e-01  2.13286299e-02 -5.59814423e-02
  -8.40602629e-03 -2.18614675e-02 -3.59365530e-02 -6.04980299e-03
  -4.49303538e-02 -1.89375989e-02 -1.63906254e-02  1.48123521e-02
  -8.01306143e-02 -1.12604126e-02 -1.03301026e-01 -7.70316944e-02
  -7.04121590e-02 -4.35721092e-02  2.03697123e-02 -1.18768513e-02
  -5.24122827e-02  1.02016479e-01 -4.90044542e-02  1.26400562e-02
   9.44302902e-02  2.06814278e-02 -1.41402498e-01 -7.77021050e-02
  -6.84576854e-02  8.00903440e-02  9.82430670e-03 -9.83109139e-03
  -8.69682580e-02 -2.53943894e-02 -2.83095092e-01  5.91350645e-02
  -6.34269863e-02 -2.86641330e-01  4.02464233e-02 -3.26487243e-01
   1.30448461e-01 -2.80343667e-02  5.07112071e-02  1.88613847e-01
  -1.12938136e-02 -6.96810484e-02 -8.09979811e-02  4.68285056e-03
  -1.26041412e-01  3.33697870e-02  4.75985445e-02 -1.36563722e-02
  -3.58890160e-03  8.61365125e-02  2.65655313e-02 -2.13933408e-01
   2.76117008e-02  1.19595990e-01 -4.85025123e-02  5.72263356e-03
  -1.95890218e-02 -5.14367188e-04  4.63526137e-02  3.05485521e-02
  -9.04430896e-02 -2.03239068e-01 -5.12640215e-02 -1.34436814e-02
  -5.80697805e-02 -7.99413919e-02 -2.44404137e-01  1.56207517e-01
  -1.17701650e-01  3.13416719e-02 -6.33483902e-02  2.19748877e-02
   1.61209591e-02  1.54992081e-02 -1.01696365e-01 -4.38654087e-02
  -8.65522365e-04 -2.76485942e-02 -1.86261293e-02  1.25825614e-01
  -6.66751638e-02 -2.26166402e-03 -5.29569425e-02 -1.68121643e-02
   1.32288160e-02  2.08712611e-02 -7.20207915e-02  2.73973070e-04
   9.04245079e-02 -7.29013681e-02 -5.49536198e-02 -6.35069236e-02
  -4.60920036e-02 -3.02911326e-02  1.93211809e-02 -3.24640162e-02
   3.28505337e-02  2.07888242e-02 -1.62117146e-02 -3.58770974e-02
  -2.89133918e-02 -1.30392089e-01  2.30663508e-01  2.43672356e-02
   2.07887217e-01  4.18002717e-04  2.54514031e-02  9.03795660e-02
  -2.74284333e-02 -3.58837657e-02 -8.56316239e-02  7.19916970e-02
  -1.83416396e-01 -2.11202726e-01 -8.22861791e-02 -7.12400079e-02
  -4.51506190e-02 -4.99536023e-02 -1.04290627e-01  5.92699200e-02]
 [-7.90521223e-03 -1.35360146e-02  1.29992917e-01  5.19024022e-03
  -2.61467963e-01 -2.74007972e-02 -5.76571189e-02 -3.81384082e-02
  -3.94355208e-02  2.52367780e-02 -6.43377602e-02  2.18282118e-02
   5.39948344e-02 -3.27239595e-02  5.06802388e-02 -1.98590811e-02
  -2.75827385e-02  2.93478165e-02 -1.36776462e-01  5.34675047e-02
  -8.56395066e-02 -1.28829423e-02 -4.17102352e-02 -7.42072985e-02
   1.04259735e-03 -8.44208598e-02  5.35134524e-02 -6.90552667e-02
   4.35980335e-02 -6.53087944e-02  5.36351353e-02 -6.54451624e-02
   1.44656792e-01  6.20712712e-02 -2.09601168e-02 -2.35709734e-02
  -4.92456667e-02  4.60171476e-02  2.93039624e-02  4.64143194e-02
  -3.76487896e-02  3.47755081e-03 -1.17756151e-01  1.49950519e-01
  -8.89213849e-03 -1.51016891e-01  1.57245304e-02 -1.33549869e-02
   1.83605012e-02  1.53157070e-01  1.52456211e-02  1.27363438e-02
  -7.86068663e-03 -3.51263620e-02 -1.19240936e-02  9.82718095e-02
  -4.05988544e-02 -4.85333353e-02 -3.39582451e-02 -9.69147012e-02
   6.14849590e-02  1.09153956e-01 -7.04788268e-02  7.95127731e-03
   1.41025595e-02 -2.19737645e-02  5.67789609e-03 -4.42631580e-02
  -1.14303723e-01 -2.01057717e-02 -5.18949069e-02  1.18045919e-02
  -3.03823780e-02 -1.45154580e-01  2.36881934e-02  5.34326918e-02
  -6.28643706e-02  1.26407165e-02  9.80337486e-02 -3.93420830e-03
  -3.99127267e-02  3.12985666e-02  6.95639872e-04 -2.43197568e-03
  -3.37692834e-02  2.29295623e-02 -6.69967756e-02 -5.40778227e-02
  -4.33729216e-02 -6.39203116e-02 -2.40507955e-03  1.04858167e-02
   2.30400655e-02 -3.74616161e-02 -4.43178117e-02  4.88686971e-02
   6.60809427e-02  4.70864065e-02  3.46737029e-03  8.92351661e-03
  -2.84787361e-02  5.09587955e-03  1.13387525e-01 -2.02030182e-01
   2.83050388e-02  5.53308427e-03 -2.21174527e-02 -1.43268406e-02
  -5.32269925e-02 -1.15998745e-01 -7.09250197e-02 -1.72158163e-02
   2.51002461e-01  2.77412049e-02  7.49618858e-02 -7.22704604e-02
  -4.74326350e-02 -5.15938401e-02 -8.82772133e-02 -1.15463734e-01
  -2.59893313e-02  2.26810187e-01 -4.61485386e-02 -2.11718399e-02
  -1.54335737e-01 -3.29284854e-02 -1.91387057e-01  1.83286015e-02]
 [-3.97705436e-02 -2.30520125e-02  3.12013533e-02 -2.91610099e-02
   3.23119909e-02 -1.78744793e-01 -1.51273012e-02 -8.67872536e-02
  -1.34360874e-02  5.35137998e-03  4.43802811e-02 -8.70092809e-02
  -5.40175959e-02  1.45311877e-02  3.80912796e-02  2.98775211e-02
  -2.91217528e-02  5.23383394e-02 -6.21132702e-02 -1.37105867e-01
  -2.72019953e-02 -6.54172972e-02  1.31236669e-02 -5.38432561e-02
  -3.70650850e-02  7.05683976e-02  2.17212494e-02 -3.88118550e-02
   2.45135440e-03  2.07465619e-01 -4.00671642e-03  4.44860607e-02
  -3.97864319e-02  2.05487236e-02 -1.22440781e-03  4.88798879e-03
   8.79936572e-03 -2.85939686e-02  5.33829145e-02 -7.15027899e-02
   4.14414471e-03 -1.17249213e-01 -9.50388908e-02 -6.11251667e-02
   5.48111014e-02  2.32540723e-02 -3.09190676e-02  1.12463392e-01
  -6.38360977e-02 -6.37725741e-02 -3.18055414e-02 -8.45218375e-02
  -1.77251935e-01  1.83969010e-02  5.88921756e-02  5.26931956e-02
   3.54688196e-03 -5.43453582e-02  8.55970848e-03  8.19548443e-02
   3.47703509e-02  1.03800602e-01 -3.23814973e-02 -1.55572323e-02
  -1.72806326e-02  1.15759112e-02 -2.73373816e-02 -6.39632493e-02
  -3.46684568e-02 -1.42855972e-01 -5.87425791e-02 -5.34681790e-02
   7.93314911e-03  1.02611996e-01  3.74956429e-02 -6.39560297e-02
   9.75182876e-02 -8.13330114e-02 -7.04310834e-02 -5.50818034e-02
  -4.68482450e-02  2.88010780e-02 -6.35530353e-02 -1.36521626e-02
  -3.13805938e-02  1.53642381e-02  4.04597707e-02 -2.72812247e-02
  -7.89355636e-02 -1.36145577e-02  3.62095162e-02 -3.55961435e-02
  -1.93632320e-02 -1.43352132e-02  4.43654833e-03 -5.06643616e-02
  -1.15668423e-01 -1.26955152e-01 -5.91886528e-02  2.21555494e-02
  -1.70144271e-02 -1.84773058e-02 -1.31515458e-01 -5.44759966e-02
   4.26099598e-02 -3.93414088e-02 -1.39231440e-02  1.86104479e-03
  -2.45010033e-02 -4.51417863e-02  6.79850504e-02 -3.97530496e-02
  -5.82502456e-03  1.60718728e-02 -9.07394104e-03  1.09599151e-01
  -2.50210445e-02 -2.54755169e-01 -8.12932774e-02  8.21878165e-02
  -1.10549843e-02  1.82520021e-02 -2.49812648e-01 -6.94926977e-02
  -4.02056314e-02  1.38858557e-02  1.48046389e-01  8.47061425e-02]
 [-1.72822811e-02 -1.75314583e-02  5.25065511e-02  4.86600697e-02
  -7.25031793e-02  1.46966815e-01 -1.85304284e-02 -2.56586313e-01
  -1.98526494e-02 -2.77729928e-02  1.01642627e-02 -6.86899871e-02
  -2.26762891e-01 -3.59558575e-02 -3.25636119e-02 -3.33500057e-02
   5.48982695e-02 -2.15891972e-01  2.59625196e-01  6.17077835e-02
  -1.59730658e-01  3.97583097e-02 -5.73042035e-02  2.15964988e-02
  -4.50688861e-02  3.26635063e-01  2.93380860e-02  3.53941023e-02
  -1.09096527e-01 -3.16110939e-01 -2.16689445e-02 -5.13771892e-01
   1.55336699e-02 -2.31338561e-01 -5.19484505e-02 -1.82274878e-02
  -1.37141228e-01 -1.23428619e-02 -2.63914078e-01  2.03398988e-02
  -2.03508064e-02 -5.48758432e-02  6.84905052e-02 -1.12481184e-01
   2.89667249e-01  1.85591310e-01 -5.40465117e-03  9.30511430e-02
  -8.31000432e-02  9.43406895e-02 -6.51750267e-02  2.49583885e-01
   1.94529772e-01  1.00184418e-02 -1.82525828e-01 -4.77042869e-02
   1.32195324e-01 -2.54543722e-01  5.51756546e-02  1.76471800e-01
   1.79091930e-01  2.67844826e-01 -5.38002327e-03 -2.49933563e-02
   1.17900968e-01 -1.81694068e-02  3.39656544e-05  3.25343981e-02
   6.67629018e-02 -7.92939141e-02 -3.01856454e-02  5.11000305e-02
  -4.30620462e-02 -8.86539444e-02  2.20074669e-01 -1.97200388e-01
   5.88813014e-02 -3.33045423e-02  1.96202472e-02  1.10900076e-02
  -2.98530757e-02 -2.00315848e-01  8.68909806e-02 -4.55561653e-02
  -2.54642144e-02  2.82053798e-02 -9.83593240e-03 -1.20209470e-01
  -4.07624021e-02  1.29322186e-02 -8.30971543e-03 -5.80803901e-02
   3.60714942e-02 -3.79954390e-02 -1.30485818e-02 -4.99163643e-02
  -1.86041333e-02  2.01165944e-01  4.27089259e-02  1.07372282e-02
  -1.17679231e-01 -4.15645912e-03 -6.58851266e-02 -1.48330510e-01
  -1.92679726e-02 -8.58958736e-02  1.71589218e-02  1.95537433e-02
  -8.48775059e-02  6.96223602e-02 -2.41730824e-01 -9.19152945e-02
   1.25844121e-01  2.88766026e-02 -1.21373400e-01 -5.90673760e-02
   4.47230563e-02  2.56950676e-01  4.69136350e-02  1.14184894e-01
  -1.91836106e-03  1.17524415e-01 -8.35385844e-02  6.68843761e-02
  -3.37689593e-02 -5.00661880e-02 -1.45207778e-01  1.15629740e-01]
 [ 1.37753012e-02  1.27302692e-03 -2.12682441e-01 -1.77293736e-03
  -4.61993888e-02  1.52227208e-01  3.03160176e-02  3.96482572e-02
  -3.85007039e-02 -6.31317347e-02 -3.89102325e-02  3.28919813e-02
  -2.41340287e-02  2.69800909e-02  3.85498372e-03 -3.30832154e-02
  -6.19864650e-02 -1.35639787e-01 -8.28513503e-02  8.22706893e-02
  -2.74090413e-02 -4.61191945e-02 -7.29808211e-02 -1.03634538e-03
   3.46673802e-02 -1.26422152e-01  3.58099188e-03 -7.65809044e-02
  -4.89499681e-02 -2.81229287e-01 -1.89293176e-02 -2.38860608e-03
  -1.65419683e-01  8.99719074e-02 -7.09573328e-02 -2.02493407e-02
   1.74184710e-01  4.72717406e-03  9.67989713e-02  1.06078416e-01
  -5.24625815e-02  3.45341377e-02  7.63311461e-02  3.79579850e-02
  -1.37512058e-01 -5.07703908e-02 -8.82185809e-03  3.50831300e-02
  -8.89032800e-03  8.00249651e-02  1.92120497e-03  1.18467525e-01
   1.94311757e-02  1.90290455e-02  2.24702880e-02  7.50743002e-02
   4.07536142e-03 -7.23097026e-02 -1.29599916e-02  2.66173810e-01
   1.14659229e-02 -2.51054406e-01 -5.30929863e-02 -4.83487248e-02
  -1.81508120e-02  2.90547162e-02 -5.31033836e-02 -1.26665300e-02
   2.02274472e-02 -4.69662659e-02  2.71379892e-02 -5.61836958e-02
  -2.06903350e-02 -1.47670805e-01  1.16339810e-02 -4.76065576e-02
  -1.05752170e-01  4.65492420e-02 -5.90189584e-02 -4.14160155e-02
  -4.64167334e-02 -3.17449681e-02 -1.04359783e-01  2.36606188e-02
  -5.39791510e-02  3.72333452e-02  1.49732167e-02 -1.33695945e-01
   1.85540598e-02  1.60332192e-02  7.10512511e-03 -3.71791944e-02
  -3.98619026e-02  2.44759917e-02  1.22702178e-02 -1.29711963e-02
  -7.01853931e-02  3.86471823e-02  3.34099010e-02  2.91819610e-02
  -2.27257609e-02  4.82245872e-04  3.16924006e-01  8.50864500e-02
   9.15925670e-03  3.65546681e-02  4.04547863e-02 -5.87990507e-02
  -2.01543737e-02 -6.52097538e-03 -1.22523710e-01 -2.74580158e-02
   1.56710185e-02  5.02725840e-02 -4.42137793e-02 -1.14789881e-01
   3.71936262e-02  1.49878249e-01  8.38626176e-02  2.27983426e-02
  -7.76540339e-02  9.00634676e-02 -2.10185856e-01  6.25781622e-03
  -7.50352889e-02 -3.07613928e-02 -2.16238778e-02 -1.65684789e-01]
 [-1.04792044e-02  2.07343102e-02 -2.08335727e-01 -6.00793436e-02
  -1.54267743e-01  9.09958258e-02 -8.40122625e-02  1.63127005e-01
  -3.83297466e-02 -2.48063914e-02  4.24504243e-02  1.99587084e-02
  -6.70194626e-02  1.91452820e-02 -8.85953978e-02 -2.06062756e-03
  -4.94312793e-02 -1.75714609e-03 -1.68990880e-01  5.27686626e-02
   6.42702729e-02 -5.65660149e-02 -3.21415029e-02 -1.74187566e-03
   2.33638268e-02  1.10973373e-01 -5.96133657e-02 -5.32566346e-02
  -1.06891505e-02 -1.53972119e-01 -4.16808724e-02 -1.59225725e-02
  -1.62407830e-02  1.76254466e-01  1.03140268e-02  4.24105562e-02
  -2.61669960e-02 -2.41035707e-02  1.20892465e-01 -8.81263092e-02
  -2.33218670e-02 -7.74360374e-02  1.04642741e-01 -7.89238065e-02
  -9.39569622e-02 -3.26555595e-02 -3.75455581e-02 -1.25448508e-02
  -1.90229472e-02  1.74249157e-01 -4.52981330e-02  2.22333223e-01
  -3.57873738e-02 -5.53613296e-03  7.33198822e-02  7.53291743e-03
  -1.58025905e-01  3.82816754e-02 -4.61308137e-02  6.24023266e-02
  -3.99140492e-02  2.86562145e-02  3.69959809e-02 -1.31135685e-02
   1.11587942e-01 -2.13371050e-02 -1.11616999e-01  3.59687619e-02
  -1.26602218e-01 -1.74607441e-01 -4.24569957e-02 -8.48590024e-03
   2.41499729e-02 -1.32589946e-02 -1.55661739e-02  9.36250668e-03
  -1.02860086e-01 -2.07336340e-02 -6.23243600e-02  5.69377728e-02
   1.73814017e-02  6.34466931e-02  5.08063957e-02  2.26998348e-02
  -6.29579723e-02 -3.35648842e-02  3.34504060e-02  5.07199690e-02
  -1.23719070e-02 -4.59410287e-02  1.80911776e-02 -6.49694726e-02
   4.80347499e-02 -7.10154250e-02 -3.86601947e-02 -7.56333815e-03
  -8.44649747e-02  6.48286715e-02 -1.58150531e-02 -7.54452404e-03
  -6.37551909e-03 -1.05462512e-02  8.81477892e-02  2.34727617e-02
   8.63671489e-03 -1.77002959e-02 -4.63244058e-02  3.46737099e-03
  -6.87023997e-02  1.30564542e-02 -6.44463077e-02 -2.24133376e-02
  -1.10969305e-01  4.72301915e-02 -3.90075073e-02 -8.01574364e-02
  -7.01176818e-04  7.21888989e-02 -1.11587785e-01 -1.02508813e-01
   8.15049708e-02  9.63749960e-02  4.09047008e-02 -7.89148174e-03
   5.69503307e-02  4.29292284e-02 -2.80470103e-02  1.53996333e-01]
 [-5.08941673e-02 -2.50093751e-02  5.57336286e-02 -6.32686019e-02
  -5.18879592e-02 -4.32441533e-02 -6.66870475e-02 -1.32578447e-01
   1.67224817e-02  1.02610150e-02  1.43535500e-02 -3.48887872e-03
  -1.49258357e-02 -8.73740017e-03  6.41441792e-02  4.87426519e-02
   1.72086491e-03  1.33090228e-01  1.10038690e-01  5.29095232e-02
   7.20167831e-02  1.23416567e-02 -2.31200177e-02  2.56814547e-02
  -5.35404421e-02 -7.93005750e-02 -1.04480252e-01 -6.38610357e-03
   1.42471328e-01 -6.77173734e-02 -9.77394357e-02  1.13978582e-02
   3.63063477e-02  1.71701442e-02  1.52226361e-02 -3.45689990e-02
  -1.21409170e-01  5.26551681e-04 -6.48339167e-02 -9.52767804e-02
  -5.27517758e-02 -1.95795879e-01 -4.84147221e-02  3.20752971e-02
  -6.42161369e-02 -5.57749160e-02 -1.24340439e-02  1.25482073e-02
   2.77694850e-03  5.22899590e-02 -5.80271967e-02  1.30202159e-01
   1.01526007e-02 -1.28899254e-02  1.94085259e-02 -5.84431887e-02
  -2.80840346e-03 -9.12584737e-02  5.90753816e-02 -1.74242109e-01
   8.58264491e-02  4.22382057e-02  2.61140391e-02  1.11710781e-03
   4.17500809e-02 -4.21743505e-02 -2.99090426e-02  4.97788005e-02
  -1.12822510e-01  6.12409189e-02  2.81667220e-03 -1.68752205e-02
   5.10356110e-03 -4.61734608e-02 -9.32434201e-02  7.34744817e-02
   8.26674514e-03 -5.43980934e-02 -1.04091875e-01  7.44882086e-03
   3.51150967e-02  4.30271514e-02 -7.89137036e-02 -4.94211055e-02
  -3.01188702e-04 -5.08549735e-02 -2.23916136e-02  7.18811899e-02
   4.43769805e-02  5.55093028e-03  4.05551754e-02  9.74610075e-03
   6.18512221e-02  5.16200177e-02 -5.88887744e-02  4.12358493e-02
   3.41707692e-02 -1.24627762e-01  3.95589918e-02 -3.00655030e-02
  -6.60970360e-02  3.86827183e-03 -5.93724512e-02 -1.78434208e-01
   2.44103614e-02  1.10987633e-01 -6.25236407e-02  1.86081864e-02
  -7.97376856e-02 -5.65594435e-02  4.31914330e-02 -1.82391796e-02
  -1.48630664e-01  3.88078112e-03 -5.92268668e-02  1.03554435e-01
  -1.72306579e-02  3.48453261e-02  4.85607348e-02 -2.78027952e-02
   1.35463402e-01 -1.13261290e-01 -1.73978955e-01 -9.72313359e-02
   1.48137704e-01 -5.42231463e-02 -1.12903237e-01  3.62029970e-02]
 [ 4.23133820e-02 -1.80010777e-02 -3.71014290e-02 -2.83940546e-02
  -1.31431386e-01 -4.04827110e-02 -5.01999222e-02  3.65494750e-02
  -7.13090692e-03  2.61060819e-02 -2.36581042e-02  2.18165722e-02
   1.48240522e-01  5.05606122e-02 -1.11726366e-01  2.89219394e-02
   8.58579297e-03 -5.08577079e-02  9.03271735e-02  6.12975881e-02
   8.63578916e-02 -4.43722382e-02 -6.54065162e-02 -1.13714430e-02
  -1.07784122e-02 -8.56332108e-02 -8.96047130e-02 -3.56494002e-02
   7.05261454e-02 -6.65629208e-02 -6.13215379e-02 -2.35849191e-02
  -2.39525884e-02  3.46142314e-02 -5.64539433e-02 -1.01415748e-02
   1.65478781e-01  5.02943434e-02 -2.52170116e-02  3.16317044e-02
  -5.31907864e-02  1.32407332e-02 -4.69985642e-02  2.11532846e-01
  -1.89989001e-01 -2.53792759e-03 -3.97782102e-02 -6.76173270e-02
  -5.38660623e-02  1.30586535e-01 -9.12550762e-02  4.95510437e-02
   1.70902625e-01 -2.91846860e-02  6.27443865e-02 -4.77133915e-02
   7.95725361e-02 -1.03206947e-01 -4.68243137e-02 -9.32878032e-02
  -1.08022504e-02  1.41467825e-01 -4.11927365e-02  1.38612203e-02
   2.06231833e-01 -4.33257371e-02  6.24028267e-03 -6.31482399e-04
  -1.29950553e-01  3.42862643e-02 -7.91747421e-02 -6.04605637e-02
  -5.78304566e-02  2.51751412e-02  7.99188316e-02 -1.19591184e-01
  -1.43271551e-01 -5.84215000e-02  6.11484386e-02 -7.52499327e-03
   5.28375767e-02  1.02224365e-01  8.57986733e-02 -1.93153918e-02
  -6.84664547e-02  1.87693890e-02  4.73995693e-02  4.01383638e-02
  -2.73121912e-02 -6.86184093e-02 -2.38727927e-02 -7.35021904e-02
  -7.78043363e-03  1.45455520e-03 -1.13925291e-02  9.89769958e-03
  -1.95433665e-02 -4.59396318e-02 -8.72471109e-02 -6.88572228e-02
   5.45885786e-02  8.41691997e-03 -1.21522717e-01 -7.52584590e-03
   3.28726172e-02 -6.84276670e-02  2.04677805e-02 -1.51872300e-02
  -8.00940692e-02 -1.39441833e-01 -7.24517256e-02  1.05413143e-02
   5.53811677e-02  3.91825028e-02  7.57672116e-02 -3.55407856e-02
  -7.06234202e-02  7.15946928e-02 -1.88928470e-01 -1.87123284e-01
  -8.07742774e-02 -7.78568089e-02 -1.72502249e-01 -6.98188916e-02
  -1.14141090e-03 -2.73247194e-02 -1.44656554e-01  4.98335399e-02]
 [-2.76848227e-02  1.65069755e-02  4.02384177e-02 -2.52389740e-02
   1.47358298e-01 -1.40650526e-01 -3.08706164e-02 -3.62631008e-02
  -4.23163734e-02  4.50575799e-02 -8.97616372e-02 -2.72140354e-02
   4.84746136e-02  2.02615019e-02  2.92163678e-02  3.12840603e-02
  -4.36363705e-02 -9.35533494e-02 -5.65073229e-02  3.33744548e-02
   6.76080436e-02 -7.96793550e-02 -4.41633761e-02 -4.32098210e-02
  -4.00415324e-02  5.76935746e-02  4.22751531e-02 -1.53745699e-03
  -5.36458716e-02  1.47940174e-01  9.00212154e-02 -4.93799075e-02
  -1.10535808e-01 -4.43845987e-02 -2.61372868e-02  1.56793296e-02
   7.55566284e-02 -3.10430080e-02  5.08821979e-02 -1.90209359e-01
  -7.10787848e-02 -7.95464888e-02  9.33443904e-02  1.02872483e-01
   5.90796061e-02 -3.31835188e-02 -7.08032846e-02  1.21379361e-01
  -9.15270206e-03 -1.03754364e-01 -1.23876864e-02 -5.52907288e-02
  -1.03828117e-01 -6.68663606e-02 -8.73658806e-03  1.62263736e-01
  -7.92126209e-02  2.39113607e-02  2.32806783e-02  1.18650850e-02
   1.00378478e-02  8.84204358e-02 -4.72861417e-02  2.41956729e-02
  -8.54578800e-04 -2.20426954e-02 -5.10260230e-03  4.76343781e-02
   6.94672540e-02 -1.76023841e-02 -1.12976730e-02 -7.20264316e-02
   1.15497317e-02  2.79855039e-02  1.35268301e-01 -1.08567327e-01
  -1.21910917e-02 -4.39490676e-02 -2.07209028e-03 -7.27250846e-03
  -4.99635972e-02  1.57955319e-01  2.14444268e-02 -6.33191783e-04
   1.34054851e-02  1.26278093e-02  1.24121299e-02 -8.69048573e-03
   1.66320335e-02 -6.33325204e-02  2.16379110e-02  4.00136486e-02
  -1.00013748e-01  1.67294387e-02 -1.64566264e-02 -6.90626353e-02
  -5.72033748e-02 -8.31480399e-02 -4.88019958e-02  3.95969935e-02
   1.58149842e-02 -5.53787649e-02 -6.90988824e-02  3.62644270e-02
  -5.46974987e-02 -4.45249528e-02 -6.33588387e-03  3.21745612e-02
  -6.64974973e-02 -1.81252640e-02  4.33762558e-02 -1.49895316e-02
  -1.08469620e-01 -3.08069885e-02 -5.79419779e-03  5.50902635e-02
  -4.77961786e-02 -9.40113887e-02 -1.78634245e-02  6.06953725e-02
  -2.95968279e-02  2.96461172e-02 -2.11281657e-01 -3.47914249e-02
  -6.08026907e-02 -3.26985680e-02  7.57504925e-02  1.99489653e-01]
 [-5.37451021e-02 -4.78736460e-02  9.19978768e-02 -6.96396455e-02
  -4.52167913e-02  1.13206692e-01  5.26456758e-02 -1.39483154e-01
   4.54334952e-02  5.56035638e-02 -4.64981087e-02  3.72209698e-02
  -3.64901759e-02  4.92635146e-02 -5.43194041e-02 -7.56878499e-03
  -2.96518989e-02 -5.59237935e-02  8.63709021e-03  4.83654477e-02
   7.77397454e-02 -4.56481501e-02  1.81906838e-02  1.94916427e-02
  -1.43461935e-02  1.31925046e-01  4.39765118e-02 -4.19865400e-02
  -1.18916601e-01  7.41366297e-02 -1.63729526e-02 -3.42278332e-01
   1.28206998e-01 -2.46728331e-01 -6.52382709e-03 -3.74678299e-02
   3.09253298e-02 -1.36764059e-02 -2.78052777e-01 -4.52815965e-02
  -2.03207284e-02  8.03831071e-02  1.21591669e-02 -2.20331773e-02
   1.09271191e-01  1.95148811e-01 -3.28377746e-02 -9.90600977e-03
   2.09241491e-02 -4.94633382e-03 -5.13492525e-02  1.31674856e-01
   3.01338341e-02  1.61834694e-02 -1.64307818e-01 -3.72270867e-02
   5.18680811e-02 -3.03721249e-01 -1.45578086e-02  9.52294469e-03
   1.86496228e-01 -4.32499833e-02 -2.84180231e-02 -5.76506518e-02
  -8.74888152e-02  1.19124735e-02  1.40412594e-03  2.61318833e-02
   7.92263672e-02 -9.56483707e-02 -7.76216462e-02 -5.96832149e-02
  -3.31784710e-02 -7.09718242e-02  6.43707514e-02 -4.21782821e-01
  -1.81096587e-02 -1.06513426e-02  6.16131611e-02 -5.15277907e-02
  -4.77751344e-03 -1.58594728e-01  2.76920088e-02 -4.70598601e-02
   4.14849073e-02  3.73128355e-02 -7.89722204e-02  9.47627425e-03
   5.31437024e-02  5.56335300e-02  4.84434469e-03  1.86225548e-02
  -4.92003933e-02 -7.83141050e-03  3.82155739e-02 -5.86471260e-02
   3.78434397e-02  9.49541479e-02  5.37492782e-02  5.69025502e-02
  -4.53192256e-02  2.80379858e-02  6.90926090e-02 -1.03607113e-02
  -1.22356173e-02  5.52984013e-04 -5.21018431e-02  3.32979262e-02
  -2.59077549e-02  1.89245909e-01 -4.35097873e-01 -8.21859911e-02
   1.67823210e-02 -1.05142072e-02 -1.33675590e-01  3.84907760e-02
  -1.41720325e-02 -2.45863684e-02  3.54856104e-02  7.72313997e-02
   2.44576991e-01  9.20177475e-02 -1.22612424e-01  7.95617849e-02
  -8.10115635e-02 -2.87785456e-02 -1.36870816e-01 -9.60265994e-02]
 [-2.60338895e-02  4.59479503e-02 -9.60256308e-02 -2.16276031e-02
  -3.87293138e-02  1.62739232e-01 -4.50909771e-02 -1.44753799e-01
   1.88699048e-02  1.93343312e-02 -5.21791205e-02 -2.10878905e-02
  -1.01997636e-01  3.57043259e-02  5.38413711e-02 -2.44695619e-02
   3.58132161e-02 -1.04763791e-01  2.10152902e-02 -2.83050910e-02
   5.87233622e-03 -4.48638052e-02  2.79149786e-02 -9.46556032e-03
  -1.86208859e-02  3.23137268e-02 -3.44386660e-02  5.72951846e-02
  -7.14761391e-02 -1.97546288e-01  3.17266025e-02  4.03777845e-02
  -1.66032463e-01 -3.97545360e-02 -2.71554701e-02 -7.15253642e-03
  -6.76508388e-03 -3.22368108e-02  2.20730491e-02  1.22407891e-01
  -2.92888358e-02 -3.44383717e-02 -8.71641040e-02  7.23034665e-02
  -2.11063754e-02 -1.48847282e-01  5.43474313e-03 -1.35203570e-01
  -5.09597175e-02  9.27493721e-02 -3.14899720e-02  8.06625858e-02
  -4.89556119e-02 -6.01530969e-02 -8.61279964e-02 -6.53115883e-02
   1.04780912e-01 -1.26409665e-01 -3.00990101e-02  7.53091276e-02
  -8.41619670e-02 -1.28297657e-01  3.18253301e-02 -5.07180728e-02
  -2.36198623e-02 -8.88265483e-03 -2.95196716e-02  1.74716339e-02
  -3.49391028e-02 -1.40207842e-01  4.26991247e-02  7.70561956e-03
   1.37792723e-02 -4.95483950e-02  8.97652730e-02 -4.43185642e-02
  -1.71775799e-02  1.26063516e-02 -7.61327595e-02 -3.18227299e-02
   4.09713946e-02 -6.58924654e-02 -1.27956256e-01 -3.12188435e-02
  -5.96546158e-02 -1.65855084e-02  3.24281938e-02 -8.16089585e-02
  -3.50512639e-02 -1.82771292e-02 -1.01501541e-02  3.56158651e-02
   5.06369360e-02 -7.83019289e-02  2.46273056e-02  4.47169282e-02
   3.68361846e-02  4.79009375e-02 -4.70581688e-02  2.66780015e-02
   7.81784952e-02 -3.29651870e-02  1.53002635e-01 -1.45425007e-01
   9.55611118e-04  1.73927397e-02 -5.93059957e-02 -2.18873676e-02
  -1.00039445e-01  3.83749679e-02 -1.90316170e-01  3.78063209e-02
   3.74983959e-02  1.34626282e-02 -2.70901229e-02 -1.36642000e-02
   4.26308699e-02  2.08944343e-02 -6.35037422e-02  5.46311475e-02
   1.69574320e-02  5.64441234e-02 -1.18476816e-01 -5.54542728e-02
  -9.21577811e-02  4.88507422e-03 -9.87156481e-02  7.05218762e-02]
 [-2.37647090e-02  1.55263755e-03 -2.26813112e-03 -2.95157712e-02
  -2.15706661e-01 -1.95190031e-02  1.51407840e-02  7.18813464e-02
  -5.34136929e-02  2.08824314e-02 -5.15145324e-02 -4.61040065e-02
   2.44695637e-02 -6.41353503e-02  3.85157168e-02 -6.06672652e-02
   1.57349464e-02 -5.23504727e-02  7.04879314e-02  3.93097512e-02
   1.58699956e-02 -6.88463673e-02 -5.38182147e-02 -9.57812369e-03
   1.36522315e-02  1.07934587e-02 -6.52582869e-02  3.73203605e-02
   5.69767579e-02 -1.41669050e-01 -1.14830859e-01 -3.24544534e-02
   7.58381337e-02  2.39834160e-01 -5.85689768e-02 -3.75513770e-02
   1.13371909e-01 -1.84767693e-02  3.87867764e-02 -1.21567428e-01
   4.28450340e-03 -1.11653402e-01 -2.43016873e-02 -9.57413670e-03
   1.53373545e-02 -1.45356536e-01  3.48474942e-02 -1.54884905e-01
   4.69373576e-02  2.63595879e-01 -9.04418062e-03  2.36527339e-01
  -3.33282538e-02  4.05657887e-02  8.41459073e-03 -6.52648974e-03
  -1.89869516e-02  1.90491363e-01 -4.44942014e-03  2.78016645e-02
  -1.53938979e-01  1.17488824e-01 -1.04777655e-02 -6.73480853e-02
   8.77681449e-02  3.55126299e-02  9.13903415e-02 -5.16956449e-02
  -3.37896347e-02  5.11199757e-02 -7.52481446e-02 -4.00839671e-02
  -1.49359996e-03 -3.04362215e-02  6.01040684e-02  1.60455570e-01
  -5.12855016e-02  1.63046829e-02 -1.91277619e-02  5.08716963e-02
  -2.10058708e-02 -2.60871043e-03  6.70494437e-02 -9.60336719e-03
  -1.21290283e-02 -2.08545439e-02 -4.55788970e-02 -1.30060259e-02
  -5.17235361e-02 -6.89020157e-02  4.01021838e-02  3.90100926e-02
   1.38089089e-02 -3.34266499e-02  1.86903682e-02 -2.54210476e-02
   4.14786302e-02  4.58709598e-02 -3.60530918e-03 -3.53278220e-02
   8.93760994e-02 -3.56823616e-02  1.90936238e-01 -1.56637922e-01
  -1.47235300e-02  1.08549371e-01 -6.59069121e-02  3.83496396e-02
  -2.27730703e-02 -9.97241065e-02  1.73814374e-03 -6.24600649e-02
  -9.46126580e-02 -4.44676504e-02 -4.30467054e-02 -1.55466840e-01
  -4.63333204e-02  2.51072645e-01  3.57444547e-02 -5.80202118e-02
   7.57845789e-02 -4.73145619e-02  1.27385989e-01  8.02105814e-02
   2.24505663e-01 -4.09674048e-02 -5.95179060e-03  3.09414277e-03]
 [ 2.10363418e-02 -1.70887467e-02  1.06144518e-01 -3.58660258e-02
   6.34282678e-02 -9.55862552e-02 -5.59635647e-02 -1.43876672e-01
  -7.83827901e-03  1.05670793e-02 -7.16564339e-03 -5.60490489e-02
  -2.91292798e-02  1.32811703e-02  6.60786852e-02  1.07704839e-02
  -8.80973190e-02 -9.49776545e-02  1.57431930e-01  3.47835422e-02
  -1.64032102e-01  2.45844219e-02 -2.30185967e-02 -6.43822402e-02
   1.17818359e-02 -5.14908582e-02  1.66473947e-02  1.78930978e-03
  -1.03037454e-01  3.84231061e-02 -1.89576373e-01 -7.79347569e-02
  -7.56395087e-02  2.94670165e-02 -5.63311838e-02 -2.42482480e-02
  -2.72422791e-01 -1.14790006e-02 -1.30235776e-01  4.97194566e-02
  -4.48465571e-02 -8.86655301e-02 -1.10404350e-01 -6.87946230e-02
  -1.90876526e-05  6.48200437e-02 -6.16947375e-02  1.35211572e-01
  -5.63870966e-02  3.26855630e-02 -3.54863703e-02  1.00645438e-01
   8.10392052e-02  5.31680286e-02 -4.96489182e-02 -8.89088660e-02
   7.12181479e-02  5.27125970e-02  1.43558411e-02 -1.92059740e-01
   1.28347993e-01  1.77170590e-01 -4.16567847e-02  8.57920095e-04
   1.51538461e-01 -4.39317152e-02  2.14231871e-02 -5.81125021e-02
  -3.31350155e-02 -2.11307928e-02 -2.70798281e-02  1.39554068e-02
   4.89703752e-02  1.23267984e-02 -4.37873118e-02  1.35288024e-02
   1.35423569e-02 -3.20247412e-02 -1.32964119e-01  3.71264592e-02
   3.24669145e-02 -4.91545312e-02 -7.86365271e-02  2.35609710e-02
  -3.96111645e-02  3.59849855e-02 -6.41429201e-02  3.15563530e-02
  -4.74787988e-02 -2.63957009e-02 -5.96630424e-02 -1.13354567e-02
  -6.77010193e-02 -7.16321077e-03 -4.68947552e-02  4.56701666e-02
  -3.25330310e-02 -9.81695298e-03  1.27165532e-02  8.25335551e-03
  -4.15733270e-02 -5.90577871e-02  9.06483363e-03  3.31551693e-02
  -5.69594838e-02 -6.18927851e-02 -2.09766515e-02  1.24485958e-02
   5.31647019e-02 -9.20262486e-02  1.64275214e-01 -1.37147726e-03
   1.62015140e-01 -1.80549473e-02 -1.98849291e-02 -1.17805824e-01
  -4.86169681e-02  1.13997310e-01  1.06654763e-01  1.15367703e-01
  -1.54104501e-01 -5.35004446e-03 -1.71402961e-01 -6.75645620e-02
  -2.56423317e-02 -2.90463828e-02  6.95838556e-02  1.09521054e-01]
 [-3.23498435e-02 -5.38110584e-02 -2.28126004e-01 -5.11852838e-02
  -1.12189442e-01  9.12800580e-02 -5.98066077e-02  2.97733359e-02
   2.20422987e-02  5.87284705e-03 -2.56071556e-02 -1.86357666e-02
   1.19875878e-01  2.68128905e-02  5.76769523e-02 -1.20317163e-02
  -8.80386382e-02  1.12848267e-01 -4.38893214e-02  7.96076562e-03
  -9.31040496e-02 -4.42893840e-02 -3.24721858e-02  1.79479998e-02
  -3.74234058e-02 -2.21891366e-02  4.21638340e-02 -3.76852900e-02
  -8.74175131e-02 -3.89159434e-02 -5.50283585e-03 -3.21884267e-02
  -1.08025596e-01  7.63253076e-04  2.98040267e-02  5.22460416e-02
  -7.20688179e-02  7.78188987e-04 -5.27323447e-02 -1.16778225e-01
  -1.31176235e-02  1.74143657e-01 -5.75736165e-02  1.18955798e-01
   3.56888287e-02 -7.00655431e-02  4.80440743e-02  3.91679257e-02
  -1.65371913e-02  1.11433633e-01 -3.45434621e-02  1.29054278e-01
   1.83516920e-01 -1.80983804e-02  1.33405775e-01 -1.08414389e-01
   5.43860719e-02  9.10734311e-02 -4.94793467e-02  8.01082253e-02
   1.27735868e-01  4.48616073e-02  3.60166691e-02  5.10247387e-02
   2.87971705e-01 -2.63713710e-02 -3.95008223e-03 -7.27730058e-03
   4.71852571e-02  3.19530070e-02 -8.03876445e-02 -1.92631800e-02
  -5.79434410e-02 -2.53508657e-01  1.23886265e-01  6.26873821e-02
  -8.00882727e-02 -4.07119691e-02 -5.40983689e-04  3.02285049e-02
  -6.36174157e-02  9.11855102e-02  2.93285102e-02 -4.00021523e-02
  -3.65945734e-02 -2.60981563e-02 -2.25320403e-02 -2.82077584e-02
   4.42144051e-02 -2.82576191e-03  4.07911949e-02  3.22960317e-02
  -2.50788648e-02 -7.26273954e-02 -6.55254116e-03  1.04143191e-02
  -5.46060614e-02  1.03984900e-01 -5.96756451e-02 -4.67747301e-02
  -4.78405021e-02 -7.33940005e-02  1.40432075e-01 -7.57836550e-02
   3.41869704e-03  8.88365358e-02  1.14903478e-02  1.03059569e-02
  -2.48029921e-02  9.72560868e-02  1.38228526e-02  7.70892054e-02
   1.67144597e-01  8.27478711e-04 -5.92123047e-02  1.28524080e-01
  -5.89759275e-02  1.93820372e-01  8.04291293e-02 -5.09067476e-02
  -1.07779987e-01  1.56891029e-02  1.37653962e-01 -1.10110715e-01
   8.57454538e-02 -1.37312040e-02  1.28108308e-01  1.64384931e-01]
 [ 8.59786384e-03 -4.51874360e-02 -3.57523113e-02  3.91688012e-02
   8.08592588e-02 -1.15463048e-01 -5.11581078e-02  3.14572453e-02
  -3.26049812e-02 -3.26266065e-02 -1.51555883e-02 -1.72681790e-02
  -6.66203648e-02 -2.48877797e-02  5.26543409e-02  7.99603201e-03
  -9.66617391e-02 -1.80492088e-01  6.25144467e-02  1.76684130e-02
  -6.15540370e-02 -1.42503697e-02 -6.19825758e-02 -1.66952889e-02
  -1.18665705e-02 -1.05781116e-01 -1.18458383e-01 -2.91012023e-02
   4.72377054e-02  1.00440420e-01  4.70584556e-02 -2.08226591e-02
  -4.14792560e-02 -7.56990612e-02  2.04677461e-03 -6.53586164e-02
   1.90167315e-02  3.62177268e-02 -6.12121485e-02 -1.86505497e-01
  -7.25042894e-02 -1.15808830e-01 -3.51138413e-02 -5.69981597e-02
  -1.17193861e-02  6.61817789e-02  1.38005642e-02  1.80922046e-01
   2.66100466e-02 -3.00630238e-02  3.58017674e-03 -1.20285407e-01
  -5.21961749e-02 -2.76365392e-02 -3.47501934e-02  3.97825353e-02
  -3.76736000e-02 -7.62634259e-03 -1.90652423e-02  1.07931428e-01
   8.05876479e-02  4.20477334e-03  3.95103879e-02 -1.32551007e-02
   2.96636764e-02 -6.20848387e-02  1.39532303e-02 -6.54584393e-02
  -6.46507218e-02  4.00878452e-02  1.42927561e-02 -4.38879468e-02
   3.37035023e-02  1.66756362e-02  9.29469690e-02 -1.56224016e-02
   1.56026576e-02 -2.78974473e-02 -6.58586025e-02  2.28127763e-02
   6.83973450e-03  1.38065144e-02  9.78288129e-02  1.06570600e-02
   1.72671974e-02 -5.77098727e-02 -5.52287512e-02 -5.94403110e-02
   2.55069938e-02  4.19484377e-02 -1.19318133e-02  2.96836607e-02
  -8.88412744e-02 -2.95358002e-02  1.83290262e-02  2.09820699e-02
  -1.13065295e-01 -6.47409335e-02 -6.60466254e-02  2.41914950e-02
  -2.11119633e-02  5.57420636e-03 -1.35825966e-02 -4.66788262e-02
   1.05928779e-02  5.06022647e-02 -8.68241191e-02 -3.91823612e-02
  -1.80787332e-02 -3.34985666e-02  1.05998255e-01 -2.83996072e-02
  -1.99986845e-01  3.16894911e-02 -6.45346791e-02  1.02917433e-01
   1.98697634e-02 -3.25981304e-02 -1.36316754e-02 -4.64484133e-02
  -1.58114240e-01  1.02807034e-03 -3.98143567e-02 -5.48478812e-02
   3.45798619e-02 -6.34947792e-02  6.74155951e-02  1.08821437e-01]
 [ 4.49448219e-03  1.89145580e-02  2.95367371e-02  4.95802946e-02
  -1.04375295e-01 -3.31568792e-02 -5.45505360e-02 -2.15767160e-01
  -6.52723610e-02 -1.11525655e-02  2.25664973e-02  7.58309290e-02
   1.15943879e-01 -1.43898465e-02 -8.07788223e-02 -5.38457260e-02
  -4.38082963e-03 -1.31191790e-01 -9.01172236e-02 -1.54568842e-02
   9.39757153e-02  5.63877001e-02 -6.51602820e-02  4.42232229e-02
  -5.99345416e-02  1.53747216e-01  9.57233086e-03 -3.07299569e-03
  -1.25837594e-01  2.93536820e-02 -9.11701657e-03 -4.68974352e-01
  -8.77484530e-02 -1.35645896e-01 -3.12691778e-02  6.21992648e-02
  -1.39615834e-02 -3.90184075e-02 -1.66107446e-01  1.43097207e-01
  -4.32514697e-02 -1.53367236e-01 -8.27104226e-02  2.27016479e-01
  -1.30629465e-02  2.19219923e-01 -1.80575494e-02 -1.37003645e-01
  -4.95726652e-02  1.12700332e-02 -6.20385408e-02  5.16562574e-02
   5.29923476e-02 -4.78283444e-04 -1.12115838e-01  1.35446489e-01
  -1.39716223e-01 -2.35958844e-01  7.73389637e-03  1.49722904e-01
   8.48267153e-02 -3.97505648e-02 -1.10090449e-02 -5.19182906e-03
   1.17243990e-01 -2.88148262e-02  8.23511779e-02 -1.04752630e-02
   4.74669859e-02 -1.79018360e-02  6.57011494e-02  4.16906327e-02
   1.91498175e-02 -9.74361748e-02 -9.15677920e-02 -1.28491312e-01
   9.92219672e-02 -2.28287596e-02  2.70420443e-02  4.82361615e-02
   3.47271487e-02 -3.57992910e-02  5.32151312e-02  1.68516338e-02
   1.48652270e-02  1.89252496e-02 -1.41468439e-02  1.90584920e-02
  -2.64873207e-02  3.81050929e-02  6.30547013e-03 -6.53709099e-03
  -6.91971257e-02 -6.76832199e-02  3.33126411e-02 -4.96980622e-02
  -5.26819043e-02  1.33317962e-01  5.94160520e-02  3.29021215e-02
   2.10563820e-02 -8.76325890e-02 -1.82549283e-01 -1.30545991e-02
   2.96067838e-02 -2.24466935e-01 -2.01957896e-02  9.83014703e-03
   7.76031688e-02  1.61339983e-01 -3.75899792e-01 -8.88754949e-02
   1.31166093e-02 -4.75725887e-04 -9.51343775e-02 -4.52761874e-02
  -5.64400256e-02  5.33643179e-02  5.91759123e-02 -1.67714208e-02
   2.71923065e-01 -1.39526173e-01 -5.42333312e-02  5.74215055e-02
   2.44322091e-01  8.93375278e-03 -1.38673857e-01  3.87515202e-02]
 [-5.16094863e-02  5.55632226e-02 -5.75461611e-02  7.53043732e-03
  -7.65132904e-02  1.15906172e-01 -3.91085893e-02 -2.23523118e-02
  -6.05832413e-02  5.09357862e-02 -9.16727260e-03 -3.26256827e-02
  -1.65407032e-01  2.68281568e-02  1.71328723e-01  1.25351846e-02
  -4.88287350e-03 -7.48378262e-02  1.06121957e-01  3.64845917e-02
  -1.91462263e-01 -5.29165305e-02  3.88794690e-02  9.20362491e-03
  -5.06767407e-02  1.18663564e-01 -6.22236542e-02  5.09567112e-02
   1.19690165e-01 -2.72267103e-01 -2.57118400e-02  8.63816589e-02
   4.69399616e-02  1.06813811e-01 -9.12972689e-02 -2.22629644e-02
  -1.99960675e-02 -5.40203527e-02  2.39265859e-02  1.05444025e-02
  -2.36068573e-03 -9.32480842e-02 -7.04469308e-02  6.62293807e-02
   6.11454137e-02 -8.53869170e-02  6.30755350e-03 -1.00330316e-01
   1.12134814e-02  4.39181328e-02  1.62599161e-02  2.85270624e-02
   2.77105570e-02 -4.13646325e-02 -4.93811555e-02 -8.20996016e-02
   2.48939116e-02 -5.53208552e-02 -5.26029728e-02  5.88122495e-02
   4.04246375e-02 -7.63148367e-02 -2.40319688e-03  6.46157004e-03
   9.23064947e-02 -2.15075649e-02 -3.46993320e-02 -5.05228236e-04
  -4.33931723e-02 -9.47977453e-02  3.96345044e-03  3.02665029e-03
   1.36129232e-02 -7.37333745e-02  3.36693935e-02 -6.34782538e-02
  -2.68306062e-02  7.86024146e-03 -2.25773044e-02  1.73672270e-02
  -1.89745007e-03 -7.87021592e-02 -1.84331700e-01 -1.71867013e-02
  -2.64290581e-03 -4.75182140e-04  6.16165623e-02 -9.19480994e-02
   3.60026187e-03 -1.46481609e-02 -1.19131133e-02 -2.57268809e-02
  -8.39285553e-02 -2.82477662e-02  7.53423795e-02  1.48841133e-02
   5.07846437e-02 -2.47422550e-02  2.70037297e-02 -2.27922760e-03
  -3.06787174e-02  4.83532622e-03  1.75687924e-01 -2.28696480e-01
   6.78885437e-04  1.17697008e-03 -2.81534977e-02 -5.64610139e-02
  -4.79017794e-02  9.29502323e-02 -8.49397033e-02  3.68106202e-03
  -1.37538493e-01  9.14368546e-04 -5.83336055e-02 -8.69541243e-02
   4.73426655e-02  8.30777958e-02  2.62453482e-02 -3.13941017e-02
  -1.91216674e-02  6.27127960e-02 -1.60637379e-01  3.43078449e-02
   1.51797786e-01 -2.90886741e-02 -2.44715810e-01 -9.79421437e-02]
 [-4.99657206e-02  2.95273843e-03 -1.35144517e-01 -1.19626643e-02
  -1.86938748e-01  7.14505464e-02 -6.45579547e-02  6.38974831e-02
  -7.38299415e-02  3.10334917e-02  5.94181241e-03 -4.55286130e-02
  -1.42739162e-01 -6.99569285e-02 -2.42715683e-02  1.16481632e-02
   4.31306399e-02 -1.49345487e-01 -7.23873451e-02  2.98890099e-02
  -9.10857245e-02 -3.38728242e-02  4.62343320e-02 -2.21892800e-02
   2.31041647e-02  4.12989110e-02 -1.64000914e-02  9.30375699e-03
   3.26675959e-02 -1.46972954e-01 -1.18436784e-01  8.97492543e-02
   1.58999842e-02  8.40017125e-02 -7.99379572e-02 -1.00949258e-02
  -8.91338959e-02  4.28449325e-02  1.01587810e-02  3.45834973e-03
   4.79621328e-02 -5.30563667e-02  7.56683126e-02 -1.54570386e-01
  -4.84863445e-02 -9.51962098e-02 -1.70850498e-03 -1.23763354e-02
  -3.10876723e-02  2.22171634e-01 -1.08152796e-02  1.56315655e-01
   2.47325692e-02 -4.31920029e-02  1.10062040e-01 -7.28986487e-02
  -1.00408368e-01  1.10229321e-01  1.50380386e-02  4.42097336e-03
  -1.48136273e-01  1.99494250e-02  2.18067784e-02  4.15636003e-02
   5.50181381e-02  3.90652418e-02  3.72203961e-02  4.13959660e-02
   5.36421454e-03 -1.87199667e-01 -2.51846407e-02 -9.57612693e-02
   5.25593348e-02 -5.31267822e-02 -6.73751393e-03  3.02365376e-03
  -3.95333841e-02 -1.47319036e-02 -2.76962877e-03  5.10471202e-02
  -3.86390649e-02  2.23222468e-02 -3.61761488e-02 -8.67557898e-03
   3.67046259e-02  5.50458441e-03  1.12967072e-02  4.90354970e-02
  -3.47962528e-02  2.06790771e-02  3.47541906e-02 -3.49950194e-02
   4.03522439e-02 -1.99883841e-02 -1.00431759e-02 -3.17312665e-02
  -1.26710627e-02  1.08333185e-01 -5.64403459e-03 -8.28183314e-04
  -2.02757046e-02 -1.07680764e-02  1.93525285e-01  2.65633268e-03
  -4.36831340e-02  4.71231192e-02  2.62972899e-02  1.28379585e-02
  -9.24850069e-03  3.10204481e-03  6.49361312e-03 -5.67715280e-02
   5.14308400e-02 -2.87067741e-02  1.45855928e-02 -1.64111909e-02
  -7.56576983e-03  7.23032057e-02  5.44586703e-02  4.47676554e-02
  -1.04957446e-02  2.79570632e-02  4.04489189e-02 -2.33464167e-02
   3.68129387e-02  6.99304510e-03  3.41067351e-02 -5.06677553e-02]
 [-2.90428929e-04 -4.34123240e-02  1.68321162e-01 -6.00968599e-02
  -7.17042312e-02 -1.19580679e-01 -3.03100683e-02 -1.00036994e-01
  -7.85120949e-03  1.75513793e-02 -4.77134064e-02 -2.37080250e-02
   4.18790942e-03  4.78485823e-02 -8.39287564e-02  7.46118929e-03
  -2.33021993e-02 -8.98538083e-02  4.15503941e-02 -9.39598158e-02
  -5.03197573e-02 -1.26903690e-02 -1.08475778e-02 -4.77543697e-02
  -3.24328728e-02 -9.70334280e-03  4.91672568e-02  1.49027267e-02
  -4.38145660e-02  6.19495660e-02 -5.26528768e-02 -2.29045171e-02
   5.53077981e-02  1.37639828e-02 -2.92992946e-02  1.24810087e-02
  -1.90984145e-01  5.12679704e-02 -1.24319233e-01 -2.02871151e-02
  -4.97395061e-02 -1.64403304e-01 -1.57637894e-01 -1.34355053e-01
   2.00903267e-01 -3.00263278e-02  5.17532453e-02 -1.87643673e-02
   3.22749577e-02 -3.50209814e-03 -6.62480369e-02  3.18104513e-02
   7.19082821e-03 -5.63238598e-02  6.82981163e-02 -1.88002378e-01
   7.28137279e-03  7.75862336e-02  5.70678106e-03 -2.78143406e-01
  -4.74962704e-02  2.97761578e-02 -2.05649273e-03 -4.75103185e-02
  -3.84809710e-02 -3.02546937e-02 -1.00832649e-01  9.02302284e-03
   2.88522951e-02  9.89370197e-02 -4.65998165e-02  3.24593782e-02
   3.08124572e-02 -2.41540391e-02 -1.89015672e-01  8.40307772e-02
  -1.01528101e-01 -1.36409290e-02  6.28769677e-03 -5.73469289e-02
  -5.36537804e-02 -1.41510844e-01 -2.84640074e-01  1.56143298e-02
  -3.06886788e-02  8.54719779e-04 -3.62611525e-02  6.38330504e-02
  -2.65154224e-02  4.11505923e-02  4.94649187e-02 -5.64895524e-03
  -3.01799849e-02 -2.23552752e-02  4.99111973e-02 -3.41727920e-02
   1.02015594e-02  1.78947356e-02  5.40223382e-02 -3.85711677e-02
  -6.04155399e-02 -4.50779833e-02  1.25971720e-01 -1.01881646e-01
  -3.31002939e-03  2.18190104e-02  4.73152958e-02  7.41392002e-02
   1.31968707e-02  7.36276954e-02  1.91126376e-01  1.34755606e-02
   1.67803437e-01 -6.41145930e-02 -1.90019421e-02  9.12133604e-02
  -5.33940420e-02  8.29286724e-02  7.74678439e-02  4.84405085e-02
   9.94831324e-02 -2.48918608e-01 -2.43567392e-01 -8.98549184e-02
  -2.71345917e-02  1.24178398e-02 -4.46097627e-02 -4.93706502e-02]
 [ 1.15408385e-02 -1.09335063e-02 -1.15940087e-01 -4.05855440e-02
  -1.67792827e-01 -4.95354347e-02  2.56951695e-04 -6.31422922e-02
   9.36577283e-03 -2.07008645e-02 -2.74776146e-02  7.09404889e-03
   1.04269616e-01  1.92616042e-02  1.91512592e-02  3.28713586e-03
  -3.68672200e-02  9.50140059e-02  1.18967541e-01  8.20983872e-02
   1.75817870e-02 -3.71119343e-02  1.46940909e-02 -6.81253523e-03
  -5.40117100e-02 -4.14501987e-02 -2.83850115e-02 -4.67021205e-03
  -8.89620483e-02  6.76799100e-03 -1.23856738e-01 -2.46455111e-02
  -6.03903159e-02 -9.53296125e-02 -6.17464818e-02 -6.09023720e-02
  -2.34803453e-01 -4.00612652e-02 -3.50486711e-02 -6.22208603e-02
  -8.53317091e-04 -1.11876339e-01 -1.04826726e-01  2.04263814e-02
   1.33962542e-01 -1.36943176e-01  1.22946864e-02  2.92100962e-02
  -5.43437116e-02  6.32166117e-02 -4.45293114e-02  1.02471121e-01
   1.20272920e-01 -3.23733836e-02  6.33153915e-02  5.97370323e-03
   4.20997385e-03  5.05601428e-03 -2.84862854e-02 -2.20884220e-03
  -6.56263307e-02  2.71772444e-02  8.46410356e-03  3.24819162e-02
   3.11326496e-02  2.84363683e-02 -7.35726673e-03  1.72426458e-02
  -1.06979139e-01 -1.71933230e-03 -2.18873397e-02 -1.89146306e-02
  -1.93071608e-02 -5.52149713e-02 -3.34041640e-02  2.21686795e-01
  -4.74768803e-02 -5.19429408e-02 -1.45867728e-02 -1.25973970e-02
  -3.32216136e-02  2.27611437e-02 -1.37572482e-01 -4.22521532e-02
   3.87789980e-02  1.55677721e-02 -1.60127729e-02 -5.67529933e-04
   1.81543473e-02 -2.44117659e-02 -1.38958385e-02 -1.77110136e-02
  -5.81584834e-02  3.22649293e-02  2.85414923e-02  1.46775804e-02
   1.23290226e-01  7.15843812e-02  1.82260089e-02  3.30696702e-02
   3.28895152e-02 -6.41004369e-02 -2.77439151e-02 -1.33249983e-01
  -5.34738936e-02 -5.73775358e-02 -6.60678744e-02 -6.85207471e-02
   1.79289486e-02  1.60393581e-01 -1.30468383e-01 -1.00494782e-02
   1.13089375e-01  3.34417410e-02 -2.53382865e-02 -1.15707174e-01
  -3.10426764e-02 -1.86829306e-02  6.95775524e-02  2.31194906e-02
   1.09212801e-01  6.55539930e-02  2.96995733e-02 -1.30506530e-02
  -2.77750622e-02 -1.56141864e-03  1.60601996e-02  3.80296148e-02]
 [-6.02746978e-02  6.39422797e-03 -2.35889666e-02 -8.47528428e-02
   1.22115619e-01 -1.18492819e-01  6.71356497e-03 -7.29572922e-02
  -6.86779544e-02 -7.15629896e-03 -7.97705427e-02 -7.30851293e-02
  -3.99166346e-02 -2.30093244e-02  2.36910321e-02 -2.79208794e-02
  -1.78037602e-02  4.90479032e-03  5.68183400e-02 -2.55406145e-02
  -6.62130266e-02 -5.41100688e-02 -2.94795558e-02  3.66025046e-02
   1.91355180e-02  8.01170915e-02 -1.00132570e-01 -6.12181351e-02
   8.53113309e-02 -1.16642378e-02  7.41654187e-02 -3.82849248e-03
  -8.64577964e-02 -8.51152390e-02  2.75300946e-02  1.25898430e-02
   2.46649608e-02 -3.32615077e-02  3.59634608e-02 -2.32630223e-01
   4.73294547e-03 -7.46171102e-02 -7.73100480e-02 -3.57568786e-02
   2.69628670e-02  3.31259109e-02 -1.01818191e-02  1.46601245e-01
  -2.47215834e-02  2.25745514e-03  2.46868040e-02 -8.71291533e-02
   1.67552952e-03 -2.38275118e-02  1.17981352e-01  7.77860507e-02
   2.36881264e-02 -6.54249126e-03  1.99740585e-02  9.74349678e-02
